%YAML:1.0
---
opencv_ml_ann_mlp:
   format: 3
   layer_sizes: [ 324, 100, 2 ]
   activation_function: SIGMOID_SYM
   f_param1: 6.6666666666666663e-01
   f_param2: 1.7159000000000000e+00
   min_val: -9.4999999999999996e-01
   max_val: 9.4999999999999996e-01
   min_val1: -9.7999999999999998e-01
   max_val1: 9.7999999999999998e-01
   training_params:
      train_method: BACKPROP
      dw_scale: 1.0000000000000000e-03
      moment_scale: 0.
      term_criteria:
         epsilon: 1.0000000000000001e-01
         iterations: 50
   input_scale:
      - 1.1927041691534004e+01
      - -1.8135598074718662e+00
      - 1.1731878122535347e+01
      - -1.5988243969999631e+00
      - 1.1968894684675016e+01
      - -1.4670067305907897e+00
      - 1.3229457276182195e+01
      - -1.3705635730581562e+00
      - 1.3179021001804012e+01
      - -1.5979353611835077e+00
      - 1.3262813034043539e+01
      - -1.3872586989199496e+00
      - 1.1808109613423769e+01
      - -1.4762503808383367e+00
      - 1.1319508220767140e+01
      - -1.5764687773947608e+00
      - 1.1700415790379640e+01
      - -1.7971135503931768e+00
      - 1.1755278900290175e+01
      - -1.8816613974468261e+00
      - 1.1390231021521839e+01
      - -1.7259437375111719e+00
      - 1.1489318516562930e+01
      - -1.5785989569682393e+00
      - 1.2508751188106068e+01
      - -1.4665825869938254e+00
      - 1.2555936907637804e+01
      - -1.7077737305347882e+00
      - 1.2377315997076037e+01
      - -1.4630371800680722e+00
      - 1.1467498682708689e+01
      - -1.5840551481412148e+00
      - 1.1322678564713019e+01
      - -1.7348401086929808e+00
      - 1.1502139383358793e+01
      - -1.8552296594713575e+00
      - 1.1658991774124804e+01
      - -1.9536324318206608e+00
      - 1.1131467877210737e+01
      - -1.6952659641461105e+00
      - 1.1309783587616760e+01
      - -1.5647060072157031e+00
      - 1.2525330944552580e+01
      - -1.4760829441418408e+00
      - 1.2486007721398437e+01
      - -1.5362237752275030e+00
      - 1.2705902093162670e+01
      - -1.5012003910974421e+00
      - 1.1480761339235634e+01
      - -1.5995046129583785e+00
      - 1.1221255811800226e+01
      - -1.7265568074486766e+00
      - 1.1657844354698426e+01
      - -1.9589022073026658e+00
      - 1.1594045724173338e+01
      - -2.0189306706386669e+00
      - 1.1105011152652521e+01
      - -1.8349811206223670e+00
      - 1.1155393567434754e+01
      - -1.6921902362453822e+00
      - 1.1970890229357702e+01
      - -1.5856636966808912e+00
      - 1.1974216346252440e+01
      - -1.6564210371954193e+00
      - 1.2123518084906539e+01
      - -1.6204502376868528e+00
      - 1.1183243690505213e+01
      - -1.7362908486401691e+00
      - 1.1060877539031003e+01
      - -1.8879492194612084e+00
      - 1.1358278518381269e+01
      - -2.0109322914955841e+00
      - 1.2011554493292698e+01
      - -1.7559003384562517e+00
      - 1.1827761600227149e+01
      - -1.6183176219451907e+00
      - 1.2163268676782222e+01
      - -1.4954875230897855e+00
      - 1.3187013442988155e+01
      - -1.3939174796479155e+00
      - 1.3175266835596885e+01
      - -1.6304390972384644e+00
      - 1.3179529755184774e+01
      - -1.4045323912898025e+00
      - 1.1808338165576187e+01
      - -1.5024024803063276e+00
      - 1.1339203230959814e+01
      - -1.6127153269069725e+00
      - 1.1572522116571641e+01
      - -1.7247990539149876e+00
      - 1.1823886538576490e+01
      - -1.8789779234055053e+00
      - 1.1478131000489924e+01
      - -1.7204217673993840e+00
      - 1.1530589331757820e+01
      - -1.5747809706018272e+00
      - 1.2441381567120491e+01
      - -1.4707765162234727e+00
      - 1.2516759464667439e+01
      - -1.7294988116956362e+00
      - 1.2546484291514650e+01
      - -1.4907114262826522e+00
      - 1.1651725675403032e+01
      - -1.6212372570965234e+00
      - 1.1149766154500812e+01
      - -1.7080077742343620e+00
      - 1.1447584849214886e+01
      - -1.8428528007998712e+00
      - 1.1557777327145464e+01
      - -1.8618792374904629e+00
      - 1.1179003536334690e+01
      - -1.7231310159275721e+00
      - 1.1408220675252984e+01
      - -1.6014821123005858e+00
      - 1.2430076973013037e+01
      - -1.5076428530840991e+00
      - 1.2393596395037374e+01
      - -1.5758062156467569e+00
      - 1.2500364130994420e+01
      - -1.5165090498102365e+00
      - 1.1529076457621819e+01
      - -1.6233854012433926e+00
      - 1.1217602917948650e+01
      - -1.7426259668365192e+00
      - 1.1380658183995141e+01
      - -1.8505550364167080e+00
      - 1.1617661263498791e+01
      - -2.0191967939693609e+00
      - 1.1078903263549407e+01
      - -1.8337699068758608e+00
      - 1.1290018315747202e+01
      - -1.7111447898516656e+00
      - 1.1780254872899480e+01
      - -1.5743179364252398e+00
      - 1.2020316940876198e+01
      - -1.6838653482758523e+00
      - 1.2114870495825977e+01
      - -1.6245253398737205e+00
      - 1.1294756346005771e+01
      - -1.7458988766738202e+00
      - 1.1055907065658930e+01
      - -1.8607803634544917e+00
      - 1.1382537776721769e+01
      - -1.9969344467992012e+00
      - 1.2000627368563892e+01
      - -1.7287946295948369e+00
      - 1.1712893062521109e+01
      - -1.5775686180461916e+00
      - 1.1980995475734952e+01
      - -1.4733635641963452e+00
      - 1.3004982824934613e+01
      - -1.3870413089563829e+00
      - 1.2920844173793069e+01
      - -1.6419080305292477e+00
      - 1.3243387614615891e+01
      - -1.4402115881520638e+00
      - 1.1798231759857353e+01
      - -1.5242467981643730e+00
      - 1.1108806064968613e+01
      - -1.5941242890694340e+00
      - 1.1439234056552046e+01
      - -1.7023219445804827e+00
      - 1.2125568138611930e+01
      - -1.9697799102012172e+00
      - 1.1360000628851230e+01
      - -1.6354817771940211e+00
      - 1.1441601413427410e+01
      - -1.5151283827813071e+00
      - 1.2166694851020505e+01
      - -1.4170480156859764e+00
      - 1.2332527785959886e+01
      - -1.7012156793231974e+00
      - 1.2561194094149762e+01
      - -1.4861610240476875e+00
      - 1.1623228300132984e+01
      - -1.5981430737121749e+00
      - 1.0996491650176994e+01
      - -1.6711467137515681e+00
      - 1.1606365459413995e+01
      - -1.9329651767212912e+00
      - 1.1583765329563851e+01
      - -1.8542055758844964e+00
      - 1.1104865890440749e+01
      - -1.7010374409072411e+00
      - 1.1452969318990611e+01
      - -1.6082146441272585e+00
      - 1.2361010112262242e+01
      - -1.5108351616528157e+00
      - 1.2317521507096979e+01
      - -1.5941900010617227e+00
      - 1.2523997801640174e+01
      - -1.5289200969580163e+00
      - 1.1537185068701259e+01
      - -1.6244677722839234e+00
      - 1.1099568889922976e+01
      - -1.7109211383078418e+00
      - 1.1342755441545906e+01
      - -1.8232826134653548e+00
      - 1.1981118319622595e+01
      - -2.1256567846503369e+00
      - 1.1128892643423795e+01
      - -1.7691138979577459e+00
      - 1.1270474162048243e+01
      - -1.6673987477832199e+00
      - 1.1824407742456794e+01
      - -1.5544622904018970e+00
      - 1.1832783513314613e+01
      - -1.6551646961853992e+00
      - 1.2128475287993686e+01
      - -1.6172907668092538e+00
      - 1.1295420345452468e+01
      - -1.7390588161171285e+00
      - 1.0927313123565327e+01
      - -1.8261336180251633e+00
      - 1.1576919597396186e+01
      - -2.1133530708901609e+00
      - 1.2335290973755470e+01
      - -1.8449088758758319e+00
      - 1.1661543458686310e+01
      - -1.5938071775630620e+00
      - 1.1936420549371821e+01
      - -1.5028631457524599e+00
      - 1.3131728007692429e+01
      - -1.4267230555029649e+00
      - 1.3225856919482000e+01
      - -1.4954273049609277e+00
      - 1.3300141349272289e+01
      - -1.4567372264577272e+00
      - 1.1759752053644361e+01
      - -1.5227156427095541e+00
      - 1.1309316692242859e+01
      - -1.6173830106687495e+00
      - 1.2010176855693368e+01
      - -1.8266347423235889e+00
      - 1.1927779870383663e+01
      - -1.8947768961019382e+00
      - 1.1354237176972685e+01
      - -1.7377352614808124e+00
      - 1.1429107768690564e+01
      - -1.6172774744193035e+00
      - 1.2415643982624749e+01
      - -1.5252071217009548e+00
      - 1.2448937771940805e+01
      - -1.5929343768939119e+00
      - 1.2579831636325560e+01
      - -1.5462091988529998e+00
      - 1.1400687365956113e+01
      - -1.6302865770758188e+00
      - 1.1129077518113542e+01
      - -1.7372526927729428e+00
      - 1.1553821697147086e+01
      - -1.8488575627231592e+00
      - 1.2111726653811381e+01
      - -1.9570121334069366e+00
      - 1.1195632057379582e+01
      - -1.6749433058494494e+00
      - 1.1522513038354770e+01
      - -1.6038216282979665e+00
      - 1.2568746976356376e+01
      - -1.5182873801811658e+00
      - 1.2699832115376264e+01
      - -1.5992682939628791e+00
      - 1.2629697833470095e+01
      - -1.5385338824307360e+00
      - 1.1665053305649758e+01
      - -1.6518805362463698e+00
      - 1.1355282091688643e+01
      - -1.7503619687278642e+00
      - 1.1943763627853714e+01
      - -1.9490954398034943e+00
      - 1.1794539613582483e+01
      - -2.0115770856427226e+00
      - 1.1192385237793054e+01
      - -1.8340585969247101e+00
      - 1.1362781538087210e+01
      - -1.7338393004697441e+00
      - 1.1960061344659772e+01
      - -1.6181704800735361e+00
      - 1.2137038222733983e+01
      - -1.7045785737083889e+00
      - 1.2183243178225432e+01
      - -1.6551767593762416e+00
      - 1.1278880146293604e+01
      - -1.7752964767187474e+00
      - 1.1229531188070126e+01
      - -1.9096208579041585e+00
      - 1.1671673035769599e+01
      - -2.0188006001567289e+00
      - 1.2032906507979730e+01
      - -1.7321126338149369e+00
      - 1.1666350525224013e+01
      - -1.6168749899979640e+00
      - 1.1759901499205768e+01
      - -1.5002189378078186e+00
      - 1.2884332066567900e+01
      - -1.4210604381649123e+00
      - 1.3014131962433291e+01
      - -1.5094305840518716e+00
      - 1.3219709213574863e+01
      - -1.4591648252731508e+00
      - 1.1693685331033267e+01
      - -1.5324741108459106e+00
      - 1.1237207151997699e+01
      - -1.6186080270764336e+00
      - 1.1704534683688539e+01
      - -1.7185399301110138e+00
      - 1.1761454199206845e+01
      - -1.8537747478284101e+00
      - 1.1248294340076665e+01
      - -1.7207152642797201e+00
      - 1.1403103181362761e+01
      - -1.6092884014037665e+00
      - 1.2169612301586403e+01
      - -1.4951535243455341e+00
      - 1.2290864933109413e+01
      - -1.5893915184956520e+00
      - 1.2649625586602005e+01
      - -1.5439503468303992e+00
      - 1.1501138374971957e+01
      - -1.6294083404477910e+00
      - 1.1151707900403194e+01
      - -1.7110031362055556e+00
      - 1.1503244231630276e+01
      - -1.8233669738397009e+00
      - 1.1774145046779026e+01
      - -1.8465100937951462e+00
      - 1.1124820303305759e+01
      - -1.7022863035208511e+00
      - 1.1454620627029437e+01
      - -1.6194140807271746e+00
      - 1.2314367137584339e+01
      - -1.5165758443088568e+00
      - 1.2513393753887152e+01
      - -1.5965286416001099e+00
      - 1.2617797267976867e+01
      - -1.5374919858889633e+00
      - 1.1500594390027780e+01
      - -1.6323871529648184e+00
      - 1.1310649823374785e+01
      - -1.7368460673003330e+00
      - 1.1694942896110417e+01
      - -1.8440291343989383e+00
      - 1.1689756046741783e+01
      - -1.9845125473254259e+00
      - 1.1134413548096438e+01
      - -1.8273419299332383e+00
      - 1.1173541785888817e+01
      - -1.7146328238352799e+00
      - 1.1738194289225394e+01
      - -1.6003062092102265e+00
      - 1.2045822544465999e+01
      - -1.6945620546363456e+00
      - 1.2087396875341048e+01
      - -1.6293473156959017e+00
      - 1.1137185461364695e+01
      - -1.7305500429723712e+00
      - 1.1053523591579275e+01
      - -1.8442411651730113e+00
      - 1.1505560487840810e+01
      - -1.9646157438355267e+00
      - 1.2117552123567419e+01
      - -1.7358073166656600e+00
      - 1.1699526380838339e+01
      - -1.6181971453459705e+00
      - 1.1810478854878481e+01
      - -1.5196978147956681e+00
      - 1.2706329642217678e+01
      - -1.4250179240451886e+00
      - 1.2888328585771589e+01
      - -1.5274279387185876e+00
      - 1.3305572230369297e+01
      - -1.4838769598512371e+00
      - 1.1842664235195810e+01
      - -1.5511577804795800e+00
      - 1.1202371866892094e+01
      - -1.6031241435261403e+00
      - 1.1676383316502035e+01
      - -1.7052092720817726e+00
      - 1.2179419872921956e+01
      - -1.9706177733537638e+00
      - 1.1422720723934958e+01
      - -1.6833231946004223e+00
      - 1.1439036940320218e+01
      - -1.5908957785884839e+00
      - 1.2115582375902704e+01
      - -1.4869826214338790e+00
      - 1.2270700526895402e+01
      - -1.5849547574063330e+00
      - 1.2682310354960924e+01
      - -1.5443341005469706e+00
      - 1.1760429281646672e+01
      - -1.6585287345143360e+00
      - 1.1212726181100125e+01
      - -1.7064749346861261e+00
      - 1.1854739985854691e+01
      - -1.9536821315181299e+00
      - 1.1792623813717341e+01
      - -1.8458203411683771e+00
      - 1.1225260853701576e+01
      - -1.7182235615612567e+00
      - 1.1397135249914804e+01
      - -1.6330068252359733e+00
      - 1.2265412000045348e+01
      - -1.5384337384830520e+00
      - 1.2465213948973910e+01
      - -1.6240222953839698e+00
      - 1.2590241570630255e+01
      - -1.5628844185830251e+00
      - 1.1454529234829506e+01
      - -1.6367243860477825e+00
      - 1.1143229712718457e+01
      - -1.7076523625610109e+00
      - 1.1606236879860983e+01
      - -1.8202533969458541e+00
      - 1.2153495046448242e+01
      - -2.1068878263606132e+00
      - 1.1243915566141602e+01
      - -1.7900384850330617e+00
      - 1.1265324636395436e+01
      - -1.7088729069238264e+00
      - 1.1766874459338233e+01
      - -1.5967563200956756e+00
      - 1.2075947812566731e+01
      - -1.7069495682141000e+00
      - 1.2220073439641894e+01
      - -1.6456829655368244e+00
      - 1.1251369846132494e+01
      - -1.7402490818996148e+00
      - 1.1002596162383220e+01
      - -1.8056113705099541e+00
      - 1.1948292958673717e+01
      - -2.0954694818291308e+00
      - 1.2423461732139600e+01
      - -1.8400075618480067e+00
      - 1.1732517040253084e+01
      - -1.5887173066269593e+00
      - 1.2112781598100437e+01
      - -1.5241762632400335e+00
      - 1.3181431702970665e+01
      - -1.4467250569564576e+00
      - 1.3400739640409203e+01
      - -1.5497864943111599e+00
      - 1.3441731486657014e+01
      - -1.4981885849232852e+00
      - 1.1840402929938566e+01
      - -1.5796232139001061e+00
      - 1.1444068748600221e+01
      - -1.6653063624290481e+00
      - 1.2146867049329098e+01
      - -1.8450830518165637e+00
      - 1.1954922423041806e+01
      - -1.8989195682012308e+00
      - 1.1434323913489306e+01
      - -1.7478496939062516e+00
      - 1.1657145741158001e+01
      - -1.6555745903159673e+00
      - 1.2407638968440530e+01
      - -1.5490127538501826e+00
      - 1.2422741549536784e+01
      - -1.6279918216128706e+00
      - 1.2629329878789896e+01
      - -1.5748066781027465e+00
      - 1.1444067679660517e+01
      - -1.6686701046243031e+00
      - 1.1310683325216472e+01
      - -1.7750687200336488e+00
      - 1.1850879468560084e+01
      - -1.8943860898184435e+00
      - 1.2308348747262535e+01
      - -1.9656958288405306e+00
      - 1.1386204215923646e+01
      - -1.6514472423178159e+00
      - 1.1803793286947206e+01
      - -1.5879448756733723e+00
      - 1.2604154680854394e+01
      - -1.4890836967295609e+00
      - 1.3087185224231535e+01
      - -1.8814476712330392e+00
      - 1.2878696620764670e+01
      - -1.5404996404365909e+00
      - 1.1651645790935234e+01
      - -1.6559834691492963e+00
      - 1.1434921274811817e+01
      - -1.7626046110512494e+00
      - 1.2143126343798791e+01
      - -1.9781943467922098e+00
      - 1.1930234718966179e+01
      - -2.0067369701500559e+00
      - 1.1359525156936245e+01
      - -1.8196574069654170e+00
      - 1.1466523372927728e+01
      - -1.7069010892918812e+00
      - 1.2013392772873498e+01
      - -1.5929245145430293e+00
      - 1.2655595659536846e+01
      - -2.0309774535788669e+00
      - 1.2167300102948467e+01
      - -1.6347362491492319e+00
      - 1.1432760457827468e+01
      - -1.7796448155805127e+00
      - 1.1205518332459249e+01
      - -1.8856946498762908e+00
      - 1.1819011320246609e+01
      - -2.0250415371129042e+00
      - 1.2023347490459631e+01
      - -1.7412604611417846e+00
      - 1.1625587664635043e+01
      - -1.6171816026436221e+00
      - 1.1956244419010943e+01
      - -1.5438091605169395e+00
      - 1.2818903595536474e+01
      - -1.4507722436463739e+00
      - 1.3005337555057583e+01
      - -1.5340006810886935e+00
      - 1.3278668673067095e+01
      - -1.4765544456128767e+00
      - 1.1843021406841821e+01
      - -1.5703722732060399e+00
      - 1.1341893798563873e+01
      - -1.6313685773376807e+00
      - 1.1908590041186212e+01
      - -1.7396847251561305e+00
      - 1.1822165496199727e+01
      - -1.8710835485069841e+00
      - 1.1324637908760772e+01
      - -1.7558775753724263e+00
      - 1.1405925270960958e+01
      - -1.6548760651997139e+00
      - 1.2233250644684704e+01
      - -1.5434827950296144e+00
      - 1.2306443730978383e+01
      - -1.6124018059056175e+00
      - 1.2526543940315685e+01
      - -1.5439780567159507e+00
      - 1.1373095687421964e+01
      - -1.6263568073951278e+00
      - 1.1249588883733425e+01
      - -1.7317103695633602e+00
      - 1.1688046047773142e+01
      - -1.8401171277850046e+00
      - 1.1892474419768323e+01
      - -1.8389551121263332e+00
      - 1.1280012477883966e+01
      - -1.6917371056039028e+00
      - 1.1595487531328732e+01
      - -1.6072566231291214e+00
      - 1.2461365291712015e+01
      - -1.5115016059178195e+00
      - 1.2848399217273093e+01
      - -1.8840044275285455e+00
      - 1.2725982955521538e+01
      - -1.5179648083562296e+00
      - 1.1718387594856820e+01
      - -1.6406599527495265e+00
      - 1.1393216885471263e+01
      - -1.7205956515162275e+00
      - 1.1762232932168148e+01
      - -1.8226641555112806e+00
      - 1.1914548354554032e+01
      - -1.9770132545985206e+00
      - 1.1396918813410890e+01
      - -1.8401289542996209e+00
      - 1.1325115135710236e+01
      - -1.7187493165271699e+00
      - 1.1857337379337709e+01
      - -1.5939802323907519e+00
      - 1.2644793263959377e+01
      - -2.0215124144285346e+00
      - 1.2188031569789480e+01
      - -1.6049776753339973e+00
      - 1.1174288128035554e+01
      - -1.7087730683331359e+00
      - 1.0985475834642346e+01
      - -1.8059752261891493e+00
      - 1.1634290435026461e+01
      - -1.9465550602315798e+00
      - 1.2002964260916221e+01
      - -1.7243783384012952e+00
      - 1.1582925584631552e+01
      - -1.6350678176765088e+00
      - 1.1796064553072679e+01
      - -1.5642743074310479e+00
      - 1.2823947963974648e+01
      - -1.4741031675286365e+00
      - 1.2850618449659292e+01
      - -1.5451748570867427e+00
      - 1.3201786395847400e+01
      - -1.4980380997504528e+00
      - 1.1753051069216671e+01
      - -1.5623718199320815e+00
      - 1.1403688617092660e+01
      - -1.6304321832047994e+00
      - 1.1908247495212482e+01
      - -1.7172398815524199e+00
      - 1.2119440582375137e+01
      - -1.9660907710515179e+00
      - 1.1327912739248694e+01
      - -1.7045128748965810e+00
      - 1.1424631820131651e+01
      - -1.6379791274142856e+00
      - 1.2139488927033391e+01
      - -1.5358688794397208e+00
      - 1.2381248550927493e+01
      - -1.6208893321272302e+00
      - 1.2629387460282652e+01
      - -1.5494563607799179e+00
      - 1.1549375330805654e+01
      - -1.6352232464252283e+00
      - 1.1296395277062809e+01
      - -1.6908235967141205e+00
      - 1.2062496774075296e+01
      - -1.9396770348247805e+00
      - 1.1995317186970823e+01
      - -1.8250170986741387e+00
      - 1.1369147909025152e+01
      - -1.7164789381479688e+00
      - 1.1397614049376289e+01
      - -1.6284040776796764e+00
      - 1.2199838350239762e+01
      - -1.5208260955323920e+00
      - 1.2715112706733542e+01
      - -1.8876378371854510e+00
      - 1.2633115041926491e+01
      - -1.5260782425944877e+00
      - 1.1516079938071844e+01
      - -1.6122798906136846e+00
      - 1.1287091472333909e+01
      - -1.6915528031138114e+00
      - 1.1796269338207114e+01
      - -1.7987512039983806e+00
      - 1.2211574585954777e+01
      - -2.0839099631858371e+00
      - 1.1383179346026461e+01
      - -1.7991089756159122e+00
      - 1.1355437539676345e+01
      - -1.7119938965254664e+00
      - 1.1790074495739233e+01
      - -1.5891482843271787e+00
      - 1.2522836843773497e+01
      - -1.9966587962312126e+00
      - 1.2150468185042584e+01
      - -1.5879987411606662e+00
      - 1.1271283883788319e+01
      - -1.6884385880480486e+00
      - 1.1144281885876405e+01
      - -1.7742175325002143e+00
      - 1.2021740371292941e+01
      - -2.0671723856013497e+00
   output_scale:
      - 5.2631578947368418e-01
      - 4.9999999999999994e-01
      - 5.2631578947368418e-01
      - 4.9999999999999994e-01
   inv_output_scale:
      - 1.8999999999999999e+00
      - -9.4999999999999996e-01
      - 1.8999999999999999e+00
      - -9.4999999999999996e-01
   weights:
      -
         - -1.3192694388019009e-02
         - -1.8476340812450285e-02
         - 3.6285406414950871e-02
         - 5.5784732532935645e-03
         - -4.1276296063641769e-02
         - 3.8964948740210603e-03
         - -1.2779718565614847e-02
         - -1.2299902562374548e-02
         - 1.0911980154753458e-02
         - -2.4126422466549022e-03
         - -1.0436444455415512e-02
         - -4.4840147520766260e-02
         - -2.0741616383535888e-02
         - 5.9354792729721271e-03
         - 2.0217595343046162e-02
         - 3.9350447509748916e-04
         - -2.1788808518133644e-04
         - 5.6586458169933717e-03
         - -3.0252855604060314e-04
         - 1.1678650304026181e-02
         - 2.9704641096547921e-03
         - 7.8048912692285461e-03
         - 6.7885774667154125e-03
         - -3.7980252902248823e-03
         - -3.8271773743382997e-03
         - -2.5219245503704593e-03
         - 1.3471764325502763e-02
         - -5.1094498729201271e-02
         - 1.3170625587897569e-02
         - -9.3747779219324097e-03
         - -3.3902266628260874e-02
         - 2.4422887048499643e-02
         - -1.0154452529807925e-02
         - 2.4783354361286144e-02
         - 3.1550214360267573e-02
         - 1.2710918212374876e-04
         - 7.1466232371463307e-03
         - -8.1021867655866882e-05
         - 2.5716975138519720e-02
         - 1.2797467860780221e-03
         - 2.4419396910152647e-03
         - 1.9191949260555220e-02
         - -5.1092005145345239e-03
         - 5.0739935551627445e-03
         - 4.8013419133296252e-03
         - -9.0067766383513156e-03
         - 6.0048529616270434e-03
         - 1.5394238271795735e-02
         - 1.0236510043659863e-02
         - 8.2996031471662161e-04
         - -2.4638672332885779e-03
         - 3.1214119215058336e-03
         - -1.3899240223978858e-02
         - 2.5601317736193046e-02
         - -2.9694995794509100e-03
         - 2.1550437432994923e-02
         - -1.6687123899892103e-02
         - -1.2081715304665031e-02
         - -2.6321350263973746e-02
         - -2.4510833270051050e-02
         - 4.2461242134811464e-03
         - -7.3600312688989139e-03
         - 2.5384110963230886e-04
         - 8.3956049578404208e-03
         - -2.0873796481653609e-02
         - 6.0767799134191260e-03
         - -4.4583306159552395e-02
         - 1.8498217006473361e-02
         - -9.3814884628839901e-03
         - 2.0659701441937055e-02
         - 4.3187227071288742e-03
         - -8.5260738299302256e-03
         - -5.7900703815768381e-02
         - 5.8372423258163464e-03
         - -5.6165522479874504e-02
         - -1.3501079210329501e-02
         - -2.0916306130969189e-03
         - 3.9644195466949743e-03
         - 1.1772343999211119e-02
         - -5.2600579008717935e-04
         - -1.5393658981918131e-02
         - 3.0152836620814475e-03
         - 1.0679251961651528e-02
         - -2.5917992087090641e-02
         - -9.9047751813993159e-04
         - -1.6202602970361638e-02
         - -4.9749284743775633e-03
         - -3.8019620621267097e-02
         - -1.4616910691757820e-02
         - -6.4702918392466266e-03
         - -1.8958734722062366e-02
         - -2.3686782420344148e-02
         - 1.0879030669090612e-02
         - -2.0028374722999162e-02
         - 5.0804367486539234e-03
         - -5.1241414473869621e-03
         - -9.0479763735360312e-03
         - 1.4435995706512694e-02
         - 1.5754321534158362e-02
         - -1.0534903376187349e-03
         - 4.4235297495649186e-03
         - 3.5774253772196049e-02
         - -1.0803185970915148e-02
         - -5.5146444168255523e-03
         - 1.1095953948132392e-02
         - 2.3051620798702406e-04
         - 7.5075592510035847e-03
         - 7.4301018634963124e-03
         - -1.9943123997170262e-03
         - 2.8874968522265643e-03
         - 7.2304364283437041e-03
         - -1.4205432889298960e-02
         - 1.4434030964658468e-02
         - 8.5870861896099771e-04
         - 5.6991451697606235e-02
         - -3.8717829594019084e-03
         - 5.6775912079113106e-03
         - -3.1387766707337236e-03
         - 3.2976857842658149e-03
         - -1.0882471564749844e-02
         - -8.7205570314308352e-04
         - -2.5011995086811597e-03
         - -3.2247060130523373e-03
         - 4.6516568211210484e-03
         - -2.2618894297511292e-03
         - -1.6054507899658998e-03
         - -1.6163751307998781e-03
         - -3.9653975793987502e-02
         - -6.3253441051489261e-03
         - -9.6757737238218613e-04
         - -8.4224619429269683e-03
         - -7.6196649543695521e-03
         - 2.3053989116784785e-03
         - -8.1482274534774735e-03
         - 1.7254079963093093e-02
         - -2.1997008198775671e-03
         - 1.0957780015904200e-04
         - 1.3586382384396332e-02
         - -8.7512217395416050e-03
         - -3.5834768872269613e-04
         - 3.4079313486893542e-03
         - -1.4354038826452089e-02
         - -5.3533056315697267e-05
         - -1.8250964665201815e-02
         - -7.0165535418636581e-04
         - -2.9960172799544551e-03
         - -4.5618877602285604e-03
         - -6.8069607428379916e-03
         - -1.4248183695662862e-03
         - 1.9260808262352301e-03
         - 2.4802556970538380e-03
         - -5.4131098953538728e-03
         - 9.6147772834465090e-03
         - -1.4209756300900987e-02
         - -5.3148001783946382e-03
         - -1.3916106316068218e-02
         - 8.5439988358644164e-03
         - 6.1308194308557018e-03
         - -4.5284606139448041e-02
         - 4.3024520774722422e-03
         - -1.0468964919678267e-02
         - -2.5904269943733843e-03
         - -1.5213074624665897e-03
         - -3.8548145178294685e-04
         - 8.3253154739973394e-03
         - -8.0868525739633632e-03
         - -7.9281788823146113e-02
         - -5.7688018110930404e-03
         - 8.8780539750469550e-03
         - -1.2332429094423702e-02
         - 2.4293532218889547e-03
         - -8.7023729024163254e-04
         - -8.5128939286794283e-02
         - 1.2928631617175805e-03
         - 6.2744972768750060e-03
         - 1.0162108205755993e-02
         - 3.2520476722424207e-03
         - -4.8179592362847610e-03
         - -8.2739349344883532e-03
         - 5.4035888888309758e-03
         - -3.1159990929295122e-02
         - -4.1255660531829882e-03
         - -5.9180103173368847e-03
         - 9.8449322054675568e-03
         - 2.6705385120994337e-03
         - 1.2106961275732735e-02
         - 1.1557487342256734e-03
         - -7.2032130337799250e-03
         - 9.8033356732027399e-03
         - -6.6378739357410223e-04
         - 5.7678853687528620e-03
         - 1.4282287878658090e-02
         - -7.4230225409427373e-03
         - 7.1155838823326002e-03
         - 9.1657994210950461e-04
         - 4.8901890520940280e-04
         - 1.1276497918654690e-02
         - -1.0105511920969819e-02
         - -7.6300145352559724e-03
         - 2.4225505087403306e-03
         - -2.2119431392736335e-03
         - 1.7793785128655891e-02
         - -9.7161508644943526e-03
         - 3.7559808145139081e-03
         - 3.4019872648234972e-02
         - 4.3003160804606713e-03
         - 4.2807101055961838e-03
         - 7.0283718342933656e-03
         - -2.7639221263642288e-03
         - 1.2264805186313684e-03
         - -3.5915334711370591e-03
         - 4.8800968180407342e-02
         - -3.4631212054704111e-03
         - 4.0879624623412674e-03
         - 1.7857478461685916e-03
         - 2.9035519363842677e-03
         - 4.2116520733158601e-03
         - -4.6200237790029056e-03
         - 2.2333505688202481e-03
         - -8.1104074473889402e-03
         - -4.2197137410256592e-03
         - -4.1782291091450180e-03
         - 1.4592128502813268e-03
         - 1.4029958549853145e-03
         - 4.9880469299470724e-04
         - 1.7594033308002540e-03
         - -4.2942062473826873e-04
         - -4.4222959465129146e-03
         - -5.8519747589425783e-03
         - 1.5329333150413515e-03
         - 9.3850708500910606e-03
         - 3.9258103222741364e-04
         - -2.1753433305117485e-04
         - 2.6283956947664128e-03
         - -4.3856737480186508e-02
         - -5.0954541965979195e-03
         - -2.1793497944929889e-03
         - -1.8107650496302051e-02
         - -1.6465157800083684e-02
         - 3.6919818261756852e-03
         - 3.0035258408135585e-03
         - -1.5089802391044093e-03
         - 1.2928300879925572e-02
         - 6.5314839480273418e-03
         - -2.1152890874038140e-03
         - 3.1485020305311081e-03
         - 2.0942855884005965e-03
         - -1.1834505382038773e-03
         - 2.3588620648587514e-03
         - -4.3975554184305732e-03
         - -1.7743367755135055e-03
         - 1.9158621269404531e-03
         - 1.8678343516365214e-03
         - -1.0906164982810565e-02
         - 2.7971158528448141e-03
         - -2.3840944841534524e-03
         - -4.3020331156997616e-03
         - 7.6751097946728348e-03
         - 2.0179731752351184e-02
         - 6.7497580472816662e-03
         - -1.2599723893858361e-03
         - -8.0296746526379165e-03
         - 2.5033172269325046e-03
         - -6.3839104707379022e-03
         - -7.2187652074242519e-04
         - -2.7319610599867443e-04
         - 5.8867102046538111e-03
         - -3.3459323897885624e-03
         - -3.4296395044945355e-03
         - -8.6939742841704512e-03
         - -6.3260915682092035e-03
         - -5.1618256936546763e-03
         - 1.3506167427169959e-02
         - 3.6259194732137122e-03
         - 2.3583697543036391e-02
         - -7.3106341816888624e-04
         - 4.5751550511570578e-03
         - 4.2842494595771623e-03
         - -4.3642690131610188e-03
         - 2.6042192068481450e-03
         - 7.0648957776488991e-03
         - -1.6311489551313141e-03
         - 5.0540675021437447e-03
         - 8.2540186948078780e-03
         - -3.7658345822507737e-03
         - -2.5250478447594814e-03
         - -4.1687887526776282e-03
         - -1.8549268524676997e-02
         - -4.0001732983642275e-03
         - -3.7729284099499076e-04
         - -4.9766306918993019e-03
         - -3.9340448680273829e-04
         - -7.5362028210439972e-03
         - -2.8398291155585127e-03
         - 1.6637920245640445e-03
         - -3.0667289905938326e-03
         - -6.0635425216343469e-04
         - 2.1699345767747305e-03
         - -4.1000245690356076e-03
         - 4.0269945648533905e-03
         - -1.1227444537739363e-02
         - 1.8785888393767304e-02
         - 1.3849920850704812e-02
         - 6.3268765826101974e-03
         - 5.8219323596701240e-02
         - 3.3430198048755443e-03
         - -4.4623530940314906e-03
         - -5.2324363345539323e-03
         - 6.1902165864881004e-03
         - -3.2816025370671492e-03
         - -1.4427191769233223e-02
         - -3.0518448752879569e-03
         - -7.4385261392668359e-03
         - -4.3313133644615346e-03
         - -3.2248859117697384e-02
         - -2.2055680949677773e-03
         - -4.3663828978158167e-03
         - -4.3368305805221727e-03
         - -1.2801932902290337e-03
         - 1.6324287333374370e-02
         - -3.4616252635017255e-03
         - 7.6531960193023984e-03
         - -4.1047619734807710e-03
         - -4.9708721748070528e-03
         - 1.7002923752392459e-03
         - -3.7410180024047531e-03
         - 3.8125289949517906e-03
         - 1.1721006520906446e-02
         - 1.2824088549281529e-02
         - -5.8411423032787872e-03
         - -1.1417955399143505e-02
         - 9.8799835655672182e-03
         - -1.0463836791677844e-02
         - 1.8345798520675624e-02
         - -7.4211600764131136e-02
         - -8.3398514875407002e-04
         - 4.9889725438208004e-03
         - -4.0890088576367722e-02
         - 1.5307451565108855e-02
         - -3.6948004936902213e-03
         - -5.5672150446748362e-03
         - 5.2585263858508620e-03
         - 3.2440300689378990e-02
         - 3.0971893818059794e-02
         - 1.5428310913717716e-03
         - 6.6773993677033869e-04
         - 6.8945068175702727e-03
         - 1.1326580267777447e-02
         - 3.8491920041761061e-03
         - -4.5116997344165745e-03
         - -7.7219674039218558e-03
         - 9.1729194799023417e-03
         - -1.7280559026704233e-02
         - 2.2452286868795555e-02
         - -1.9186426739936648e-03
         - 9.0442334512189793e-03
         - -1.6843230719070838e-02
         - -1.2027581451122978e-02
         - -9.1574414648518815e-03
         - -8.5260203337391739e-03
         - 1.4107557687243913e-03
         - -2.8854970026047172e-02
         - 1.1112774080765987e-03
         - 7.0689099725535897e-03
         - -1.5854868191623541e-02
         - 9.9511131490192944e-03
         - 2.5100251121124937e-02
         - 1.2975649126873821e-02
         - -8.5746559612916353e-03
         - 5.5400722353914017e-03
         - 3.9266734711507420e-03
         - 2.8466663460301601e-03
         - 2.0065970532039470e-02
         - -5.2052859059964159e-04
         - 1.9911383615925909e-02
         - -1.3724778099822657e-02
         - 2.3533582576247825e-03
         - 8.5620246338152144e-04
         - 1.9553321640925934e-03
         - -3.6796417166272992e-03
         - 4.7749620499445332e-02
         - 6.6685494454638934e-03
         - 8.7202861810734850e-03
         - -1.3733757521189178e-02
         - -3.2582855790203322e-03
         - -1.9777459219281878e-02
         - -2.9134514035164434e-03
         - -1.5645245064564526e-03
         - -3.4889972425479160e-03
         - -2.4559194137281121e-03
         - -1.8157202052801327e-02
         - -1.3225278742537953e-02
         - 1.0494303879457413e-02
         - -1.5943942571531838e-02
         - 6.8903468414600140e-03
         - -8.9962940297347721e-03
         - -6.0785875358201104e-03
         - 1.4415857981735846e-02
         - 1.2800260263795620e-02
         - 1.3875498522519546e-03
         - -5.7604873000443061e-03
         - -1.9213862937632123e-02
         - 9.8923650221113563e-03
         - -5.9217992787727856e-04
         - -3.1537204078744163e-02
         - -3.5455727871181453e-03
         - -3.2763763217242979e-03
         - 3.3849631985755882e-03
         - 1.9792782022015872e-03
         - -5.9321174647372198e-03
         - 5.4144357486225845e-03
         - 4.9830001983882766e-02
         - -3.6578827696832450e-03
         - -3.9652160657889625e-03
         - 1.0446291643724730e-02
         - 8.2337147751594831e-03
         - 4.3702102262592251e-03
         - 8.5387550066875050e-03
         - -4.7515419603708590e-03
         - 4.7350112189304483e-03
         - 2.9761784820295260e-03
         - 3.2464636617497724e-03
         - -5.3236052845526440e-03
         - -1.4663802753307721e-03
         - 4.4409128434694002e-03
         - 1.4206661129197546e-03
         - -4.5375557302400615e-03
         - -3.1267206678671132e-02
         - 2.5616320788836092e-03
         - 1.1615910276929100e-03
         - 1.5006809575479825e-02
         - -5.1600631083619196e-03
         - -4.6705295742939888e-03
         - 6.3847180408041710e-03
         - 2.2247484286210935e-02
         - -3.9228385577822098e-03
         - -4.7469951753887456e-03
         - -4.5808896781011034e-03
         - -4.3187222904764455e-03
         - -1.2002548996486988e-03
         - -3.4286866590148065e-03
         - -3.9394643274829021e-03
         - -1.0660464703586156e-02
         - 7.3674067843513954e-03
         - -4.1417236617147576e-03
         - -5.0002007166263119e-03
         - 3.7655635378023695e-03
         - 9.8957233880816557e-03
         - -3.0680877867505342e-03
         - -3.3636700448302112e-03
         - -2.6177322367225862e-03
         - 8.8932769398949768e-04
         - -5.8303477815295308e-03
         - 3.8871686048236958e-03
         - 1.2234982811621265e-03
         - 7.1816764876613264e-04
         - -4.4012544414965306e-03
         - -2.2380816734918971e-03
         - 7.5372051278065691e-02
         - -3.4281506573309611e-04
         - -1.0908335154333482e-03
         - -7.4740167209478127e-03
         - -1.9856626245026447e-04
         - 4.4198972034633598e-03
         - -3.1512639241734006e-03
         - 3.9627849645337380e-03
         - 7.6285277587916867e-02
         - -2.5692969260633167e-03
         - 3.6942464265531001e-03
         - 5.0005300343482165e-03
         - -6.9169665135311077e-04
         - 4.7675552719675419e-03
         - 7.8116977172991320e-02
         - 5.3610330815972197e-03
         - 6.5697779689860722e-02
         - -2.2386439381996263e-03
         - 5.5074229418858095e-03
         - 2.5381482264774814e-03
         - 3.6189101800501848e-03
         - -2.8933320104245902e-03
         - 2.4266022664776194e-02
         - 2.9465419374921200e-03
         - 1.8558920354350549e-03
         - -2.0958717241986720e-03
         - 3.8122178543444746e-04
         - 1.4942437218964566e-03
         - -2.0159975756541444e-03
         - -5.3368815708876381e-02
         - -6.7591471273769042e-03
         - 1.6817934322638291e-03
         - -6.7518115437440879e-03
         - -4.0878174943023669e-03
         - -4.8865234201798304e-03
         - -4.5295081245680935e-03
         - -5.5392512690208685e-04
         - -3.5705075494866689e-03
         - -7.3987771300446786e-03
         - -3.9982815539706373e-04
         - 1.2003929778302983e-03
         - 3.0081406393596909e-03
         - -1.0953972163478610e-02
         - -9.9135515187387616e-03
         - 3.7966925774293746e-02
         - 5.0010749506359817e-03
         - -7.7423164571174458e-02
         - 2.3089803442682042e-03
         - -5.8750103013519997e-03
         - -1.2565931711843809e-02
         - 1.1479177501130335e-02
         - -6.6578187422660943e-03
         - -1.5795368619838768e-02
         - -5.5470099713835978e-02
         - -2.0402714308562678e-02
         - -7.2554812670579645e-03
         - 1.0208906688636981e-02
         - 2.7902192217770742e-03
         - -2.0657763935834710e-03
         - 1.6928854965849692e-05
         - -7.9437971235557427e-03
         - 1.8031030105209289e-02
         - -6.5545499007592153e-03
         - 1.3252366478470388e-02
         - 1.2646849611191342e-03
         - -1.2255929701696264e-02
         - 8.6004215590402243e-04
         - -2.0338178169169341e-03
         - 1.1818921423791741e-02
         - -6.0688372698442995e-02
         - 1.6242244374270354e-02
         - 1.1163521152320838e-03
         - -7.0747827845965379e-03
         - 1.2825437542100285e-02
         - -5.6557905349488890e-03
         - 1.3807941714691364e-02
         - 6.2311019927620663e-02
         - -1.7850973950545956e-04
         - 3.9396295403198788e-04
         - -3.0856688195334903e-03
         - 5.1737165768790866e-02
         - 2.0596634418323457e-03
         - 5.4021890535634045e-03
         - 1.0241549525376221e-02
         - -1.9146557135650794e-02
         - 1.7077545139641648e-02
         - 4.4266590803286304e-03
         - -7.9969454574247614e-03
         - 1.5509070729284813e-02
         - 2.2451905999811127e-02
         - 4.7978208768507981e-03
         - -3.9711855003516294e-03
         - -1.0068797621491351e-02
         - 6.3166325075086449e-04
         - -2.2617107328820989e-02
         - 3.4213101401350449e-02
         - 8.8143771142981352e-03
         - 1.7030980589151617e-02
         - -1.4728973144714889e-02
         - -1.4293066410786578e-02
         - 6.3639028382595948e-03
         - -1.7382198590773740e-02
         - 1.4033552986257728e-02
         - -1.0957460539865066e-02
         - 1.6286057159112233e-04
         - 1.5697574925444845e-02
         - -2.5650561840960959e-02
         - 1.0115644476662937e-02
         - -5.7657973337374522e-03
         - 1.2260176995888165e-02
         - -9.5837398524435072e-03
         - 1.6025347617292161e-02
         - 5.1908202734081855e-03
         - 2.0511375292785608e-03
         - 7.7962426868994853e-03
         - 1.4965340609493910e-03
         - -1.3816808614037160e-02
         - -8.2985259915674767e-03
         - 3.2223161210404964e-03
         - -3.7888570822333639e-03
         - 9.6556172022821928e-03
         - 3.2641652688527073e-03
         - 4.3036234783528866e-02
         - 2.2353625129215597e-03
         - 6.4586112242690074e-03
         - -1.6259965293842629e-02
         - 6.1130409621845932e-04
         - -2.1297342978168456e-02
         - -2.3046990140334466e-03
         - -9.7008344836111947e-03
         - -1.8675049756318018e-02
         - -2.0096940823869885e-03
         - -1.0230816278111499e-02
         - -2.1685234302233552e-02
         - 1.5259265893040609e-02
         - -1.1514150663362737e-02
         - 4.3470448465235730e-03
         - -1.0228364725385393e-02
         - -1.1382942168460915e-02
         - 2.5767333350322705e-02
         - 1.5690104417146730e-02
         - -2.6477893566770601e-03
         - 6.8862094077519198e-03
         - -1.1757624623596195e-02
         - -8.7604708900182147e-03
         - 2.0784601569045842e-03
         - -4.2632013701219114e-02
         - 8.6018769508256767e-04
         - -4.7305961685439310e-04
         - -3.7234369865998371e-03
         - -4.7997881482918416e-03
         - -3.7422862833786283e-03
         - 4.4801275411880679e-03
         - -8.5934921694004757e-03
         - 4.1417141930853770e-03
         - -6.0988270973047452e-03
         - 7.2158394689482656e-03
         - -1.8174761666182823e-03
         - -1.6041203733895605e-03
         - 6.7041148554803877e-03
         - 5.1034431018490388e-03
         - 1.6720683276808697e-03
         - 6.7685208208927350e-03
         - -8.6417423073544240e-03
         - 4.2321325980215251e-03
         - 6.4977203601600806e-04
         - -1.1743484996581156e-03
         - 9.6457807682150327e-04
         - 1.7763634793475599e-03
         - 3.3065529395570050e-03
         - 3.1853744752592963e-03
         - 2.5596713809703780e-03
         - 1.1989654010324313e-02
         - -4.9047178858720808e-03
         - 3.0757517920066337e-03
         - -2.6796117469235172e-04
         - 7.3211191459504166e-02
         - -4.8612937169297396e-03
         - -1.1613314576784856e-03
         - 1.9579002200569986e-02
         - 1.7336727288495730e-02
         - -3.7564621189995926e-03
         - -8.5283585595651143e-04
         - -2.6866466125562908e-03
         - -1.6384419228794710e-02
         - -7.6808523974073017e-03
         - -2.2266061574225259e-03
         - 6.7375173569933738e-04
         - -8.3669371762479204e-03
         - 2.8032667569487836e-03
         - 2.2323028858033519e-03
         - -4.5511667738687128e-03
         - 3.9407539403603338e-03
         - 1.5392425479680841e-04
         - 2.2390272088439445e-03
         - -2.6882187228633005e-03
         - 2.0385196377076413e-05
         - -6.5017973094073716e-04
         - 2.9988425312642564e-03
         - -3.6303278073751329e-03
         - -1.2188014687156147e-04
         - 7.1338170949038155e-03
         - -3.3607975654064868e-04
         - 1.5196994880294312e-02
         - -6.7193597587894593e-04
         - -1.4228857850612632e-03
         - 1.1120800831745208e-02
         - -7.4510498217243851e-03
         - 2.1064418307587471e-03
         - -7.0721525674785598e-03
         - 4.5987056214144874e-03
         - 1.8950968175398980e-03
         - -4.7122981993372804e-03
         - -3.8727898248747498e-03
         - 1.6590634560882903e-02
         - 3.1526480060994661e-03
         - 4.0078797595054047e-02
         - -3.5994857117206958e-03
         - -5.3631824396374707e-03
         - -1.5650139406110965e-03
         - -6.6666927054599909e-03
         - -4.7400476661435932e-03
         - -1.5702363940781866e-02
         - -2.6209619197387121e-03
         - -6.5629397488805065e-03
         - 3.5944487879268818e-03
         - -1.1127060910185421e-03
         - -3.2594918446274567e-03
         - 3.8534375193180919e-03
         - 2.5802835604363136e-02
         - -4.8947720692352605e-04
         - 6.8629912399472282e-04
         - 4.6654717635756022e-04
         - 3.5844604374146659e-03
         - 7.6624550220309707e-04
         - 1.8581829019330058e-03
         - 2.7301875774516557e-03
         - 6.7797544118741665e-03
         - -4.0601925312224669e-03
         - -4.6208879756037321e-03
         - -4.3481997610752155e-03
         - 4.0686058743270564e-03
         - -4.1237431879994476e-03
         - -2.6481109329582985e-02
         - 4.2501153631492854e-03
         - 7.0224569901747465e-04
         - -1.1441205627633724e-02
         - -1.8835332536609600e-03
         - 2.7912477340277984e-03
         - -3.7555316562150921e-03
         - -5.3595317626173086e-03
         - -2.7717207554319150e-03
         - -3.7823079378302930e-03
         - 2.1343656108551295e-02
         - -8.6476266015267644e-03
         - 2.6944021966087469e-03
         - -2.1054927498964354e-02
         - -2.7682241618913399e-03
         - -6.4485275810529019e-03
         - -8.0850286006100452e-04
         - -4.3887019885856457e-03
         - -1.0805570146072683e-03
         - -4.6276933411678210e-03
         - 2.1178812860335387e-03
         - 3.5932198589611005e-03
         - -6.2609962401442374e-03
         - -5.7126705146579504e-03
         - 7.4119268309755845e-04
         - 3.7708573562299460e-03
         - 5.1513486804862910e-02
         - -3.6916753252538561e-03
         - -4.1753253405183727e-03
         - 3.3016391450629255e-03
         - -1.7007624507376156e-03
         - -5.8359018529951069e-03
         - -2.7501323957288487e-03
         - 1.2366382853994599e-02
         - -4.3503417561294149e-03
         - 4.9887930792952839e-03
         - 6.0451075791975589e-03
         - 1.3235173571401646e-02
         - 3.5422388886801278e-03
         - -4.5142754969424072e-03
         - 2.1214541451586486e-03
         - 1.0261129533867007e-02
         - -3.3133647825749654e-03
         - 5.9870765522352558e-03
         - 1.8326338295847268e-03
         - 5.8733543191256303e-03
         - 1.1521882018182511e-03
         - 5.2444032425560142e-03
         - 2.4501528095651409e-04
         - -2.9470932898392793e-03
         - 6.0457620640818254e-03
         - -1.5433668405999738e-03
         - 6.8799893764402557e-04
         - 6.6296354119805643e-03
         - 1.0360848806474648e-02
         - 3.0377787856517712e-03
         - 3.4561380689555384e-03
         - 6.1758402763733962e-02
         - -7.4676045109344563e-03
         - 2.8463090910538164e-03
         - 6.7017605185613685e-03
         - -1.0006553365605173e-03
         - 5.3163589676025267e-04
         - -2.8325136043741454e-03
         - -1.0864193269240934e-03
         - 4.7439532835695790e-02
         - 6.7965914033803693e-03
         - 8.4370285194778488e-04
         - 7.0140277214784767e-04
         - -1.0446300982776633e-03
         - -9.7959091578799732e-04
         - 4.6108739896721630e-02
         - 3.1588932505452255e-04
         - 1.0342564718528340e-01
         - 2.3443026154939023e-03
         - -2.8880437384238141e-03
         - -3.8774628653300237e-03
         - 4.4624546544061129e-03
         - -2.4428347024170781e-03
         - -1.1949507531077413e-02
         - -1.6065432215927099e-03
         - -2.2824947763643516e-03
         - -5.9024430206560388e-03
         - 5.0087173704954644e-03
         - -9.2794912766529340e-03
         - -6.1421881758328776e-03
         - 9.2535582408175658e-03
         - -3.3137437939836649e-03
         - -9.8193593087384130e-04
         - 2.9218760172305385e-03
         - -7.5943900355389946e-04
         - 2.8348417746453533e-03
         - -1.9675552845875468e-03
         - 4.7006000415464842e-03
         - -5.8241393993166786e-03
         - 1.8699538744471507e-03
         - 1.6274193887170548e-03
         - 7.0058223841334031e-03
         - 3.9523590081323055e-03
         - -1.7654424196988063e-02
         - -2.0347231989653766e-02
         - 5.8412020784696803e-02
         - 1.3045570696041845e-02
         - -1.3045376934439981e-02
         - 8.4292376486812520e-03
         - -1.5114249444462822e-02
         - -3.7384643464349117e-02
         - 2.2368817406096177e-02
         - -1.0200398427273582e-02
         - -2.8045207716483347e-02
         - -2.5959405038543548e-02
         - -3.8826195016796572e-02
         - 7.0048267969083974e-04
         - -5.8344845241107189e-02
         - 8.4639131772240202e-03
         - -1.2196921232046274e-02
         - 6.8173370494560950e-04
         - -7.9621412670217700e-03
         - 3.4154008625435099e-02
         - 1.7027165969258629e-03
         - 1.5264516324598873e-02
         - -2.9937014015047857e-03
         - -1.7261097416449718e-02
         - 2.8062144854173791e-03
         - -8.8021183507822553e-04
         - 2.5448373039883208e-02
         - 3.7357684765625343e-02
         - 1.7496584939808723e-02
         - -1.8595555048033516e-03
         - -3.7210990750968259e-02
         - 4.4628851691971214e-02
         - -1.9865308597683227e-02
         - 3.9801209236194152e-02
         - -1.2381965084219220e-02
         - 1.1544924280812616e-02
         - 4.0926797953362978e-03
         - -2.6605042235225251e-02
         - 4.6788578560632170e-02
         - 8.2333900756559171e-05
         - 6.1531934872245773e-04
         - 3.5174330666466636e-02
         - 3.9382126034452639e-02
         - 3.4957074363899117e-02
         - 8.6018990758414370e-03
         - -1.0171743802833987e-02
         - 2.7436005961496354e-02
         - 3.2304883236341862e-02
         - 7.6908591341592536e-03
         - -8.8619569395556542e-05
         - -1.8428349422387275e-02
         - 4.0360606210034520e-03
         - -3.1503435123721453e-02
         - 4.2999767466302088e-02
         - 1.7534231522036369e-04
         - 4.3119077568720653e-02
         - -2.0886205534770139e-02
         - -2.6693584567190880e-02
         - 2.3239469998150446e-02
         - -3.3602971772585685e-02
         - 1.7754559439237746e-02
         - -3.4056484838625341e-02
         - -9.3232990076221357e-03
         - 1.4997110785172773e-02
         - -4.7151970088307099e-02
         - 1.9294118835729467e-02
         - 1.6429707210498874e-02
         - 3.5580839671810319e-02
         - -2.8103010795735659e-02
         - 3.5396219353281862e-02
         - 7.9594291977175911e-03
         - -3.2956264871190086e-04
         - 4.9611419103141180e-03
         - 3.1179759121181092e-03
         - 7.6118674006206864e-03
         - -2.6892880926439402e-02
         - 2.9334285398378446e-03
         - -2.1579055669171845e-03
         - 2.1978580553912979e-02
         - 7.2657496703604670e-03
         - 3.4316128971578860e-02
         - 5.8679386859561249e-03
         - 2.3869885850785023e-02
         - -3.9148124582541959e-02
         - -9.2505065551996954e-04
         - -3.5989418517891912e-02
         - -8.1972747423124919e-03
         - -1.5804664028247564e-02
         - -3.0288858025125057e-02
         - -1.1269958441475015e-02
         - -2.5961547636126465e-02
         - -3.4577620146796863e-02
         - 2.4022769936672569e-02
         - -3.6762375149150574e-02
         - 1.2510262380302097e-02
         - -2.0775735374968556e-02
         - -2.3286675246514739e-02
         - 3.8838005912572270e-02
         - 2.1702847549220711e-02
         - -1.8491655460743251e-03
         - 3.5559672769965955e-03
         - 1.1840675817110435e-04
         - 2.5358949683540132e-03
         - 3.9905334350524924e-03
         - -4.4491906077024523e-02
         - 2.6496898579195468e-03
         - -3.0331234876622972e-03
         - -4.7277235386702793e-06
         - 6.6876366986536769e-03
         - -2.5247982280313642e-03
         - 2.7132892768209080e-04
         - -2.1944207646324151e-02
         - -8.0081796416170310e-03
         - -1.2782675138481897e-03
         - 6.5053180367692934e-02
         - 2.2595057888385723e-03
         - 2.3085358534261410e-03
         - 9.8431772457033381e-04
         - 3.9403937223221963e-03
         - 3.3857225044278167e-03
         - 3.2100140360831904e-03
         - -4.3079907154434489e-05
         - 3.9959321303108071e-03
         - 3.3146035491594225e-03
         - -9.5158307979659380e-04
         - 3.0429411779836625e-03
         - -2.0123877940135958e-03
         - -8.7043700685702594e-02
         - 6.9419602451132028e-03
         - 8.7386925757317946e-04
         - -1.1724843997873676e-02
         - 3.3253413841552509e-03
         - 4.2938588138503458e-03
         - 4.7965164276029607e-03
         - 3.8941041162301737e-02
         - -4.3688260350305992e-03
         - 2.7951803625904260e-03
         - 1.2937748118033098e-02
         - 2.5577402083031549e-03
         - -3.0126989866515316e-03
         - 2.8516859512849086e-03
         - 2.5510153006815901e-03
         - -3.8651115951911293e-02
         - -2.0067400167987689e-02
         - 4.6299047535661372e-03
         - -1.7636361264861138e-03
         - 5.1033383724303841e-03
         - 5.2753358773060101e-04
         - 5.9835207562667653e-03
         - 6.2932109321624701e-03
         - -5.2351462413398452e-03
         - 1.7538321944238929e-03
         - -5.6681992594210147e-03
         - -6.3561800725353002e-03
         - -1.1307678026265125e-03
         - -3.3752726398839539e-04
         - 3.5090004924947615e-03
         - -7.4825522536135390e-05
         - -3.6049024294135354e-04
         - -7.1415070179197153e-03
         - -1.5112352703078495e-03
         - 9.2182646331648212e-03
         - -1.1686917576315076e-03
         - -3.8086375757669247e-03
         - 2.6422259394082372e-03
         - -3.8313619923460861e-03
         - -6.5409301074672854e-02
         - 1.7166968968178105e-03
         - 8.3597617725398232e-04
         - -5.4102003608240343e-03
         - 3.7759862396596990e-03
         - 9.1962999028833716e-04
         - -5.5198833621244614e-02
         - -5.3586513325706939e-03
         - -6.1354138139004089e-02
         - 1.9706073928803742e-03
         - 7.6539436310837754e-04
         - 1.5899466545433744e-03
         - 7.8755057105580149e-03
         - 2.3873576666720624e-04
         - -3.2969184820894601e-02
         - -2.6246528576406524e-03
         - 1.0706095859900279e-03
         - -7.4412110001142173e-03
         - -9.8496872820328383e-04
         - 7.3459026422921763e-04
         - 3.1409451064914099e-03
         - -4.5294136740276436e-02
         - -3.9564239311759946e-05
         - 8.6645896295097782e-04
         - -3.4306795498687814e-03
         - 3.6146380852967873e-03
         - 7.0460692651855804e-03
         - -2.8193551620599253e-03
         - 2.3185757503362226e-03
         - 1.2669959257920814e-03
         - 5.7917074650843583e-03
         - 4.5236458485341897e-03
         - 3.9615638305739564e-03
         - -5.1605378827786156e-03
         - 6.3358158520146210e-03
         - 4.2964420993047349e-02
         - -5.8865692940053733e-03
         - -5.6596392390271559e-03
         - 3.1480856063844286e-02
         - 1.0724712177122310e-03
         - 6.6478880271857279e-03
         - 9.2191972652701411e-03
         - -3.2880801700082129e-03
         - 1.9596356427256005e-04
         - -3.1933115436162708e-03
         - 1.0477328742248906e-02
         - 1.0557696644423503e-03
         - 5.9528493553508439e-03
         - 4.2184765142906602e-02
         - -5.2412880050921422e-03
         - -4.3476665639167649e-03
         - 5.2225451240582189e-03
         - -3.1567919945135361e-03
         - -8.5489208793338052e-03
         - 3.4755179574506587e-03
         - 3.8029327397758154e-03
         - 3.6746109569762535e-03
         - 1.1718941184014919e-03
         - 2.3748915756504063e-03
         - -3.0300085920965383e-03
         - 1.3413119485405189e-03
         - -5.4399842026234033e-02
         - -5.8430676861004633e-03
         - 5.4728882612221866e-03
         - -1.1856301019369781e-02
         - -8.2479071987927148e-04
         - 6.3442464923710816e-04
         - -7.0417390667053461e-03
         - -1.5698033848393564e-03
         - 3.2176502573098603e-03
         - -4.8581262079456311e-03
         - -1.9576322921644425e-04
         - -1.1859807924560584e-02
         - -3.3130501024078771e-04
         - -3.5696869153334122e-03
         - -6.8577867052265614e-03
         - -2.4339694998210700e-02
         - -1.6790802497084339e-02
         - 1.6938586482771977e-03
         - -4.4448251768107044e-03
         - -4.0156957676108756e-03
         - -6.5365665780884250e-03
         - 4.3927687929484274e-03
         - -4.5439927524977483e-03
         - 6.2914876578313165e-03
         - -2.5336827558055113e-03
         - 4.2451646316281752e-03
         - -1.2526308551725724e-02
         - 5.8946215081786216e-03
         - -4.4909852069429995e-03
         - 5.5263749891376604e-03
         - 6.9115203203756505e-03
         - -1.8972026379556091e-02
         - 3.4935654101993594e-03
         - -4.7156676260433211e-03
         - -2.1735877363920808e-03
         - -1.8266524333473574e-03
         - -1.7983997560226284e-03
         - 3.1677710758464587e-03
         - 3.0828373504336692e-03
         - -8.0307325237738703e-02
         - -4.9686241829496177e-03
         - -2.3904323200128934e-04
         - -9.1578303321236953e-03
         - 4.6110209128888621e-03
         - 5.8263300220669726e-03
         - -5.8745248150044102e-02
         - 4.6117681359322486e-03
         - -3.0949389777922876e-02
         - 7.6697032246194567e-03
         - 3.8400965645207048e-03
         - 3.2316487270146179e-03
         - 2.1583956403023424e-03
         - 3.1323665905829234e-03
         - -1.5427957744676207e-02
         - 3.3932465006584608e-03
         - 2.4658116837573373e-03
         - 1.1117730916347264e-03
         - -4.7926061248125852e-03
         - 6.8543584099197228e-03
         - 1.1094234004444007e-03
         - -1.9303331606629153e-02
         - 7.4604929747966149e-03
         - 5.8434409040524753e-03
         - 6.9395586383456396e-03
         - 4.7614641569971141e-03
         - -2.1267397915868450e-03
         - -1.1494555039732388e-03
         - -1.5526412305330341e-03
         - 8.9351700903917697e-03
         - 5.6528140287052874e-05
         - -4.7279166099875982e-03
         - 2.8946823326404820e-03
         - -1.1345608466026616e-03
         - 3.9091576059722489e-03
         - 1.5208066026817013e-02
         - -1.5021168216989260e-02
         - -1.4856711829242205e-03
         - 4.3843374035992193e-02
         - 2.5985952833884264e-03
         - 4.9078263160315973e-03
         - 1.4190408756458286e-02
         - -6.1021672259449922e-03
         - 2.4287206703626357e-03
         - 1.1265877141620528e-02
         - 7.3886808427157183e-02
         - 5.0805962890073213e-03
         - -2.0167037072462831e-03
         - -6.5455634432121327e-03
         - -7.4970441189829724e-03
         - 6.9017816067782562e-03
         - -2.4161665650318910e-03
         - 6.9040112373224168e-03
         - -1.3175358700713558e-02
         - 3.9574328086229493e-03
         - -9.2844081938129111e-03
         - -3.7272424883245396e-03
         - -2.3138805727826368e-03
         - 4.4772028069386604e-03
         - 1.0860161592647004e-03
         - -5.3105122802511173e-03
         - -4.1216734604798001e-02
         - -6.1513170304092965e-03
         - 3.1049527131389006e-03
         - 6.1315070624633136e-03
         - -1.7045213368819159e-02
         - 7.9372107030729437e-03
         - -5.9437000766538054e-03
         - -3.9227471024415025e-02
         - -5.6560696877124665e-03
         - -1.2940529661249018e-03
         - -4.0509900746757621e-03
         - -3.9183034909317377e-02
         - -2.1841632569604124e-03
         - 1.9272123391060256e-03
         - -5.4158620908238081e-03
         - -2.4315932120700361e-02
         - 9.9916517939740144e-04
         - -1.1597674204130227e-03
         - 3.1448898628029381e-03
         - -9.0889919579844828e-03
         - -1.4597887497955283e-02
         - 2.7870807175715473e-03
         - 8.5379011332722445e-04
         - -1.7278221322740912e-03
         - -3.8065004169858668e-03
         - 7.7761471066786422e-03
         - -1.1627426559337004e-02
         - -5.0412181972717051e-03
         - -1.7122875234565408e-02
         - 9.5440014425591090e-03
         - 1.2661392675960784e-02
         - 7.2831225247914355e-02
         - 8.5539613003529583e-03
         - -3.7793646053094808e-03
         - 1.0346657456804075e-03
         - 2.6428575994965641e-03
         - -5.8030905442286920e-03
         - 1.3490423871256119e-02
         - -5.5934555626922459e-03
         - 1.6677605829996729e-02
         - -1.5752685560939766e-02
         - 8.2474379020984721e-03
         - -7.3347935678510284e-03
         - -4.3021013575409734e-03
         - -4.3438425086192306e-03
         - 2.8912924354935601e-02
         - -2.3321697091858331e-03
         - 1.5246893748782962e-02
         - 2.2311110109512942e-03
         - 3.6875030791841956e-03
         - -1.2300190958666173e-03
         - -7.9331673612818895e-03
         - -3.6685357774162678e-03
         - 7.0294288601660780e-03
         - -7.1857481613492192e-03
         - -1.1241955331539415e-03
         - 1.3477893602799648e-02
         - 6.2695075107028911e-03
         - 1.7388524970410345e-02
         - 6.6846275814573209e-03
         - -4.8555123846938282e-02
         - 9.2328135697009352e-03
         - -3.0205016403783017e-03
         - 6.0066436977452434e-03
         - 9.2250852982946503e-03
         - -3.4183739100040649e-03
         - 2.1678068940995548e-03
         - -7.3456302444028345e-03
         - 1.7333554761047125e-03
         - 6.3299672113624568e-03
         - -3.6636463498742299e-03
         - -2.4391761437100186e-03
         - -5.1223486277788824e-03
         - -7.4914683723296058e-03
         - 1.5672387064754597e-02
         - 1.3630001394957876e-02
         - 4.7997719987891482e-03
         - 5.1400911497105635e-02
         - -3.5656573525298875e-03
         - -4.8025998078671918e-03
         - -5.8178106308850704e-03
         - 9.5241969890600582e-03
         - -5.0943537652861411e-03
         - -1.0278242910791881e-02
         - 1.4847473077418554e-02
         - -1.3138812603611515e-02
         - -7.8622507129684580e-03
         - -4.9298042193488614e-02
         - -3.5414013273276199e-03
         - -4.5243875687722103e-03
         - 3.6299043478288265e-04
         - -6.2750824518795750e-03
         - 3.2094780768787599e-03
         - -2.8158431428721917e-03
         - 4.4974522475665765e-03
         - -5.5802516062024611e-03
         - -6.9433994957333539e-03
         - 5.0568504600309663e-03
         - -4.6230395557144248e-03
         - 1.2033911106643371e-02
         - -3.1293120669421741e-02
         - 4.9411120253923775e-03
         - -6.7963996550616146e-04
         - 1.3746793840008754e-04
         - 1.0669469824103669e-03
         - 9.4678751717929997e-04
         - 1.5441984887624164e-02
         - -6.7051278753790994e-02
         - -3.2722029703299432e-03
         - -1.3266709108740720e-03
         - -3.6202588911863703e-02
         - 2.3614571974337855e-04
         - -3.3159478872041757e-03
         - -4.9683678428234911e-03
         - -3.2643191901951898e-04
         - -1.3023112015732080e-03
         - 2.8393784286447368e-02
         - 1.9649058492866452e-03
         - -2.8128804162350259e-04
         - 5.7403368113719845e-04
         - 6.9093522746065724e-03
         - 8.1853124242927094e-05
         - 9.2417120485319419e-04
         - -4.1978560562511242e-03
         - 6.8164765455874417e-03
         - -9.0814323241493362e-03
         - 1.0613555065086702e-02
         - 1.4865974890793294e-03
         - 5.9578169045166563e-03
         - -1.1102683973895923e-02
         - -4.3992385399801376e-03
         - 4.9762934295202989e-02
         - -9.3435980270475550e-03
         - 6.5200685839949769e-03
         - -1.3573126461922307e-02
         - -8.9474420194545316e-03
         - 2.0950925686624897e-03
         - -1.2854738640619916e-02
         - 6.0513096459714425e-03
         - 3.9042532011758772e-02
         - 7.2277625930028530e-03
         - -1.2001714503077262e-02
         - 9.9229103904071945e-03
         - 6.0738569933436581e-03
         - -6.5198605085950182e-03
         - 4.2504534692369651e-02
         - -7.5906887700475853e-04
         - -6.8807786714779606e-03
         - -1.3268694029517636e-03
         - 4.7714200587055259e-03
         - 3.9940386490503680e-04
         - -2.9942122966376437e-03
         - 5.7002559088217115e-04
         - 3.8145178568559972e-02
         - -1.4947190921394467e-03
         - 9.4479797084168465e-03
         - -5.4020399274859092e-03
         - 3.8765829138432857e-03
         - -1.4929630982802245e-02
         - -6.0227658620673622e-03
         - -3.4990145135354485e-02
         - -4.4470773241188722e-03
         - -1.2387165108536863e-03
         - -9.2349375169950565e-03
         - -5.7622912726400539e-03
         - 2.2291279959927644e-03
         - -3.3803179312101284e-03
         - 9.3307066041083532e-04
         - -4.5317811397905744e-03
         - -7.3884748922955013e-03
         - 1.1839930803859968e-02
         - 8.4071655824059376e-04
         - -5.9498607093558991e-03
         - -8.4499091249449643e-03
         - 7.4447900557898595e-03
         - 2.4750180427814624e-02
         - 5.7317239752507285e-03
         - -1.2559809974782838e-02
         - -1.4698418449483259e-03
         - -4.2754236907595247e-03
         - -5.4516663381479003e-03
         - 2.6470880480878685e-03
         - -9.3350017525914760e-03
         - -8.0992043716585412e-03
         - -8.6195939001708632e-03
         - -1.6502712116097142e-02
         - -4.4752279660955629e-03
         - -2.1515628936808008e-02
         - -2.3249295630311207e-03
         - -6.1887850332618087e-03
         - -3.6052194404976585e-03
         - -3.3282262682014919e-03
         - 1.3203245496599965e-02
         - 2.1813251702093232e-03
         - 8.8624519796027586e-03
         - -3.8204277863738080e-03
         - -3.1031838435027995e-03
         - 1.5102896832745174e-03
         - -2.0400235717107631e-03
         - 8.9227822894398477e-03
         - -1.8231494498003584e-02
         - 6.8934331967063439e-03
         - -7.9900780448727282e-03
         - 2.4658843713400952e-03
         - 1.2514110876362580e-02
         - -1.2022108035809552e-03
         - 1.7632376148779470e-02
         - 2.3039533045587702e-03
         - 3.4540099604348107e-03
         - 3.7185930357341544e-03
         - -2.4076600751869650e-02
         - 2.3697429620364918e-02
         - -4.7191295726532994e-04
         - -3.4752260500878376e-03
         - 3.2315926244178826e-03
         - 1.2607077415586164e-02
         - 3.2398454851699253e-02
         - -1.4776297777456529e-03
         - -7.8941607122631208e-03
         - 3.4403245289882467e-03
         - 9.4307122098298401e-03
         - 5.0963580854599070e-03
         - 7.9476317865897366e-04
         - 5.0493564267492714e-04
         - 4.5919531908738051e-04
         - -8.4766540164141254e-03
         - 2.0743032197037086e-02
         - -1.0526069362973565e-03
         - 1.5018480847483346e-02
         - -1.5222920747337979e-02
         - -8.2225340795519814e-03
         - 5.2516618549628843e-02
         - -1.4584034427489271e-02
         - 7.3986799343528521e-03
         - -1.4576767113857284e-02
         - 9.8884994638198773e-04
         - 1.4235636472898566e-03
         - -1.5985949909376088e-02
         - 1.2215655038892775e-02
         - 5.0252254709029165e-02
         - 1.0829822729756099e-02
         - -7.7899911195705961e-03
         - 1.0328132117501573e-02
         - 3.9975077927355595e-03
         - -6.4089719769619749e-04
         - 5.7852283888145943e-02
         - -4.8620682878921812e-03
         - 2.2934809793173676e-02
         - -1.0617065682898816e-02
         - -4.2771840252753997e-03
         - 1.4418653434725790e-03
         - 3.2229117323203405e-05
         - 3.7691225438833765e-03
         - 5.3483341383139552e-02
         - 2.6223535458034276e-03
         - 5.0922514011564751e-03
         - -1.8011086100474773e-02
         - 1.1968515743752918e-03
         - -1.3715608375769361e-02
         - -8.0451312126231557e-03
         - -2.6663402495980100e-02
         - -4.1563217273375497e-03
         - -1.9686280335117629e-03
         - -9.1014922501047070e-03
         - -1.5545688371488089e-02
         - 6.9619599037561413e-03
         - -6.9763684003406618e-03
         - 4.3622399944673769e-03
         - -1.1727997055283511e-02
         - -5.6684869726597040e-03
         - 1.0390596791508380e-02
         - 4.7989550712723454e-03
         - 3.5742535829883619e-03
         - -8.6062572009443575e-03
         - -1.1129789358141292e-02
         - 2.1043153712744886e-02
         - 4.2903061547245382e-04
         - -7.1367313250607342e-02
         - 8.1255560761149467e-03
         - -6.7333608221348635e-03
         - -1.8561529787501425e-02
         - 4.0847809168797194e-03
         - -9.8773613741826114e-03
         - -1.1912515772954347e-02
         - -6.7205128304963849e-02
         - -7.5767964250686472e-03
         - -2.5138061638822632e-03
         - 6.0461638564375045e-03
         - 3.5453507856806092e-03
         - -3.9187410709716044e-03
         - -1.3107628446441604e-03
         - -3.0062295299782939e-03
         - 1.6367717294153750e-02
         - -1.5784759741864450e-03
         - 7.2168669667539162e-03
         - 6.3800888521340516e-03
         - -7.2524574281947361e-03
         - -1.2358785667496430e-03
         - -7.2487638765862950e-03
         - 1.3879724403938873e-02
         - -4.0756852675621069e-02
         - 1.3686551262264665e-02
         - -7.0141208844760917e-03
         - -2.9343190553803907e-03
         - 8.0351049059881677e-03
         - -7.8482689698683855e-03
         - 1.9396234344250637e-02
         - 5.4598983078553667e-02
         - 9.3103036637691219e-03
         - 3.6451074271343746e-03
         - -4.0230322345757010e-03
         - 5.3886323988254790e-02
         - -2.3234997203183195e-03
         - -5.9913353736615205e-03
         - 8.2514727151606435e-03
         - -4.2204610096391124e-03
         - 1.7598184340396773e-02
         - 5.1544873518779150e-03
         - 1.4214011157757365e-03
         - 8.4487394318988988e-03
         - 2.1369319638879575e-02
         - 2.7384217930048770e-03
         - 1.9747973794721390e-03
         - -3.0859122027248479e-03
         - 9.3066091861331787e-03
         - -1.3308720407811421e-02
         - 2.1825166711419982e-02
         - 3.0990099677993817e-03
         - 1.0044904232332334e-02
         - -6.6401667795284048e-03
         - -1.0448098201171747e-02
         - 8.3923558883785259e-03
         - -1.6672658929601424e-02
         - 1.1053604102514060e-02
         - -3.8691007939952358e-03
         - -9.7914469821527555e-03
         - 2.4935976757589537e-03
         - -1.4407474056518649e-02
         - 6.2681762587193466e-03
         - -3.4532163700675689e-03
         - 1.7262370091253802e-02
         - -1.7065115965087332e-02
         - 1.0885486416123552e-02
         - 6.0726485983028534e-03
         - 4.1053810030732630e-03
         - 1.0671681058078197e-02
         - 2.1033263728280449e-03
         - -8.7520828719717010e-03
         - -7.0296362090038573e-03
         - 4.8277295430428453e-03
         - 4.4536908032400211e-03
         - 3.5405710406798772e-03
         - -3.9424400953331383e-03
         - 4.3231694101733067e-02
         - 1.5117207063320972e-03
         - 1.0302017255500167e-03
         - -1.6981353782391542e-02
         - 2.7485287487309042e-03
         - -1.5835659080797988e-02
         - -2.5525339499220703e-03
         - -1.6389146487047968e-02
         - -1.0531760342326536e-02
         - -6.3677599766043544e-03
         - -7.2623357286903355e-03
         - -1.8704044432086318e-02
         - 1.5526508399991515e-02
         - -9.2470407547846061e-03
         - 7.3173477654567068e-03
         - -1.0803155733328797e-02
         - -7.9680992881478764e-03
         - 1.4298646750832438e-02
         - 9.1173005337286880e-03
         - 4.0070575424564978e-03
         - -5.4959175026636610e-03
         - -5.9736537809996952e-03
         - 2.3908722625319880e-03
         - -2.3817621573245826e-04
         - -6.9436415845902877e-02
         - -9.2704328584892342e-04
         - 4.0162508412226669e-03
         - 7.6981583191253645e-04
         - -3.8090110803006400e-03
         - -4.1661642690126125e-03
         - 1.8974585356135137e-03
         - -3.2382728176342808e-02
         - 3.1712074237083146e-03
         - 8.3384342017729868e-04
         - 3.7582566382089760e-02
         - 4.8326959514979031e-05
         - -3.4924176321514265e-03
         - -3.1875087257814878e-03
         - 4.2473340416203549e-03
         - 2.0467559794109507e-03
         - -6.0148007307796606e-03
         - -1.6533645330163035e-03
         - -6.0720462105714156e-04
         - -3.3523621770840716e-03
         - -1.3073228440220420e-03
         - -3.2271777184841909e-03
         - -3.2963973428623478e-03
         - 2.5369808239949148e-02
         - 5.7079191986858383e-03
         - 2.7240774625804489e-03
         - 3.8502311197478180e-03
         - -2.5076347307363164e-03
         - 2.5115975857437612e-03
         - 5.8043186150695770e-03
         - 8.6380601701448984e-02
         - 6.0591005941499979e-03
         - -5.5987170021046017e-03
         - 2.0637275979324462e-02
         - 2.0447649964602410e-02
         - -4.6048635220830173e-03
         - 2.5328596054124230e-03
         - -1.3031923212188106e-03
         - 1.3600397589235712e-02
         - -4.6307108126245007e-04
         - 4.9346165090684698e-03
         - 3.3205893395969717e-03
         - 1.0760346254096631e-03
         - -1.3341054055855102e-03
         - -2.1701388611284492e-03
         - -2.9636193307697894e-03
         - 1.4654099083186709e-03
         - 4.7810222946502928e-04
         - 3.2509149127460161e-03
         - 1.0855769789539876e-02
         - -1.3917317357102236e-03
         - 3.7098062611475619e-03
         - -1.9323116412692004e-03
         - -4.5879604247651938e-03
         - -2.0902652957069064e-02
         - 1.2583360488663202e-03
         - 4.5741635868289370e-03
         - 8.3851826772718841e-03
         - -4.0200531576371325e-03
         - 3.8305514485198941e-03
         - 2.9320162621347171e-03
         - -6.0186307255438581e-03
         - -1.0813310307567294e-02
         - 5.2624892383565701e-03
         - -6.5314877541362828e-03
         - -6.9109723124803927e-04
         - 2.0493229092339469e-03
         - -6.2015994467866705e-03
         - -1.0221759578895545e-03
         - -5.7175504065928749e-03
         - 6.2254154890145859e-02
         - -5.6107093190432356e-03
         - 3.7154208275144225e-03
         - 1.2656051248039384e-03
         - -3.8328475018110388e-03
         - 3.6582285286359843e-03
         - 7.5307318056990098e-03
         - -2.6806166850965913e-03
         - -4.3057527634149315e-03
         - 4.2054198595557670e-03
         - -5.6624709033816535e-03
         - 3.0450781449206698e-04
         - 7.0342800266106828e-04
         - 4.9023476255513440e-02
         - -1.3316656301302003e-03
         - 5.9786564361572422e-05
         - 4.6376689063333125e-04
         - 5.6763447886106029e-03
         - 1.1703136336121602e-03
         - -5.9295456323193814e-03
         - 1.4664391084776057e-03
         - 9.2330127491182265e-04
         - -4.8162274939001553e-03
         - 1.9153271963600691e-04
         - 2.1679691130320784e-04
         - 4.1233998971810298e-03
         - -8.8749869873784148e-03
         - -3.5733478444105763e-03
         - 2.0157086727760176e-02
         - -4.0366854268302031e-04
         - -5.9820196713253017e-03
         - 4.4102402074965470e-03
         - -7.7954662453403514e-03
         - -1.9764398930357457e-02
         - 9.2744691138873809e-03
         - 1.2047625312106827e-03
         - -6.6614806102154485e-03
         - -3.6894442516604037e-02
         - -1.5333202712542890e-02
         - 1.0503712810198496e-03
         - 1.4410397059590590e-02
         - 2.7298093983297873e-03
         - -9.7934460565479655e-04
         - -1.3824782139717218e-04
         - 1.1774911219644226e-03
         - 8.3193816124120575e-03
         - -4.0191577551726030e-03
         - 3.3225358819023916e-03
         - 4.2455015291235831e-03
         - -4.2478385487669107e-03
         - 4.5799451280402453e-03
         - -3.9524696999641614e-03
         - 1.2247829413543526e-02
         - 5.7357316738765964e-02
         - 1.0360682669291195e-02
         - -4.2869383602968927e-03
         - -7.4529535697465286e-03
         - 2.0955692432043819e-02
         - -9.8189036216657366e-03
         - 1.0051813197718076e-02
         - 2.1519645483916702e-02
         - 5.9538162915703688e-04
         - 6.4720705604420061e-03
         - 1.9645522764328714e-03
         - 2.5384800198378930e-02
         - -2.2479661942191047e-04
         - -2.9832702793083368e-04
         - 1.0580888730306487e-02
         - 5.2513031843599955e-02
         - 2.8514293100629783e-04
         - -3.1394207487394424e-03
         - -6.7410783838275862e-03
         - 1.1051463698273837e-02
         - 1.2791571151127071e-02
         - -4.3240939839048512e-04
         - -4.2592935571488799e-03
         - -1.1887294335300410e-03
         - 8.5549369418386392e-03
         - -1.4489657549004817e-02
         - 1.6601867716170639e-02
         - 4.8394741660586875e-03
         - 1.2785443466086880e-02
         - -1.2405610616467595e-02
         - -1.0478907805615414e-02
         - -4.9654290939786213e-03
         - -2.0171467150712535e-02
         - 1.0038465460776417e-02
         - -2.6149830414209248e-03
         - 2.1284195667637699e-03
         - 7.3227913991608089e-03
         - -1.8633697661347988e-02
         - 1.7070088600141073e-03
         - 9.6506294900991010e-03
         - 2.0925162888637609e-02
         - -1.0248364508988972e-02
         - 1.2194337506944455e-02
         - 1.0247058903868334e-02
         - 2.5249957789480011e-03
         - -6.6690384056944368e-03
         - 3.9577460355355969e-03
         - 7.0144744235697054e-02
         - -7.7653093605464969e-03
         - -2.8567147847865172e-03
         - -2.4162704560937100e-03
         - 4.4549820176378154e-03
         - -1.2618994584297546e-03
         - -5.9300168981455586e-03
         - -3.7239739137325620e-03
         - 5.2632555619288538e-03
         - -9.5206528238535575e-03
         - -8.1341593345574843e-03
         - -2.2104957786531834e-02
         - -2.4268077802842370e-03
         - 5.1225509838635351e-02
         - -1.6103637928257915e-02
         - -5.8194203005016848e-03
         - -9.4782569051428851e-03
         - -1.3727586150263120e-02
         - 1.2112882002409404e-02
         - -1.7444952647077957e-02
         - 1.7059579884523266e-03
         - -5.1541399148840247e-03
         - -1.4158946474781850e-02
         - 1.7035885988115354e-02
         - 1.0982171841003016e-02
         - -1.7131159020478706e-04
         - -2.1796614244991297e-04
         - -3.8268867868350528e-02
         - 9.0769652850165097e-03
         - -3.3624057157049989e-03
         - -3.7578326252828587e-02
         - 6.2640872899440269e-03
         - -5.2166656025211490e-03
         - 2.2312665425310856e-04
         - -5.4672551622734862e-03
         - 3.4515540870757580e-03
         - -3.2318371594951085e-03
         - 3.6516550445970672e-02
         - -8.0546579513667057e-03
         - -4.2279650273519386e-03
         - 4.1701603994854487e-02
         - 2.9004776457553626e-03
         - -2.6825896844263602e-03
         - 2.9948429781685992e-03
         - 4.0177210504924047e-03
         - -1.1730223027194033e-03
         - 7.4564768797452858e-04
         - -5.4718180402197323e-06
         - -7.4183853073061504e-04
         - 4.2599847234670897e-03
         - 2.4498617657124099e-03
         - 4.8777714857602839e-03
         - 3.0472191192876508e-03
         - -9.3278019242349422e-03
         - 4.5654115079468358e-03
         - -4.0619546741797775e-03
         - 9.1622854002634171e-03
         - 9.8917246098955778e-03
         - 5.8375165489010557e-03
         - -3.5265711146459646e-03
         - 3.7090342079412045e-02
         - 4.9536734490236278e-03
         - -2.4597050741332312e-03
         - 2.1245520403550693e-02
         - -7.7256273466365794e-03
         - 2.4310135191467929e-03
         - 3.6732866314948586e-03
         - 6.3802358502042748e-03
         - -2.0463676325715673e-02
         - -1.4289445415754004e-02
         - 5.1033903788847363e-03
         - -4.1198934899249612e-03
         - 4.6189105983186216e-03
         - 2.3236196889549754e-03
         - -4.5425659244405529e-03
         - 1.2841342912052944e-03
         - -2.1924613043145477e-03
         - -1.2378373288775763e-03
         - -4.1446753122078833e-03
         - -6.9476158524079323e-03
         - 6.1851155964628057e-04
         - 2.9347814688190504e-03
         - -5.6929440084851840e-03
         - 2.0955370443013570e-03
         - 6.1807579209463510e-02
         - -3.1779653714500426e-03
         - 4.4754791616439665e-03
         - 8.7987661597764902e-03
         - -7.0290508914617380e-03
         - -5.1875390597762349e-03
         - -3.5959585540710098e-03
         - -2.5345933160983766e-03
         - 4.7362893342364806e-02
         - 6.3606644765186130e-03
         - 2.6072561469163823e-03
         - 5.9465015853185895e-03
         - -1.2670329212842736e-04
         - -2.4110533880148796e-03
         - 3.9579373760913895e-02
         - -3.8573298324801309e-03
         - 6.0068133306025610e-02
         - 3.5210203738133623e-03
         - -3.7585160131372265e-03
         - 4.3026518414994554e-03
         - -2.0315875781431120e-03
         - -5.0036765433094359e-03
         - -3.0678028162825895e-02
         - 2.6681151372162180e-03
         - -2.5546605952500882e-03
         - 7.3344697927483018e-04
         - 4.6889539099691981e-03
         - -8.4394834877877609e-03
         - -4.3829066492496590e-03
         - -4.0373409591554568e-02
         - -6.6746581681789274e-03
         - -3.1280890011992283e-03
         - -2.2712593707098962e-03
         - 4.0193302397388778e-03
         - -5.8199874947931576e-04
         - -2.3181978164262896e-03
         - -5.6931209196342423e-03
         - -5.2787651529222013e-03
         - -1.9483903608128533e-03
         - 6.1799750527873915e-03
         - 7.5469224207617335e-05
         - 3.7431148650655891e-03
         - -4.0597186586453036e-03
         - -2.1593234247570922e-03
         - 4.5501100270156766e-03
         - -1.5747090861954519e-03
         - -2.4491009500989504e-02
         - -7.9492859731033810e-04
         - 3.0774183280778177e-03
         - 1.5523481579076486e-03
         - 7.5384541280028251e-04
         - 3.1136789284385096e-03
         - -5.1184614189996053e-03
         - 7.1745535195438792e-04
         - -5.4125438862987624e-03
         - 2.2586765423153153e-03
         - 2.7749133208060443e-02
         - -6.4767486614819342e-04
         - -3.7379936128981014e-03
         - 6.0953950300043054e-03
         - 1.4280355634896582e-03
         - -2.8605432191409238e-03
         - 3.7613918922340924e-04
         - -9.7062849324479382e-04
         - -5.0639694266757075e-03
         - -2.9469977249041270e-03
         - 5.9503662990062472e-03
         - -2.2350059331935016e-03
         - 9.7239370873155526e-03
         - -5.1571318340677033e-02
         - 3.6591049980950088e-03
         - -1.5114335747966926e-03
         - -1.2818410742641612e-02
         - 4.7336112808783436e-03
         - -3.4864991119617187e-03
         - 1.6597531303720041e-03
         - 1.9551353414670285e-02
         - -3.8000325636765621e-03
         - -3.8662776836856177e-04
         - 4.2353521563535399e-03
         - 5.3250638069178898e-03
         - 5.2150273342065727e-03
         - -6.2321065987529906e-04
         - -1.7742333910530652e-05
         - -3.7742774027387824e-03
         - -7.2213814085422693e-03
         - -7.4585509978153874e-04
         - 1.9672494513373797e-03
         - -5.4346595099648591e-04
         - -1.4539506791802440e-03
         - -2.3773026008048694e-03
         - 5.0908461990233197e-04
         - -2.9849779555364352e-04
         - -6.6581159407350663e-04
         - -3.5688961513335575e-03
         - 3.3644803723820274e-04
         - 5.9212141206924562e-03
         - 7.2193641495021657e-03
         - 7.6019206216307788e-04
         - 1.4339798767858910e-03
         - 8.6363676496185211e-03
         - -1.0741134357801741e-03
         - 8.0759611423914782e-04
         - -9.4303456290902705e-04
         - -1.7838631088003686e-03
         - 7.6590361645552524e-03
         - -1.1658514941061444e-02
         - 5.7541336689388399e-03
         - -5.7183323450438646e-02
         - -1.1592167906570089e-03
         - -9.2470419862074554e-04
         - 4.9775472234310728e-03
         - -5.1725410441696659e-04
         - -2.7156301129569430e-03
         - -6.8038225450385806e-02
         - 2.7998060034797973e-03
         - -4.8442013320278157e-02
         - -8.5277719608058151e-03
         - 2.5128806511495647e-03
         - 2.2123213888535840e-03
         - -2.4357738341787248e-03
         - 2.1778275528590418e-03
         - -4.4359873764579186e-02
         - 3.4377304248984662e-03
         - -2.0401399896202068e-03
         - -3.8275203941020653e-04
         - -2.8223437502608649e-03
         - -5.5828983726193167e-03
         - 2.7411675367597717e-03
         - -3.8929532089629716e-02
         - 6.3247419164005338e-04
         - -3.9732970685546059e-04
         - 1.7271774650324916e-03
         - 2.5373468371518861e-04
         - 1.6754525440590717e-03
         - -1.3478506165787976e-03
         - -4.4687236104576427e-03
         - -9.2132657918657414e-03
         - 1.9197035912241517e-03
         - 4.1806648022910701e-03
         - 2.6514578763298883e-03
         - -4.9783698748413147e-03
         - -3.4856298107801597e-03
         - 6.1578214537608242e-02
         - -2.8696904501770387e-03
         - 3.1872532445812798e-03
         - 5.8330356678038688e-02
         - 1.4377915261654748e-03
         - 2.9357006188741900e-03
         - -2.5460591618608119e-03
         - 9.4588345072066510e-03
         - -3.7558345723946287e-03
         - 3.4796824666989204e-03
         - 4.6888246169949126e-02
         - -3.8804417157722857e-03
         - 6.9560943646978278e-03
         - 4.4500408586156649e-02
         - -4.2086792156535288e-03
         - 8.4976854182924509e-04
         - -3.4296273082628261e-03
         - -5.5359131575585373e-04
         - 6.8668040477508473e-03
         - 2.8742424247156775e-03
         - 8.7483560537899392e-04
         - 3.5894822408160253e-03
         - 8.6297803345660470e-04
         - -1.5633246038567755e-04
         - -5.8656936688175057e-03
         - 3.9076337735045623e-03
         - -2.0760765624433103e-02
         - -3.3277982563053028e-03
         - 3.3789102491195030e-03
         - -2.7176199216965458e-02
         - 6.9321961022830031e-03
         - -5.1536822318974350e-03
         - 5.6708677608872720e-03
         - -2.7054919069234133e-02
         - -6.4421802074879852e-04
         - 2.5429889681514353e-03
         - -1.0292184861552551e-02
         - -1.2489935801170308e-02
         - 3.5053840091848268e-03
         - -2.8640638187276499e-03
         - -1.1066761104455702e-03
         - 6.1826555000924020e-03
         - 1.9628659611463711e-03
         - -1.8544598526295634e-03
         - 2.5119233262786765e-03
         - 6.7945777953239365e-03
         - -2.3001225742139268e-03
         - 7.4506246877704086e-03
         - -1.2942658385061312e-03
         - -5.0487853898613822e-04
         - 4.0043866655698002e-03
         - -2.5587405487553180e-03
         - -4.8323886354595755e-03
         - 1.3807555034708269e-03
         - -3.5409437028222617e-03
         - 1.8736906990993220e-03
         - 4.7577086563946221e-03
         - -3.6391724270180136e-02
         - -1.8716301947239698e-03
         - 3.8953383556305093e-03
         - -1.2410190398610832e-02
         - -1.1603664276109225e-03
         - 1.1986917423901437e-03
         - -1.1658729928320706e-02
         - -5.2602470662062816e-04
         - -8.0178918754433545e-02
         - 2.0200970949209550e-03
         - -1.2322515218151260e-03
         - -3.1868465501267953e-04
         - 3.9626111921081033e-03
         - 2.8165090448788706e-03
         - -9.9444143975251309e-02
         - 2.1986906212814188e-03
         - -5.6200413673641904e-03
         - -6.3258620351980101e-03
         - -5.3579386825248843e-03
         - -1.7333108075431283e-03
         - 4.2351009491493826e-04
         - -4.3440970408965534e-03
         - -3.0419623316044368e-02
         - 5.3886557691183827e-03
         - 5.6246020216944572e-03
         - -2.2010265125255632e-03
         - -1.2025171702295110e-03
         - -6.5573727297085407e-03
         - -3.4948908925375439e-03
         - 1.9013015672590387e-04
         - -1.6947818675413003e-03
         - -1.8748420995030035e-03
         - 5.0220734817807205e-03
         - -5.5593316671116730e-03
         - 5.7428585883815744e-03
         - -4.4417267303247295e-03
         - 2.1332689241504812e-03
         - -3.8099569766917151e-03
         - 3.1914634553156587e-03
         - 2.7889750952717982e-03
         - 9.2568290967062726e-03
         - 3.7081438903638236e-03
         - 7.1200456163387571e-03
         - 3.1902722778888622e-02
         - -2.3121711619185074e-02
         - -8.6775698226532107e-03
         - 5.7969672761875403e-02
         - -4.3445156805937092e-03
         - -8.2385948657979677e-05
         - 1.3564718403097304e-02
         - 5.1625892547387615e-04
         - 7.3509896571115618e-03
         - 8.4822774729097963e-03
         - 6.0679925805245345e-02
         - 8.1755836349238480e-03
         - 3.5265504655431642e-03
         - 3.5773408811860238e-02
         - -1.0332859337022157e-03
         - -4.0474787662563978e-06
         - -1.6124751115026855e-03
         - -3.5130800191200029e-03
         - -1.4044591014673580e-02
         - 2.6046255088887412e-03
         - -8.9996963552501641e-03
         - 4.7937581986569758e-03
         - 6.3776298565584666e-03
         - 2.6020703422130163e-03
         - -4.0105049948068877e-03
         - -3.2087914161743857e-03
         - -1.5752909870025214e-02
         - -1.1710515583501795e-02
         - 7.0918680375847969e-04
         - 4.0855920916260122e-03
         - -1.4958626829387072e-02
         - 6.9147772163121700e-03
         - -1.4599100493561596e-02
         - -3.6365878314416428e-02
         - -6.6963943246575348e-03
         - 3.3797661247843091e-04
         - -8.6885825370269579e-03
         - -3.7742165673202918e-02
         - -2.1023691860010477e-03
         - -3.7885212289698756e-03
         - -1.3523785457573781e-02
         - -3.3248451948940366e-03
         - 2.1095902719182745e-03
         - -6.8323984878214386e-03
         - 7.2257257499082055e-03
         - -5.7642071788672243e-03
         - -6.0735524637608659e-03
         - -8.9309688962623923e-04
         - -3.3118230548019050e-03
         - 2.9721810801525846e-03
         - -2.9217911492453153e-04
         - 1.3222237416189900e-02
         - -2.1451020501359736e-02
         - 4.6397433774839894e-03
         - -1.6050229691678148e-02
         - 1.6374486984089384e-03
         - 1.2735109469536541e-02
         - -6.1467098125667137e-06
         - 8.2857188945102689e-03
         - -3.3018766461098215e-03
         - -7.4044975303342890e-03
         - 8.5875877031927183e-03
         - -7.3966510763564539e-03
         - 3.9564832983955403e-03
         - -5.0557194764451916e-03
         - -5.5678039735176368e-03
         - -1.0464468435099041e-02
         - 1.0077139259517032e-02
         - -9.1757942100817377e-03
         - 1.4319835371599484e-03
         - 1.0375522234446022e-04
         - -1.6255184353487107e-02
         - 3.8552174620135183e-03
         - 2.4671151419660208e-02
         - 2.8448251779836448e-03
         - 6.5125141581870482e-04
         - -4.8292989211459010e-03
         - -2.0945532559302513e-03
         - -6.5535035741141239e-04
         - -5.4657567106093027e-03
         - -3.5026027846544127e-03
         - -4.2990986023842886e-03
         - 1.4748572768759913e-02
         - 2.6904446488834187e-04
         - 1.2054411390678381e-02
         - -2.8000971236672874e-03
         - -5.3122774554864383e-03
         - 3.1422550619992270e-03
         - 3.9675812666420248e-03
         - 1.0066337860918945e-02
         - 2.6983578273610470e-03
         - -7.5343686512304876e-03
         - 2.2297624033857399e-03
         - -1.7251715627226967e-03
         - 7.1578324492636049e-03
         - 1.5729498516842212e-04
         - -6.5387992014041690e-03
         - -3.3404004734752910e-03
         - -1.5429790938106915e-03
         - -2.8112898757726044e-03
         - 2.6215883141139474e-02
         - -9.6370918863939673e-03
         - -4.1187351240472595e-03
         - 4.5396835141566359e-02
         - 2.6988159012801675e-03
         - -1.6523205883876167e-03
         - 2.1358533272967817e-03
         - -4.2848891481507443e-03
         - -5.2647846821536604e-04
         - -2.7995002273853000e-05
         - -2.7427248792318407e-03
         - 7.4710531424029133e-03
         - -3.7097287582473705e-03
         - 9.1184516429491293e-03
         - -2.5708571045325182e-03
         - -3.1737252311149970e-03
         - -3.8798833829588276e-03
         - -3.5558173430685386e-03
         - -6.7071989132884849e-03
         - 4.7967789962743805e-03
         - -8.6005178426001372e-04
         - 1.7996350888445122e-03
         - 6.8356472976141324e-03
         - 1.8305902850630320e-03
         - -2.4401547686287028e-04
         - 4.2998676703576650e-03
         - -7.6591770892355049e-03
         - -7.2394938128361704e-03
         - -6.0634660147511951e-04
         - 7.1942744218887473e-04
         - -1.0580096071557693e-02
         - 5.7167762812697044e-03
         - 2.6638899923047007e-03
         - -5.2523340612364015e-02
         - -2.1495369761526683e-03
         - 1.6819278059561115e-03
         - -2.4899866669758249e-02
         - -1.0936745751167373e-02
         - 1.6546326576772786e-04
         - 5.4847500718571576e-04
         - -1.1475044076378674e-02
         - 1.5954162183327160e-02
         - 6.3940819160407166e-03
         - -2.2362169181058132e-03
         - 1.0325106945221561e-03
         - -5.8357769850081445e-03
         - -1.9527052252671956e-03
         - 2.7836907690160159e-03
         - -7.2288761492932211e-05
         - -4.8737741283063135e-03
         - 3.3549787266693581e-03
         - 2.6371461131339566e-03
         - -5.4182198393167100e-03
         - 2.3119969558710678e-03
         - -1.1240862803216637e-03
         - 2.0044460858164017e-04
         - -4.2248015230437674e-03
         - -2.7198685818617934e-02
         - 5.9164461746660200e-03
         - 5.3329656793559676e-03
         - -4.1997500534029690e-03
         - 4.2789034904383216e-03
         - -7.4494522754111670e-04
         - 4.0237328407526736e-03
         - -4.2784054110396198e-03
         - -3.3976105531779823e-03
         - -7.7446220934620762e-03
         - -4.7347680246343418e-03
         - -8.3291170063718566e-03
         - -2.3920116143880221e-03
         - -2.0660939802701708e-03
         - -5.9660763740859938e-03
         - -4.6025624110402497e-03
         - 2.0133447452466331e-02
         - 3.9870009791883633e-03
         - -3.7913118852509883e-03
         - -5.7890728451606231e-03
         - -2.6280076188795812e-03
         - 3.1175331414765219e-03
         - 2.6536500032647292e-02
         - 4.6442260687961359e-03
         - -6.2166311309922104e-03
         - -2.5599384505926447e-03
         - -3.9217364002234354e-03
         - -1.4946106918393904e-03
         - 7.4140463176284698e-04
         - -3.1822717717719233e-03
         - -9.0323739109445238e-04
         - 2.2622611714123589e-03
         - 2.6527657042559262e-03
         - 3.5280157551393428e-04
         - -4.3987099670173002e-03
         - 7.0503111598841563e-03
         - -3.6564580054501065e-03
         - 3.6591665821366043e-03
         - 5.1186666877544177e-03
         - 2.5649794057438545e-03
         - -3.9879352551631317e-03
         - -5.0086657897079742e-03
         - 1.6446473047434628e-03
         - -9.1334009862025570e-03
         - -1.0197134448224317e-02
         - -6.4792659668140009e-03
         - -6.3869338855208633e-03
         - 3.7536003464483359e-03
         - -6.8896382832130251e-04
         - 1.3606712098995603e-02
         - -2.3085155262423120e-03
         - -1.3624962192749913e-03
         - 9.8841237031466120e-03
         - 6.9553047622947350e-03
         - 4.8604746026789832e-03
         - 4.4018987507394103e-03
         - 2.0840467532172546e-03
         - 3.0251408819178026e-03
         - -6.0156840792452600e-04
         - 7.8066652987016669e-04
         - 4.7268683159552615e-03
         - -4.5080552933106270e-03
         - 2.4017939909235946e-03
         - -1.2416383497937322e-03
         - -2.4988494294660058e-03
         - 3.7041259318165765e-03
         - 3.8255156167710715e-03
         - 7.9182394466900171e-03
         - -3.9762158106004617e-03
         - 2.7474397056832249e-03
         - -1.0182757217553566e-02
         - -1.3234557867043852e-04
         - 1.6422083612687183e-02
         - -1.2825964749627201e-02
         - 1.0742368615047751e-02
         - -9.9335075603856713e-03
         - -8.8215389403974338e-03
         - -1.2567000154864200e-03
         - -1.8205146288437404e-03
         - -1.4024687385591192e-02
         - -2.3879857609097736e-03
         - 6.1342392468649214e-03
         - -1.4763405758116081e-03
         - -4.6630277297669874e-03
         - 4.7171711877576575e-03
         - -2.6724447060781768e-03
         - 5.4677949292948847e-03
         - 2.7126149894239875e-03
         - 1.0525391395149323e-03
         - -2.6931138254710570e-04
         - -8.4542367729059063e-03
         - -3.7758359200145046e-03
         - -7.4911837048619066e-06
         - 3.6791097239396108e-03
         - 7.4721245125141788e-03
         - -8.0970764020730449e-03
         - -4.4711126213502926e-03
         - -8.7208822465866531e-03
         - 5.9765063293331167e-03
         - 7.7668237692653502e-03
         - 2.1763510623356946e-02
         - 1.3526703607211041e-02
         - -7.9348241020563096e-03
         - 6.6297865564518528e-03
         - -1.0386726147265203e-04
         - -7.7289618047832439e-03
         - 3.9227297309804079e-03
         - -3.0395417834993728e-03
         - 3.8129908012212943e-02
         - -1.7220583477157039e-03
         - 6.8212267906902317e-03
         - 9.6287060828037887e-05
         - -4.8986430135295285e-03
         - 5.9841726667249672e-03
         - 5.2844803784841063e-02
         - 3.0582717616334768e-03
         - 5.7215560131754627e-02
         - 7.2796817693767651e-03
         - 4.3913912895038702e-03
         - -9.5839101556541214e-05
         - -4.2440719422098773e-03
         - -2.8591725511089823e-03
         - 3.7174835260431478e-02
