%YAML:1.0
---
opencv_ml_ann_mlp:
   format: 3
   layer_sizes: [ 324, 100, 2 ]
   activation_function: SIGMOID_SYM
   f_param1: 6.6666666666666663e-01
   f_param2: 1.7159000000000000e+00
   min_val: -9.4999999999999996e-01
   max_val: 9.4999999999999996e-01
   min_val1: -9.7999999999999998e-01
   max_val1: 9.7999999999999998e-01
   training_params:
      train_method: BACKPROP
      dw_scale: 1.0000000000000000e-03
      moment_scale: 0.
      term_criteria:
         epsilon: 1.0000000000000000e-04
         iterations: 300
   input_scale:
      - 1.1856211616792233e+01
      - -1.7759486270954057e+00
      - 1.1601634652918522e+01
      - -1.5767518553813789e+00
      - 1.1762072752007878e+01
      - -1.4567459235245586e+00
      - 1.3004539306165219e+01
      - -1.3554779116374782e+00
      - 1.2958616264942027e+01
      - -1.5817026661486144e+00
      - 1.3088390947936459e+01
      - -1.3594039298483733e+00
      - 1.1800940773920459e+01
      - -1.4545767957141575e+00
      - 1.1270317580724877e+01
      - -1.5501765597515278e+00
      - 1.1575965206107657e+01
      - -1.7482355213144554e+00
      - 1.1585540542487145e+01
      - -1.8181954946155761e+00
      - 1.1217409657769831e+01
      - -1.6946934339023718e+00
      - 1.1242957513842212e+01
      - -1.5660621473687653e+00
      - 1.2239519647809717e+01
      - -1.4500768825579045e+00
      - 1.2306652886558759e+01
      - -1.6874451967663664e+00
      - 1.2176481566883719e+01
      - -1.4359323551590724e+00
      - 1.1372317658316293e+01
      - -1.5573213939418726e+00
      - 1.1178175229543927e+01
      - -1.6879367629372859e+00
      - 1.1346258432697933e+01
      - -1.7919301441618574e+00
      - 1.1589785806161048e+01
      - -1.9102324994417001e+00
      - 1.0930313481380129e+01
      - -1.6703953504977935e+00
      - 1.1101331517732053e+01
      - -1.5612722243600861e+00
      - 1.2335789201293084e+01
      - -1.4608048202855501e+00
      - 1.2170328133289271e+01
      - -1.5125606448295699e+00
      - 1.2467554901005858e+01
      - -1.4625713251182424e+00
      - 1.1373924638318080e+01
      - -1.5711594077383468e+00
      - 1.1102871652216518e+01
      - -1.6956164683273418e+00
      - 1.1561721459105282e+01
      - -1.9105163565383625e+00
      - 1.1406628715729575e+01
      - -1.9470611395400164e+00
      - 1.0932924624093499e+01
      - -1.8039044416570662e+00
      - 1.0986747130463032e+01
      - -1.6933088574734267e+00
      - 1.1751575194822260e+01
      - -1.5713700098080534e+00
      - 1.1714428848564857e+01
      - -1.6375985107381861e+00
      - 1.1920608518760712e+01
      - -1.5922830161773145e+00
      - 1.1092371725593617e+01
      - -1.7163198990711577e+00
      - 1.0947544044202157e+01
      - -1.8477642545649569e+00
      - 1.1172559142959301e+01
      - -1.9411393904174128e+00
      - 1.1891455207799181e+01
      - -1.6943107633046772e+00
      - 1.1621596585774869e+01
      - -1.5768538266520773e+00
      - 1.1878044671661153e+01
      - -1.4796028884940760e+00
      - 1.2881024294334685e+01
      - -1.3747243880400359e+00
      - 1.2807611891616759e+01
      - -1.6046411923557669e+00
      - 1.2931739869953191e+01
      - -1.3807543495687669e+00
      - 1.1689100924070239e+01
      - -1.4714238693538477e+00
      - 1.1202365213741196e+01
      - -1.5675012627904017e+00
      - 1.1484755080057703e+01
      - -1.6665857880198605e+00
      - 1.1645494143996524e+01
      - -1.8145993148947377e+00
      - 1.1305901186126080e+01
      - -1.6789834467227622e+00
      - 1.1411390379158439e+01
      - -1.5669819730252819e+00
      - 1.2195556408528404e+01
      - -1.4450122149435660e+00
      - 1.2254676358901740e+01
      - -1.6933707750127287e+00
      - 1.2353392510292281e+01
      - -1.4605144035778481e+00
      - 1.1529966938031995e+01
      - -1.5904346578098527e+00
      - 1.1043974820177253e+01
      - -1.6819846544254831e+00
      - 1.1360941515789932e+01
      - -1.7971100755766078e+00
      - 1.1294243556723078e+01
      - -1.7795191949205438e+00
      - 1.0994771367719054e+01
      - -1.6794067618876576e+00
      - 1.1193217819402358e+01
      - -1.5886149154120510e+00
      - 1.2196500225667016e+01
      - -1.4949998541762834e+00
      - 1.2082541646008732e+01
      - -1.5601541446692286e+00
      - 1.2245070764857131e+01
      - -1.4964220765493021e+00
      - 1.1392476605034719e+01
      - -1.6052371850182947e+00
      - 1.1111449872039920e+01
      - -1.7139670680324539e+00
      - 1.1238255146188511e+01
      - -1.7868259742218544e+00
      - 1.1350014810424756e+01
      - -1.9339208789133202e+00
      - 1.0957683740704017e+01
      - -1.7958135941010134e+00
      - 1.1188817857067283e+01
      - -1.7062887521646122e+00
      - 1.1561979916316650e+01
      - -1.5565337351861430e+00
      - 1.1779309509597383e+01
      - -1.6648817201405066e+00
      - 1.1914940535335676e+01
      - -1.6070451273634234e+00
      - 1.1110268360038255e+01
      - -1.7230875173721865e+00
      - 1.0957067369128938e+01
      - -1.8435247971945135e+00
      - 1.1236860202001392e+01
      - -1.9409897793994040e+00
      - 1.1904123158830918e+01
      - -1.6899437372123405e+00
      - 1.1610332854025057e+01
      - -1.5568298441469641e+00
      - 1.1898286295090969e+01
      - -1.4705953631462869e+00
      - 1.2800340253638886e+01
      - -1.3679390126547282e+00
      - 1.2616225642655852e+01
      - -1.6033417859860029e+00
      - 1.3063390238004231e+01
      - -1.4096931596591828e+00
      - 1.1702178734924725e+01
      - -1.5002649111970991e+00
      - 1.1023623945255810e+01
      - -1.5764235851044877e+00
      - 1.1422936065909537e+01
      - -1.6787915777265279e+00
      - 1.1952160194574725e+01
      - -1.9231799999384882e+00
      - 1.1241034848328386e+01
      - -1.6097378074113988e+00
      - 1.1432591289154956e+01
      - -1.5150861973771668e+00
      - 1.2097376637479938e+01
      - -1.4054175390889807e+00
      - 1.2128256463950381e+01
      - -1.6747473024130550e+00
      - 1.2404682089472654e+01
      - -1.4588100786447289e+00
      - 1.1628769785741808e+01
      - -1.5827362016843192e+00
      - 1.1002400292166863e+01
      - -1.6561996080513375e+00
      - 1.1585096264274018e+01
      - -1.9138335904667287e+00
      - 1.1424076317186566e+01
      - -1.7988147079384376e+00
      - 1.0984299052392490e+01
      - -1.6741424460066119e+00
      - 1.1309881642096753e+01
      - -1.6054942504580547e+00
      - 1.2142569306497395e+01
      - -1.4976084109379197e+00
      - 1.2103710261687770e+01
      - -1.5769355467718160e+00
      - 1.2345883786893953e+01
      - -1.5160021295127133e+00
      - 1.1371072794382776e+01
      - -1.6092359695717240e+00
      - 1.0993184842883181e+01
      - -1.6973419916330115e+00
      - 1.1238379182176020e+01
      - -1.7899889723618234e+00
      - 1.1819852530243255e+01
      - -2.0640993516796513e+00
      - 1.1004851107989518e+01
      - -1.7395799242211665e+00
      - 1.1223155301241778e+01
      - -1.6684796051297737e+00
      - 1.1702096465943367e+01
      - -1.5429834385730647e+00
      - 1.1709268698195240e+01
      - -1.6456867444224181e+00
      - 1.1963081692458896e+01
      - -1.5985255561330194e+00
      - 1.1154166789142440e+01
      - -1.7183810718865586e+00
      - 1.0826891686344336e+01
      - -1.8064552419587090e+00
      - 1.1463590185730034e+01
      - -2.0745570799629860e+00
      - 1.2218992178453371e+01
      - -1.7931149091572416e+00
      - 1.1443356001358577e+01
      - -1.5644099776836247e+00
      - 1.1742562173063636e+01
      - -1.4904116516939929e+00
      - 1.2934665656977078e+01
      - -1.3925496902413412e+00
      - 1.2874565291360366e+01
      - -1.4601354022788535e+00
      - 1.3152037892518496e+01
      - -1.4177899323822425e+00
      - 1.1629381098594250e+01
      - -1.4827755961092588e+00
      - 1.1143595742339572e+01
      - -1.5767004236455733e+00
      - 1.1945301126952780e+01
      - -1.7830296589901875e+00
      - 1.1725290231849737e+01
      - -1.8200277078485814e+00
      - 1.1163730387427407e+01
      - -1.6962149672453626e+00
      - 1.1282849279911188e+01
      - -1.6024822596576671e+00
      - 1.2156962532537284e+01
      - -1.4929253283532342e+00
      - 1.2189422336761153e+01
      - -1.5703367902616079e+00
      - 1.2394100860704114e+01
      - -1.5177788132391858e+00
      - 1.1312141831948447e+01
      - -1.6086847522249463e+00
      - 1.1014412521044409e+01
      - -1.7046647094932263e+00
      - 1.1469134329678269e+01
      - -1.7973598951190739e+00
      - 1.1973571383170741e+01
      - -1.9108194016570328e+00
      - 1.1028244146341613e+01
      - -1.6455154363332722e+00
      - 1.1296711264308534e+01
      - -1.5796970761556637e+00
      - 1.2294869653716313e+01
      - -1.4855523735723950e+00
      - 1.2380123063649869e+01
      - -1.5654846097606250e+00
      - 1.2499029019238556e+01
      - -1.5125442351391547e+00
      - 1.1474181566351653e+01
      - -1.6194157644284153e+00
      - 1.1066339808485505e+01
      - -1.7015603405156943e+00
      - 1.1703528645846500e+01
      - -1.8922097377308080e+00
      - 1.1619657454012154e+01
      - -1.9423789336482524e+00
      - 1.1059902677520180e+01
      - -1.8012656916344303e+00
      - 1.1162606364069640e+01
      - -1.7075616157980991e+00
      - 1.1760400404146333e+01
      - -1.6016545649480154e+00
      - 1.1892652874032745e+01
      - -1.6864762946964322e+00
      - 1.1981822507964694e+01
      - -1.6331088762232298e+00
      - 1.1102104435794200e+01
      - -1.7489976002381207e+00
      - 1.0984414722356478e+01
      - -1.8665885350072606e+00
      - 1.1396487961790761e+01
      - -1.9498069120328101e+00
      - 1.1905420324958866e+01
      - -1.6687485169336052e+00
      - 1.1521954051548784e+01
      - -1.5732353499440961e+00
      - 1.1631138349979269e+01
      - -1.4796400471089806e+00
      - 1.2613122197319255e+01
      - -1.4001618509610081e+00
      - 1.2687818042777758e+01
      - -1.4926185405042771e+00
      - 1.2916295775698494e+01
      - -1.4340912175128666e+00
      - 1.1621320540838990e+01
      - -1.5180172036327992e+00
      - 1.1107524627319217e+01
      - -1.5940596077238689e+00
      - 1.1652172371732584e+01
      - -1.6741435015330624e+00
      - 1.1595257885623154e+01
      - -1.7805361066962082e+00
      - 1.1122579140363019e+01
      - -1.6714948819523348e+00
      - 1.1320535636009009e+01
      - -1.5916466887270473e+00
      - 1.1972462059779113e+01
      - -1.4793336031944275e+00
      - 1.2035700457537903e+01
      - -1.5744851229648646e+00
      - 1.2347007912898313e+01
      - -1.5136219019129322e+00
      - 1.1394690834630985e+01
      - -1.6047929365670084e+00
      - 1.1051315653030658e+01
      - -1.6893139705367672e+00
      - 1.1394681973846707e+01
      - -1.7754366967148214e+00
      - 1.1644865470397225e+01
      - -1.7818070366135268e+00
      - 1.1039560580118582e+01
      - -1.6630098514393274e+00
      - 1.1245484306451685e+01
      - -1.5909621217658929e+00
      - 1.2060001504275618e+01
      - -1.5036853213410779e+00
      - 1.2224594543899117e+01
      - -1.5918253537927782e+00
      - 1.2321762904385496e+01
      - -1.5204149570555427e+00
      - 1.1352714651752107e+01
      - -1.6146886533330109e+00
      - 1.1116505902118108e+01
      - -1.7070370726218753e+00
      - 1.1433275582690538e+01
      - -1.7790634090157589e+00
      - 1.1486809112372715e+01
      - -1.9061793533395364e+00
      - 1.1025392984056833e+01
      - -1.7742628349395531e+00
      - 1.1044426072480970e+01
      - -1.6880064965688577e+00
      - 1.1529492126870952e+01
      - -1.5850992598726714e+00
      - 1.1797223426678579e+01
      - -1.6889993947615245e+00
      - 1.1749713166907275e+01
      - -1.6028409483938277e+00
      - 1.1025665525749679e+01
      - -1.7096318437287250e+00
      - 1.0881538211637936e+01
      - -1.8140482579638963e+00
      - 1.1272323651414107e+01
      - -1.8976802955778787e+00
      - 1.2016691546284815e+01
      - -1.6789617676996522e+00
      - 1.1595086457996171e+01
      - -1.5784665713683921e+00
      - 1.1700391588755085e+01
      - -1.5071393228127239e+00
      - 1.2446988998173190e+01
      - -1.4108429319633460e+00
      - 1.2564749164207296e+01
      - -1.5076199933802588e+00
      - 1.2960204297510492e+01
      - -1.4520624658467867e+00
      - 1.1694107427816364e+01
      - -1.5290955503491306e+00
      - 1.1098765727254355e+01
      - -1.5834662183844621e+00
      - 1.1585246100907883e+01
      - -1.6636708031358682e+00
      - 1.2091561663891039e+01
      - -1.9101327506479528e+00
      - 1.1310523706577973e+01
      - -1.6391973681856999e+00
      - 1.1311970970477608e+01
      - -1.5709247554964016e+00
      - 1.1980211925431389e+01
      - -1.4693069998715698e+00
      - 1.2031931268720522e+01
      - -1.5604764743175588e+00
      - 1.2442441932140559e+01
      - -1.5117800830935173e+00
      - 1.1612507630278857e+01
      - -1.6304173716057349e+00
      - 1.1116584940473265e+01
      - -1.6871667197072862e+00
      - 1.1749318983355460e+01
      - -1.9046510079876071e+00
      - 1.1573150270531134e+01
      - -1.7779580089492690e+00
      - 1.1115953797099897e+01
      - -1.6733762351123920e+00
      - 1.1233857471842875e+01
      - -1.6062746689175300e+00
      - 1.2116056985178234e+01
      - -1.5243359761349735e+00
      - 1.2160355458500950e+01
      - -1.6118025037640586e+00
      - 1.2241371644113554e+01
      - -1.5340198515472478e+00
      - 1.1331988452380372e+01
      - -1.6204895412435278e+00
      - 1.1034303588341830e+01
      - -1.6916803130666327e+00
      - 1.1396936547385197e+01
      - -1.7673941885394915e+00
      - 1.1921286437176272e+01
      - -2.0326433010075102e+00
      - 1.1092445791258225e+01
      - -1.7396764468771448e+00
      - 1.1110281562036144e+01
      - -1.6763969051858818e+00
      - 1.1624242622938382e+01
      - -1.5774259463918006e+00
      - 1.1823631145779126e+01
      - -1.6905764767617939e+00
      - 1.1908715765270037e+01
      - -1.6174099228574430e+00
      - 1.1083114577345743e+01
      - -1.7150067786152723e+00
      - 1.0885819880342465e+01
      - -1.7857570165077663e+00
      - 1.1690502703335904e+01
      - -2.0388325514910108e+00
      - 1.2370214826045595e+01
      - -1.7894067674188281e+00
      - 1.1716421976371635e+01
      - -1.5615358541864863e+00
      - 1.1892748268210351e+01
      - -1.4983738944008287e+00
      - 1.2851216488454241e+01
      - -1.4165235879792952e+00
      - 1.3003132122781972e+01
      - -1.5156891190911259e+00
      - 1.3275391583995514e+01
      - -1.4710580746502642e+00
      - 1.1832521874979637e+01
      - -1.5623888268524901e+00
      - 1.1211302872144699e+01
      - -1.6289955613891858e+00
      - 1.1929250017292855e+01
      - -1.7941293485136711e+00
      - 1.1814137656384572e+01
      - -1.8220196181147887e+00
      - 1.1362226973179279e+01
      - -1.7087525086158182e+00
      - 1.1493423081882456e+01
      - -1.6314026915557376e+00
      - 1.2209464261066461e+01
      - -1.5326566251385236e+00
      - 1.2140691795245905e+01
      - -1.6010350501509545e+00
      - 1.2522909539924060e+01
      - -1.5608373122180239e+00
      - 1.1424131497386924e+01
      - -1.6562468453637273e+00
      - 1.1119438267122018e+01
      - -1.7464254807391006e+00
      - 1.1630462242590690e+01
      - -1.8370003155205310e+00
      - 1.2215995082735972e+01
      - -1.9081210706599039e+00
      - 1.1300080001951441e+01
      - -1.6185964625727300e+00
      - 1.1544558088025466e+01
      - -1.5541177885738160e+00
      - 1.2339122765583454e+01
      - -1.4636534577472784e+00
      - 1.2775013453546153e+01
      - -1.8521477468912593e+00
      - 1.2696284835328047e+01
      - -1.5162551357193137e+00
      - 1.1590052633365968e+01
      - -1.6359906524708330e+00
      - 1.1123437640145713e+01
      - -1.7243351953682162e+00
      - 1.1812056912491963e+01
      - -1.9201963540634799e+00
      - 1.1792886982814492e+01
      - -1.9405594467885634e+00
      - 1.1270341219221908e+01
      - -1.7790775798712302e+00
      - 1.1317052909807211e+01
      - -1.6822854261189439e+00
      - 1.1790443709129027e+01
      - -1.5675747459108427e+00
      - 1.2417890548581230e+01
      - -2.0017168719980520e+00
      - 1.2043872548619966e+01
      - -1.6178369961543375e+00
      - 1.1333828980486688e+01
      - -1.7650899473075234e+00
      - 1.0968298987326119e+01
      - -1.8562814324307253e+00
      - 1.1465388953676699e+01
      - -1.9621672537606292e+00
      - 1.1938597723965927e+01
      - -1.6717357428027322e+00
      - 1.1596134135210898e+01
      - -1.5778796810306615e+00
      - 1.1813945429105912e+01
      - -1.5162708071338953e+00
      - 1.2563653332373372e+01
      - -1.4314737838220315e+00
      - 1.2623364677877801e+01
      - -1.5160481088613686e+00
      - 1.3016156763046126e+01
      - -1.4624490256732035e+00
      - 1.1740743956251453e+01
      - -1.5445534871074222e+00
      - 1.1203881889832282e+01
      - -1.6037621916798110e+00
      - 1.1740855087724842e+01
      - -1.6811493883829813e+00
      - 1.1661492122346155e+01
      - -1.7909319956268306e+00
      - 1.1189859651055544e+01
      - -1.6906934043762549e+00
      - 1.1299240050779408e+01
      - -1.6184796123509375e+00
      - 1.1985094526287162e+01
      - -1.5178302414715283e+00
      - 1.1959058670018438e+01
      - -1.5985830389817512e+00
      - 1.2175866639490119e+01
      - -1.5262440347364528e+00
      - 1.1338198325665692e+01
      - -1.6134818803432300e+00
      - 1.1100576571337362e+01
      - -1.7016519127619241e+00
      - 1.1475958848073660e+01
      - -1.7713373235227285e+00
      - 1.1764707993845338e+01
      - -1.7775558112429257e+00
      - 1.1196420926223029e+01
      - -1.6459426671305577e+00
      - 1.1418169650606655e+01
      - -1.5722914872170146e+00
      - 1.2220441389317539e+01
      - -1.4892650306296660e+00
      - 1.2583636582814792e+01
      - -1.8669800275237782e+00
      - 1.2559963264118297e+01
      - -1.5117120686044734e+00
      - 1.1611097638940686e+01
      - -1.6252237058684069e+00
      - 1.1194958711128978e+01
      - -1.7014908105640514e+00
      - 1.1493260423057137e+01
      - -1.7745672034924507e+00
      - 1.1692380749425618e+01
      - -1.8960414939852406e+00
      - 1.1263881011512780e+01
      - -1.7769879346726349e+00
      - 1.1153445588113250e+01
      - -1.6801063360623045e+00
      - 1.1623601693722678e+01
      - -1.5741582935147742e+00
      - 1.2370552688581494e+01
      - -2.0118807376623873e+00
      - 1.1906015252791507e+01
      - -1.5986794375791951e+00
      - 1.1061743384942947e+01
      - -1.7010853537154611e+00
      - 1.0868880749471419e+01
      - -1.7947538690293248e+00
      - 1.1362168389374336e+01
      - -1.8866839266696642e+00
      - 1.1899307238579302e+01
      - -1.6572256733771729e+00
      - 1.1509507387301600e+01
      - -1.5779582768000815e+00
      - 1.1718280230506078e+01
      - -1.5288394548314745e+00
      - 1.2557240719935004e+01
      - -1.4414909589343081e+00
      - 1.2552150227929600e+01
      - -1.5337227239159108e+00
      - 1.2772496605272456e+01
      - -1.4703641644241208e+00
      - 1.1647811223670894e+01
      - -1.5383879946862606e+00
      - 1.1266767231807387e+01
      - -1.6041092737469898e+00
      - 1.1715538704712309e+01
      - -1.6615342281511445e+00
      - 1.1913262403704541e+01
      - -1.8817196401494714e+00
      - 1.1272100685115500e+01
      - -1.6490346227363608e+00
      - 1.1286968844028214e+01
      - -1.5952431847188469e+00
      - 1.1948865053599388e+01
      - -1.5039545833845811e+00
      - 1.2078122753898867e+01
      - -1.5993736827925222e+00
      - 1.2320294637520776e+01
      - -1.5302666198882269e+00
      - 1.1481081513574999e+01
      - -1.6134355837561098e+00
      - 1.1269488458917660e+01
      - -1.6759257794843163e+00
      - 1.1862087326129609e+01
      - -1.8795547835217741e+00
      - 1.1842742347227841e+01
      - -1.7618182887797824e+00
      - 1.1229821312822178e+01
      - -1.6571021101783920e+00
      - 1.1193028121690617e+01
      - -1.5870936495042691e+00
      - 1.1924311945326240e+01
      - -1.4955183336866094e+00
      - 1.2426248108701664e+01
      - -1.8772164847672550e+00
      - 1.2263246062602533e+01
      - -1.5161145868398900e+00
      - 1.1363641941641205e+01
      - -1.6007813226827976e+00
      - 1.1069441001009087e+01
      - -1.6699856338080654e+00
      - 1.1450108198745637e+01
      - -1.7404470753226740e+00
      - 1.2005910767312619e+01
      - -2.0080314639286767e+00
      - 1.1308312319383294e+01
      - -1.7445982903059274e+00
      - 1.1196728723449501e+01
      - -1.6723864733100817e+00
      - 1.1568238646827174e+01
      - -1.5630020308879267e+00
      - 1.2295136127026678e+01
      - -1.9864960317076390e+00
      - 1.1852510492923459e+01
      - -1.5801761808094961e+00
      - 1.1157534815394964e+01
      - -1.6774760567215581e+00
      - 1.0940678388710824e+01
      - -1.7494563242407877e+00
      - 1.1672829742405177e+01
      - -2.0017137034620185e+00
   output_scale:
      - 5.2631578947368418e-01
      - 4.9999999999999994e-01
      - 5.2631578947368418e-01
      - 4.9999999999999994e-01
   inv_output_scale:
      - 1.8999999999999999e+00
      - -9.4999999999999996e-01
      - 1.8999999999999999e+00
      - -9.4999999999999996e-01
   weights:
      -
         - 1.1679626416422678e-03
         - -2.1745637145152938e-01
         - -1.8308181611016996e-01
         - -4.8170538407750858e-03
         - -1.0960961956154509e-01
         - -2.9963728214773776e-03
         - -2.9626251253893547e-03
         - 8.2276999907727258e-02
         - -2.8515039165866580e-02
         - 8.8662266228440121e-03
         - 1.7917536093917018e-02
         - 1.9985242824050103e-02
         - 5.4815809818688339e-02
         - 6.4594880941700895e-03
         - 1.4246555886071341e-01
         - -3.9218326589004638e-03
         - 7.4676339771852706e-03
         - 7.1240553195177619e-03
         - 9.0920694064109391e-03
         - -1.1008898515745944e-02
         - 7.2746480575702896e-03
         - -1.1095473817472551e-02
         - 4.1224708945621817e-03
         - 9.1442293614124280e-03
         - -6.8889556666747219e-03
         - 3.5271761587340341e-03
         - -1.4676939056951981e-02
         - 1.0533743612407584e-01
         - -5.7027263540331977e-03
         - -2.8780733383894615e-03
         - -2.8130927083869128e-01
         - 4.0646817204092849e-02
         - 7.1191911442392312e-03
         - 6.4045923909551309e-03
         - 3.1176411431023771e-01
         - -1.1730862770001384e-02
         - 2.9209975389057931e-03
         - 1.1749008868223457e-01
         - 3.3118837644946841e-01
         - 2.7329655714662822e-03
         - 3.1598664715356073e-03
         - 1.9683877911452766e-02
         - 1.3158207739804062e-01
         - -1.4866479334841157e-01
         - -2.0010148503526630e-03
         - 3.3743663799179315e-03
         - -1.7568370276947954e-02
         - 2.0357485625187251e-02
         - -6.6526429589847634e-03
         - -2.6662670101253883e-03
         - 9.6384695056852682e-03
         - -4.5416779379186456e-03
         - 1.3650726475266597e-01
         - -5.6569149171884735e-02
         - -8.3133586405155658e-03
         - 1.2326950326559320e-01
         - 9.8992558310063341e-03
         - 1.2962101100213279e-02
         - -3.7432459881736785e-01
         - -2.0176144583346094e-02
         - -1.0199321934221683e-02
         - 1.1714941480333271e-01
         - 1.0179406050888507e-02
         - -1.0017109927638703e-02
         - -7.1202842532771510e-02
         - -1.7089283645115774e-02
         - -7.3809730305690976e-02
         - 3.6481487022876950e-02
         - 1.6445314378603942e-02
         - -2.5025838455798345e-02
         - -6.6222844622859343e-03
         - -6.0955198110255650e-03
         - -2.3917317119271381e-01
         - 1.3236977175530291e-03
         - -2.4482231272270608e-01
         - 1.2815494389197957e-02
         - -3.6417441360394624e-03
         - 5.0895378945814132e-03
         - -6.1353810062175461e-03
         - 7.0551020419727358e-04
         - -1.6153737992273798e-01
         - -1.2011873940907076e-03
         - -1.1339689823747646e-03
         - -3.2200550734025397e-02
         - 7.0763568074691547e-03
         - 2.3931756122883882e-02
         - 5.6737250138871789e-04
         - -1.6075396701084210e-01
         - 1.2876965984008865e-02
         - -7.3488997858870439e-04
         - 8.8672053003792349e-03
         - 1.7345677649411719e-02
         - -2.3137366430347182e-03
         - -6.2745606594329711e-03
         - -8.3695813285323360e-03
         - 1.5088055503866295e-02
         - 1.1046360081128578e-02
         - -2.1177283996200235e-02
         - -1.2348902816116921e-02
         - -2.4289245289625051e-03
         - -6.7878015513355057e-04
         - 2.3557377120603862e-01
         - 1.2165427354333834e-02
         - -1.3826582066731416e-03
         - 1.2967650722654277e-02
         - 6.2384797345633354e-03
         - 2.8064811069771953e-03
         - 6.0452994622292880e-02
         - -6.0482688030819706e-03
         - -4.1241402934152635e-03
         - 1.3899649167302814e-03
         - 9.8875463581735379e-02
         - 7.0956419158210007e-02
         - -1.7507865589583220e-03
         - 4.4671824798630255e-01
         - 5.9863153375719585e-04
         - 5.5604020570887676e-03
         - -2.9047813057097890e-03
         - -1.8558121052334776e-03
         - -2.4983334418106698e-03
         - -2.3654957512841729e-03
         - 4.0014926235883031e-03
         - -2.7905366687368182e-03
         - 1.1204605165722234e-04
         - -9.8694808404296798e-04
         - -7.1048313528427704e-03
         - 4.3538145305366937e-03
         - 1.6554243553262618e-01
         - 1.1654644550503021e-03
         - -4.8599287691545269e-03
         - 9.8054223922444422e-02
         - 2.5080997511618883e-02
         - -4.1644685936719737e-03
         - 2.6630256780330746e-02
         - 6.9311394593689638e-02
         - 2.5881534122001279e-03
         - 2.9285757595773855e-03
         - 1.2092954358824162e-01
         - -2.7203655973726787e-02
         - 5.6157778812064650e-04
         - 7.9598819341585394e-04
         - -2.7063298425143933e-01
         - 2.3966784945664846e-01
         - -1.1241984226998226e-01
         - 1.6680029037992455e-03
         - -8.6107307140746731e-03
         - 2.7811508195219846e-03
         - 1.6162875520458232e-02
         - 6.4451226318406746e-03
         - 3.5453950170578367e-03
         - -3.5828236692681242e-03
         - -3.0058542062136435e-03
         - 8.1735748593527904e-02
         - -2.4275455221456491e-01
         - -1.8472137779864620e-03
         - 9.5166387069719943e-02
         - -4.3991455442275347e-03
         - -6.8226166731785208e-03
         - 2.5953068191666116e-02
         - -8.5572579730766790e-02
         - -2.6587829199012879e-04
         - -1.4885599317547496e-01
         - -7.3325882263647604e-03
         - 5.4057494137495212e-03
         - -8.0904089453723724e-02
         - 1.1283210831335877e-03
         - -2.1681035840329349e-01
         - -1.0684793442614639e-01
         - 2.0248934765582558e-03
         - -1.9176262339091480e-02
         - 6.7781697080834796e-03
         - -2.1995651173788962e-03
         - -4.4199955184805234e-01
         - 4.0126336944339355e-03
         - -3.1881782494996527e-02
         - 2.3010491569594037e-03
         - 3.8378957852587179e-03
         - -4.4621560406826796e-03
         - -3.5183042804521770e-03
         - 5.6046985717576742e-03
         - -2.8771941558550229e-01
         - -1.5477839163794943e-03
         - 1.0898597093835631e-02
         - -1.2247779431471495e-01
         - -1.0600156333778305e-03
         - -4.9508682408532078e-03
         - -7.9493945852542329e-04
         - 2.5674433838135285e-01
         - 4.7439526636184164e-03
         - -4.8469732115742703e-03
         - -6.8135544944022469e-03
         - 1.7340929546874405e-02
         - 1.3687722575087621e-02
         - 1.4006206621392524e-02
         - 3.8611381548253102e-03
         - -7.0914555883173636e-03
         - 2.2420438738088438e-03
         - 1.1928771334454396e-02
         - -6.4300985120502195e-03
         - 2.0287997351011700e-03
         - -2.0415177671599779e-02
         - -5.0285514171531792e-02
         - 3.6123859282365250e-02
         - 1.8873031013138645e-02
         - 2.8124643571503843e-01
         - 1.5675513602252954e-02
         - -1.3080387294850410e-02
         - -4.0489276526279878e-02
         - 2.0891115786315823e-02
         - -1.3321053001439204e-02
         - -3.7180350826085867e-02
         - 1.7828085730079488e-01
         - 2.1890365163197158e-03
         - -3.6744723635109876e-03
         - -3.9890014964499199e-01
         - 8.2991396370167680e-03
         - -6.0041712828099890e-03
         - -8.8177332667560716e-03
         - -1.2489428535961510e-02
         - 2.3749472295614821e-02
         - -1.0802453428748381e-02
         - 1.8029091419594290e-02
         - 3.8661797158264354e-03
         - -1.5503621850940863e-02
         - 3.0429736714175804e-03
         - -1.1935037900543802e-02
         - 2.8274644837728093e-02
         - -1.4883495161695023e-01
         - 1.8935486662483146e-02
         - -7.2144723749172799e-03
         - 3.3096253137366534e-02
         - 3.7778324558377853e-02
         - -2.3978393206298874e-02
         - 8.9789978128033590e-02
         - -8.6608604404019462e-02
         - 1.0495197592500746e-02
         - 3.8933669747464612e-03
         - -1.7905293307918488e-01
         - 2.0100174874643842e-01
         - -4.8837482817260956e-04
         - 3.1698823612197652e-03
         - -4.2824712687747270e-02
         - 4.4877857900468589e-02
         - -1.0777016264110855e-02
         - 3.6268978556740572e-03
         - -1.3347707853665746e-02
         - 2.8313280227186276e-02
         - 3.7846757248595084e-02
         - 2.3282794109648480e-02
         - 2.5385499216871808e-03
         - -1.8452052995014290e-02
         - 1.0207564562295900e-02
         - 5.5572579598416001e-02
         - 1.0402847022801362e-01
         - 9.5998503042472871e-03
         - 1.0983515191471208e-01
         - -4.2367248425103102e-02
         - -2.8640504043281109e-02
         - 5.5144089277028685e-01
         - -5.4520850792626294e-02
         - 1.8943573702131535e-02
         - 3.8547920626799254e-01
         - -1.0272888797053965e-02
         - 1.5139898774472305e-02
         - -5.5555055137427513e-02
         - 2.5439389369891104e-02
         - -2.6941121657040557e-01
         - -3.3676098195077622e-02
         - -3.8384765292534678e-02
         - 1.5979390628669439e-02
         - 1.0003733524353896e-02
         - -1.0587447520158819e-02
         - 1.9321333975689614e-01
         - 1.0062238205848761e-02
         - 1.0275781454037131e-01
         - -2.6517787022502140e-02
         - 5.6477399683235391e-03
         - 3.6365229852283422e-03
         - 1.8377412644995084e-02
         - 4.0935104071124754e-04
         - -1.6685232533253461e-01
         - 4.6481133272158713e-03
         - 2.8380473557620405e-02
         - -9.0472883380769892e-02
         - -1.4745912672777974e-02
         - -9.0370983720503659e-02
         - -8.4435082832999934e-03
         - -1.6177202019035464e-01
         - -3.5253490856265113e-02
         - -9.0884408300799732e-03
         - -4.7368742314926333e-02
         - -2.6368741945972142e-02
         - 3.0474615086053064e-02
         - -1.6160285101766838e-02
         - 1.9797877435613346e-02
         - -2.7994268553004929e-02
         - -2.5687276390337514e-02
         - 7.5424981425724166e-02
         - 2.3379877388487548e-02
         - 5.4205973156799137e-03
         - 5.3043290144450259e-03
         - -3.7067475285690688e-01
         - -3.5023126457324349e-01
         - -6.0168868007503470e-03
         - 2.8714453309368972e-02
         - -7.7295900190943283e-03
         - 8.8807839821410280e-03
         - 3.9225684630631950e-03
         - -1.7570467906222006e-02
         - 1.0026980121670295e-02
         - 9.1203293804732848e-03
         - -1.6882809185665894e-02
         - 4.3441931736242528e-02
         - -1.6731303891018644e-02
         - 1.3447628637446005e-01
         - -1.0443352686203267e-02
         - 8.8408273180705984e-03
         - -3.9672787318282216e-03
         - 7.6863443576083088e-03
         - -8.4482549157977784e-03
         - 2.6209966235353997e-04
         - -1.2168603343880221e-02
         - -7.3507755553378074e-03
         - 1.0525993327558861e-02
         - -7.1810517113174432e-04
         - 2.4195008146499046e-03
         - -1.9796988206117330e-02
         - 3.4341078981212436e-01
         - -7.0115676735400621e-03
         - 1.8736663231627864e-03
         - 2.1445044643279149e-01
         - -2.1731611678345616e-01
         - 1.1532103103911289e-02
         - 2.1109253507294937e-02
         - 1.4470676049647746e-01
         - -1.4224141554249311e-02
         - 1.1441951645404988e-03
         - -1.4463190846596335e-01
         - 2.1102949103510349e-01
         - -2.6621782915814446e-03
         - -4.1228843063032651e-03
         - -1.4627237969821527e-01
         - 3.3778830207142246e-01
         - -4.8750752729198502e-02
         - -7.3610674244880088e-03
         - 1.4679131761127166e-02
         - -1.9328984385556715e-02
         - -1.2016518227116942e-02
         - -1.3656210983163055e-02
         - -8.2910906107000765e-03
         - 4.7594847130987923e-03
         - 1.3424476978768066e-03
         - 2.2708708299984649e-02
         - 5.3608634897369369e-02
         - -8.4065509527863642e-03
         - -8.2948256604714360e-02
         - 4.1502322956926191e-03
         - 9.3346070498836198e-03
         - -3.3377341783618819e-01
         - 5.5236891572651672e-02
         - -1.6264245518661149e-02
         - -6.6709841640313988e-02
         - 1.3145469907422967e-02
         - -1.4680951560283470e-02
         - -1.2936056459407547e-01
         - -9.2821041709401260e-03
         - -9.2743802475676831e-02
         - -1.3601594529851285e-01
         - 1.3810677342636850e-02
         - -2.0321018575314292e-02
         - -9.7750654032210168e-03
         - 6.2741515255678240e-03
         - 1.0977895142907036e-01
         - -4.4435895550034481e-03
         - 2.0885395201088755e-01
         - 6.0428372449909196e-03
         - 5.3378652122614435e-04
         - 1.8392974729372167e-03
         - -1.8892615383517462e-02
         - -3.9476002155167337e-03
         - -1.1996512900270826e-03
         - 1.2560966359542881e-03
         - -1.5329326997209302e-02
         - 2.9405227750920915e-02
         - 5.5139826149485077e-03
         - -2.7020694328133216e-02
         - 5.7227117319289152e-03
         - -2.2059036894737324e-01
         - 2.7810014887385805e-02
         - 6.2884290122646883e-03
         - -7.2618716934310153e-03
         - 2.4447448457712868e-02
         - -3.1975574601906857e-02
         - 1.2058170185831529e-02
         - -1.0715445828043905e-02
         - 9.6260233948313057e-03
         - 1.7265822990039714e-02
         - 1.5425518608688514e-02
         - -2.0802959799999719e-02
         - 1.5470540314809803e-03
         - -1.3948737174276825e-02
         - 1.7537079510483478e-01
         - 1.5804811210963993e-01
         - 6.3134693258462540e-03
         - 3.1530945909801777e-01
         - -2.6465991375094404e-03
         - -1.2464693293246671e-02
         - 7.3564919067550692e-03
         - 2.9419939863306536e-02
         - -9.5259350940617299e-03
         - -1.1487631881395090e-02
         - 7.5373986915173968e-02
         - -1.0329050766255865e-02
         - -3.5344815411587848e-03
         - 1.6636097562774985e-01
         - 6.4138900696650968e-03
         - -1.2189456738594688e-03
         - 3.9437968429544496e-03
         - -1.0417458416185845e-02
         - 3.2411027051233235e-02
         - -1.0013721226834042e-03
         - 1.4797917107452381e-02
         - -4.7614755941922937e-03
         - -9.3696059659516950e-03
         - 4.3274996406765581e-03
         - -7.4941559725750385e-03
         - 1.4935739989993670e-02
         - -5.8469483378422810e-02
         - 1.7145807307129491e-02
         - -4.3846629912181552e-04
         - 8.7693015702403176e-02
         - -1.7609623509103975e-01
         - -1.9242327889331268e-02
         - 1.5452989480364521e-02
         - 1.8784252653510430e-01
         - 2.2960859160710812e-03
         - -3.5338027472735334e-03
         - 1.2088995210405713e-01
         - 1.0696991906999453e-01
         - -6.1310398217618023e-03
         - -3.5402568873395675e-04
         - -1.0411553771970219e-01
         - 4.2235774937117576e-01
         - -5.1610839683203971e-02
         - -6.6421507177736143e-03
         - -1.1307614751923845e-02
         - 1.6328936175717422e-02
         - 3.0404516329812236e-02
         - 4.7349377013951258e-03
         - 9.4176224924142683e-04
         - -9.2740235328684223e-03
         - 2.6359989529678562e-03
         - -3.1111331258496102e-02
         - 8.3720609840092011e-03
         - 1.6916437627098695e-03
         - -1.2598191353626764e-01
         - -3.2712975471310572e-02
         - -2.8967084645400643e-02
         - 2.9212234017072075e-01
         - -8.0043260925684354e-02
         - 4.0075238315118722e-03
         - -5.1087137248591506e-02
         - -2.7507534376111243e-03
         - 1.5104096214023482e-02
         - -3.5754534750993897e-02
         - 1.6722883380717431e-02
         - 3.7242622828830965e-02
         - -9.0502602439354207e-02
         - -2.6228063848463760e-02
         - 3.5678988914309456e-02
         - 6.1552875286365900e-03
         - 9.8149987707828244e-04
         - 1.4152946049003864e-01
         - 7.8195056415141795e-03
         - 1.8021984027964813e-01
         - -1.8310441212554863e-02
         - 4.6321394115011417e-03
         - 2.2828323284058262e-03
         - 1.5012771648536091e-02
         - -5.4248090090970279e-03
         - 2.2674970274067052e-01
         - 3.9705028781699793e-03
         - -6.2831095197217837e-04
         - 3.9149921448851710e-02
         - -3.2649212686779662e-03
         - -2.6399379508386119e-02
         - 1.9260355046421670e-03
         - -8.5247412408969870e-03
         - -3.0053407818729214e-02
         - 1.2201047720781944e-03
         - -3.3498793580567066e-02
         - -3.4511148292774824e-02
         - -1.9610774843109774e-02
         - -8.0683526016339269e-02
         - 9.6442198822468822e-03
         - -1.5303664240062891e-02
         - -1.9836845846451331e-02
         - 7.8874617785417545e-02
         - 1.1908763169819434e-02
         - 4.7319442773531986e-03
         - -1.7687487341583180e-02
         - -1.0269337576540410e-01
         - 2.2977114340412177e-01
         - 9.9594601535871411e-03
         - -3.6974109055018289e-01
         - 3.0962681309589283e-03
         - -1.0989109440466088e-02
         - -8.2535730054525289e-02
         - 3.2180835912386768e-02
         - -9.3488742419939180e-03
         - -1.7429830441688641e-02
         - -3.7565474561791495e-01
         - 2.3635940346621694e-02
         - -2.6789974817002936e-03
         - 2.0235951125727569e-01
         - 1.9564385964687199e-03
         - -6.2744707829908274e-03
         - -2.6720991075440200e-03
         - -1.1996245006162871e-02
         - 3.5054218185108572e-02
         - -9.7297972477836097e-03
         - 2.1442986156654447e-02
         - 2.4969982626772864e-03
         - -1.8000355443482982e-02
         - 1.3250367173496319e-03
         - -7.0397982241151560e-03
         - 2.6724818341678339e-02
         - -3.2336356602043037e-01
         - 2.7035829533897226e-02
         - -1.8567157527617350e-04
         - -2.0215207442948674e-01
         - -5.9690354531306854e-02
         - -1.7139702425127249e-02
         - 1.5373732234381059e-02
         - 2.1918994671307976e-01
         - 4.7378082574707475e-03
         - 1.5818142055126841e-03
         - -8.6042361228615707e-02
         - 2.5668082517963198e-01
         - -2.4430217233162749e-04
         - 6.8414026570366975e-03
         - 9.3238106100763593e-02
         - 9.3751186013328310e-04
         - 1.0334458102874632e-01
         - 4.7710717467093584e-03
         - -1.2757718275595955e-02
         - 2.6303887655286535e-02
         - 3.3572624031452919e-02
         - 1.1901706352447411e-02
         - -1.7564086896005708e-03
         - -1.4615675812225837e-02
         - 2.6491549050161154e-03
         - -7.5209185406372742e-03
         - 6.0714317618604956e-02
         - 1.0190002441715777e-02
         - -4.1549247447673500e-02
         - -3.1174243686501454e-02
         - -2.8439506982687483e-02
         - -4.2053552374541545e-02
         - -1.9518727813096628e-02
         - 1.7162786439102979e-02
         - -9.2599850708004906e-03
         - -2.2298154249425313e-03
         - 2.4793306576290579e-02
         - 7.1007377168049265e-02
         - 1.9282972117032032e-02
         - 9.0085637777973127e-02
         - 6.6861877394718355e-02
         - -2.8293420845341040e-02
         - 3.5119467492940808e-02
         - 9.9977254380200289e-03
         - 5.4109720663073459e-04
         - -1.6793791686217061e-02
         - 3.4726250924991767e-03
         - -3.2158637056775553e-02
         - -1.8447172023012270e-02
         - 3.1396596627477147e-03
         - -4.5192718683951319e-03
         - 1.8366776808676835e-02
         - 1.2357829766963375e-03
         - 2.1015981133468697e-01
         - 2.9948496377165544e-03
         - 1.1539833447914119e-03
         - 1.7013774931430820e-01
         - -2.7837036435033736e-03
         - -3.2026273809856100e-02
         - -1.2035088735988292e-03
         - -1.8440753377177677e-01
         - -3.6336641832127328e-02
         - -3.0486171166962785e-03
         - -2.9302988828532162e-02
         - -2.3956822634259849e-02
         - 2.4562531032600112e-05
         - -4.3447917354796264e-02
         - 1.0201799624297889e-02
         - -1.8763890066375376e-02
         - -2.0908732865042450e-02
         - 5.6580844500679094e-02
         - 2.0828627360199931e-02
         - -9.7953043971596020e-04
         - 6.9279802804153943e-03
         - 2.0723575368661151e-01
         - 2.3541679883618558e-01
         - 1.3974572031640420e-03
         - 1.2566409801161679e-01
         - -1.2599963993632569e-03
         - 4.4294742016346843e-04
         - -1.1716461684219304e-01
         - 3.0851892369476151e-03
         - -1.4969080568184977e-03
         - -5.3938015032951618e-03
         - -2.1827138055860273e-01
         - 6.4397917069474054e-03
         - 2.2527618357636153e-03
         - 8.4348706568310769e-02
         - -3.3171271181408799e-03
         - -4.3606454596482819e-03
         - 7.2376802522226245e-03
         - 7.8097324830319502e-03
         - 7.5264734006956734e-03
         - 7.6523084721041579e-03
         - -8.1141718951554306e-03
         - 4.4066272304610380e-03
         - 6.2628153595163259e-04
         - -1.6302174809282287e-03
         - 4.4895973510283415e-03
         - 7.3159023593158835e-03
         - 2.4275404411220483e-01
         - 3.8473055159608605e-03
         - 4.3379391594130018e-03
         - -1.4159145138550755e-01
         - 3.8094950726347769e-02
         - 9.9793558504697607e-04
         - -6.2773411255414042e-03
         - 1.0281956464028336e-01
         - -5.3719238710462254e-03
         - -2.6387669618970449e-03
         - 2.0659208109845992e-01
         - -1.4917849508452499e-01
         - -3.9718568681051973e-03
         - 3.1084864188062468e-04
         - 8.2667173271242886e-02
         - -1.3920603291614930e-01
         - 8.8455056281924252e-02
         - -3.5669253463330151e-03
         - 2.2724652276551352e-03
         - -4.8335279426469637e-03
         - -8.6329950630371771e-03
         - -6.5887846940953653e-04
         - -5.5476239298206343e-03
         - 5.7882080155793377e-03
         - 3.8576979802978299e-04
         - -1.1940309024706929e-02
         - -5.1707293213076606e-02
         - -1.3264615516010761e-03
         - 1.8454377651603598e-02
         - -1.4068555099709423e-03
         - -2.5115721004894185e-03
         - 3.0781621259848142e-02
         - -8.5514012381434037e-02
         - -4.9503265451137351e-03
         - -2.6985590161123087e-02
         - 1.1415471942565029e-03
         - 1.5953208265635143e-05
         - 2.5822786858107427e-01
         - -9.4963312510765591e-03
         - -7.1688257872334947e-03
         - 3.1542094415533788e-02
         - 1.4117874604097959e-03
         - 1.8556683720353444e-02
         - -5.4245740576561452e-03
         - -3.3841741951077366e-03
         - 1.1639757382213205e-01
         - 1.9010182390901483e-03
         - 8.7062417761780100e-02
         - -3.6625159303864865e-03
         - -5.4911689764839643e-03
         - -2.0587966610527749e-03
         - -5.2587238686925882e-03
         - -4.7058662962667095e-03
         - -2.3740158890915170e-01
         - -4.0678111346808517e-03
         - -9.5638311774709217e-03
         - 9.5538318837319378e-02
         - 3.9037979188855516e-04
         - -2.5554507308874607e-02
         - 4.8761115892998743e-03
         - 1.1052623276926149e-01
         - -6.5028854196182264e-03
         - 1.7608143477086996e-03
         - -5.7263442002233643e-03
         - -1.3899910112512690e-02
         - 1.2166413023862763e-02
         - 6.0027194023470634e-02
         - 7.0007845918537643e-03
         - 7.2501238387579882e-03
         - -2.7739049634339361e-03
         - 2.3763908068684873e-03
         - 7.4964076595474671e-03
         - 4.4197482493431080e-03
         - 1.0523973519207632e-02
         - 7.8252327747607819e-02
         - 2.0166589714474215e-01
         - -9.7424480509532511e-03
         - 8.5801441446798798e-02
         - -1.0502117523821948e-02
         - 1.3866286683016642e-02
         - -2.8551410565288666e-02
         - -3.5552438568614370e-02
         - 9.3594999783803215e-03
         - 5.8834696167622902e-03
         - -3.9597210443822733e-01
         - -4.2474458625430658e-02
         - 1.0151208477996098e-02
         - 8.9624315318044517e-02
         - -7.4213730816988857e-03
         - -2.3833671860172627e-03
         - 3.0065228438090705e-03
         - 7.5564674686191286e-03
         - -1.8387933140688296e-02
         - 1.7936890447865287e-03
         - -1.5579697834853901e-02
         - 1.1925343298614252e-03
         - 5.5836139000645787e-03
         - -8.2734208735291571e-03
         - 1.3698205333838347e-02
         - -1.8116767930950822e-02
         - 2.6837336955798385e-01
         - -2.2736063130765982e-02
         - 2.9811490834543795e-03
         - 6.0075697251079002e-02
         - 8.0894144710888849e-02
         - 1.1796257085758838e-02
         - 2.6911990374078381e-03
         - -2.4934271061692279e-01
         - -1.5580444701206069e-02
         - -3.7745965893528385e-04
         - 8.1561825686005378e-03
         - -3.0789855841967328e-01
         - 5.6077618337383658e-03
         - -2.6082814541295634e-03
         - 8.4354399131962118e-02
         - -1.1544334274275878e-01
         - 2.3634083333962809e-02
         - 2.1405840878926117e-04
         - 1.5494083730157896e-02
         - -1.5383697438275196e-02
         - 4.6327970101939031e-03
         - -1.5086083342666444e-02
         - -4.8553559680180203e-03
         - 9.9545017636239932e-03
         - 1.5117670637761539e-03
         - -1.0449878917582349e-01
         - 2.7869498368279923e-03
         - 1.9150310194764118e-04
         - 7.9594206680096646e-02
         - 3.3285443536244685e-02
         - 3.1287067711524660e-02
         - 4.9844683104301912e-01
         - 3.7880546039825706e-02
         - -1.6221886306856281e-02
         - -1.9906615430665123e-01
         - 9.0834824302752065e-03
         - -1.6728366408170318e-02
         - -2.1821004872168509e-02
         - -2.4288567706420766e-02
         - 3.2644577097229260e-02
         - 7.6100469513756902e-02
         - 2.6082711665059717e-02
         - -1.0565542887240979e-02
         - -1.2289789112440495e-02
         - 2.8323160010679210e-03
         - 4.2645405198746078e-01
         - -6.0936149823023191e-03
         - 4.8276404208483958e-01
         - 2.4442773647164903e-02
         - -3.7401356823632439e-03
         - -3.8597343133470992e-03
         - -1.1296091598097635e-02
         - -5.7040048804481143e-05
         - -1.1949519493573034e-01
         - -6.3929397634814849e-03
         - -1.7436693697683876e-02
         - -4.1795395775920383e-02
         - 1.4497859711005789e-02
         - -1.2759900259176041e-02
         - -2.8575881116132728e-03
         - -2.3653334508027099e-01
         - 2.4093418946454909e-02
         - 4.5808692800842913e-03
         - 1.1271854920002652e-02
         - 2.7610962185800156e-02
         - 1.0385254638746495e-02
         - 1.2266190681890566e-02
         - -1.7129770199308515e-03
         - 1.3603018425381084e-02
         - 2.4530419880390848e-02
         - -1.5304638259501450e-02
         - -3.5921512713967528e-03
         - 2.7671232137243219e-03
         - -2.7740381449932485e-02
         - 3.5047342682135940e-02
         - -1.9296411842116661e-03
         - 2.3568668342237684e-02
         - -4.9403540054084477e-01
         - 1.3261224645238373e-02
         - -2.9817010212258768e-02
         - -5.0288549596083268e-02
         - 2.4374659855996308e-02
         - -1.3911434780170770e-02
         - -4.4161217859283911e-02
         - 3.4574339703486084e-01
         - -1.0407272336158585e-01
         - 7.7819195286797423e-03
         - -4.2012973095448120e-01
         - 9.2460226268350036e-03
         - -2.7233177272082323e-02
         - -4.0888113748506899e-03
         - -1.3882282307870484e-02
         - 5.6515885450504746e-02
         - -1.0893246496459037e-03
         - 2.5969233475755204e-02
         - -1.9280599768785752e-03
         - -2.8183342400618011e-02
         - 1.4107237011550143e-03
         - -8.0903629574788378e-03
         - 3.4352107056732119e-02
         - 3.4265009964794813e-02
         - 2.9771931313192366e-02
         - -4.0846449225880087e-03
         - -1.8099481365991379e-01
         - 7.3136063566985252e-02
         - -3.6083824092153917e-02
         - 6.4137898753196032e-02
         - 2.4824202728893777e-01
         - 1.9801983483454400e-02
         - 4.2583974402161540e-03
         - 5.4260263484234066e-02
         - 1.1074332459778016e-01
         - -7.2641353257866283e-03
         - 6.1634152361520599e-03
         - 4.7512151292599808e-02
         - -2.3044612119585545e-01
         - 2.4738621460717657e-02
         - 7.8325342895640832e-03
         - -1.6872414851225138e-02
         - 3.9023414999036117e-02
         - 1.0419029939302989e-01
         - 1.3052884004007314e-02
         - 5.5382367207248134e-03
         - -2.5560265338543518e-02
         - 7.2861909320790464e-03
         - -1.9503702882747779e-02
         - -4.7553820309701803e-02
         - 7.1187282706982604e-04
         - 6.0217529663637005e-02
         - -3.1927299758787255e-02
         - -4.3046925418876864e-02
         - 8.1902351058725786e-02
         - 3.1029056044195362e-02
         - 2.4620664969220590e-02
         - -4.4525688672227437e-01
         - -1.2880287050580827e-02
         - 2.7056421596582388e-02
         - -3.6789310289559779e-01
         - 2.4227216391924215e-02
         - 4.9834445552730960e-01
         - 3.8611017974826876e-02
         - -4.4632480001262069e-02
         - 3.9263585132854162e-02
         - 1.9460925199870721e-02
         - -6.0307556122344893e-03
         - -2.3495781780824887e-01
         - 3.7085229656605764e-03
         - 3.1302516619569309e-01
         - -3.1372655715426058e-02
         - 2.4135306163169654e-03
         - -2.8233971027422549e-03
         - 3.6381795395409762e-02
         - 6.3039848169110296e-03
         - 2.2263332466417934e-01
         - 8.4674751345055789e-03
         - 2.9452277115774236e-02
         - -5.3348144191935717e-02
         - -5.1370354372993268e-03
         - -5.4945642990228166e-02
         - -7.9057370694979000e-03
         - 7.6055104336942070e-02
         - -4.3627357367183150e-02
         - -1.5428746235538414e-02
         - -4.0299198754922369e-02
         - -5.4241948747326345e-02
         - 3.7812328483964562e-02
         - -1.0863500309253822e-01
         - 3.0954990588749485e-02
         - -2.9772529559460834e-02
         - -3.7016004841863341e-02
         - 4.3318443629114287e-02
         - 3.6505669049991703e-02
         - -1.5287219447838436e-03
         - 1.9680027719599553e-02
         - -2.3223949304767158e-01
         - 1.1366183605025017e-01
         - -7.9111047608774205e-03
         - -7.0754216246148444e-02
         - -4.2896331053981791e-03
         - 9.6341945377437822e-03
         - 9.9121770344587731e-02
         - -2.9982458942411385e-02
         - 8.6233727974429214e-03
         - 1.7094447354240448e-02
         - -2.1347472323214992e-01
         - 3.0921052171547732e-02
         - -3.0224456462375465e-03
         - 3.3245873260915154e-01
         - -1.4286865736779205e-03
         - 1.1453462705482196e-02
         - 2.9339844993377701e-03
         - 1.4950876619526156e-02
         - -2.7319024482655777e-02
         - 8.1513978010432191e-03
         - -1.9534053612871010e-02
         - 1.0213845908853929e-03
         - 1.7609352468846488e-02
         - -3.9291256859693745e-03
         - 1.2109482301222824e-02
         - -2.8544798817291953e-02
         - 7.0398975242811662e-02
         - -1.4278597635549279e-02
         - 7.4529649531310258e-03
         - 2.2980779010854280e-01
         - 5.6223957262324126e-02
         - 2.5207510125182912e-02
         - -6.7293557236651119e-02
         - 1.8440649767532258e-01
         - -1.7376196779669329e-02
         - -1.5829011767590478e-03
         - 2.3737852109059396e-01
         - 3.5971374921401750e-01
         - -7.0353930265046923e-04
         - 2.5548598816954732e-03
         - 9.0239132514636056e-02
         - 1.0026776118632059e-01
         - 1.1481971361974877e-01
         - -2.5232344667242127e-03
         - 1.0981145758298672e-02
         - -1.8036974578577676e-02
         - -2.7837172240621794e-02
         - -1.1384167421705421e-02
         - 1.5541974371995875e-03
         - 7.5838058209677928e-03
         - -6.6800037202980871e-03
         - 1.6471051394152161e-01
         - 6.0357203543989844e-02
         - -6.2726729416023299e-03
         - 3.6538593660110323e-04
         - 2.8489681473302681e-02
         - 2.9550594859630023e-02
         - 1.8428578259132833e-01
         - -4.2734351722747851e-02
         - -1.5547682092326494e-02
         - -2.2227946416740529e-01
         - 8.7891882100520746e-03
         - -2.3551416278694406e-02
         - 5.7178152483659313e-03
         - -2.6365832380873869e-02
         - -5.9640100710083366e-01
         - 5.6628769050005766e-02
         - 3.1149584035067769e-02
         - -4.5350371252484173e-02
         - -8.3546437630383184e-03
         - 4.0944952919614881e-03
         - -8.6180573156521126e-02
         - -9.9720139500033347e-03
         - 6.2475534953036205e-02
         - 2.4979225977615829e-02
         - -7.8163728418792651e-04
         - 2.9689822358666801e-03
         - -1.1296074820786999e-02
         - 1.5993257827831167e-03
         - -4.6597726222612307e-01
         - -7.0751194387091709e-03
         - -1.1701873340600041e-02
         - -1.5674155833117562e-01
         - 7.2201807072015808e-03
         - 2.1237529860136838e-02
         - 8.6873017515420540e-03
         - -1.3103718990449123e-01
         - 3.0398054753684879e-02
         - 7.0303899112740082e-03
         - 3.8258765767498482e-02
         - 3.0254533093107775e-02
         - 6.0021468686508855e-03
         - -1.0148679136986366e-01
         - -1.1618389454921017e-02
         - 2.2166337584298861e-02
         - 2.7175228227363422e-02
         - -3.1192191640612987e-02
         - -1.8542992331051222e-02
         - -6.6560380455374518e-03
         - 1.2788085872132777e-02
         - 4.6116201959434541e-02
         - 1.1925672655486125e-01
         - -1.0712788899275363e-02
         - 9.6120606663817679e-02
         - 7.6515052859613217e-04
         - 1.1599500803489664e-02
         - 8.8753494787819770e-02
         - -2.1972600123521594e-02
         - 2.0842254411872429e-03
         - -1.9628389309786979e-03
         - -2.3304223315470871e-01
         - 3.9589087249531918e-02
         - 3.7050093907264013e-04
         - 1.6660168579539605e-01
         - -4.6340164019733820e-03
         - 1.3816610275064901e-03
         - 6.5699367953478433e-03
         - -9.1820001163137212e-05
         - -2.8136780263699736e-02
         - 5.4194568680923693e-03
         - -2.8206022626277604e-03
         - 1.8717238814561685e-03
         - 6.6292793949768638e-03
         - 1.7819577007319584e-03
         - -6.8683410097670615e-04
         - -8.6184237332952024e-03
         - -9.3231822687127167e-02
         - -1.4210736754072986e-02
         - 6.6589651434730895e-03
         - 7.0897632350444023e-02
         - 1.0014630158407059e-01
         - 1.1286488601188884e-02
         - -5.3716817842514954e-02
         - 3.0131320213751633e-01
         - -1.5973755234589559e-03
         - -5.2657434203103219e-03
         - 4.8330396577184957e-02
         - -9.0635133296300113e-03
         - 1.4596276057299098e-03
         - -5.1677784095193885e-03
         - 8.2313874866557536e-03
         - -8.3561657555104044e-02
         - -1.8517397705839392e-02
         - -1.2517756515472052e-03
         - -7.1997763017095026e-04
         - -1.1435695007726145e-02
         - -3.5755936950279045e-02
         - -6.2921850229584377e-04
         - -6.3203483799067301e-03
         - 9.9161043919477193e-03
         - -6.1656140073264414e-03
         - 5.4547054296341921e-02
         - -1.0583674047289973e-01
         - 4.9885667911673051e-03
         - 4.0050382050065197e-02
         - 1.5808175352477010e-02
         - 2.0606324805366817e-02
         - 3.2930694156097023e-01
         - -1.4176814312379432e-02
         - -5.3738556059461096e-03
         - -2.1876654765637094e-01
         - 1.5495567274106888e-04
         - -9.7611644879490242e-03
         - -4.5864234662754591e-02
         - -3.7342150175738746e-03
         - -1.1148137051514120e-01
         - 9.4786519245412624e-03
         - 1.6867488640765003e-02
         - -2.8577195018592329e-02
         - -4.4835825708492729e-04
         - 6.8152689811780721e-03
         - -4.1688632142164805e-01
         - 3.8702073436361153e-03
         - -5.2757874159942666e-02
         - 1.4004033582177311e-02
         - 3.3993344324297911e-03
         - 4.3007447232368060e-03
         - -6.8376429420675183e-03
         - 3.9226294865538072e-03
         - -8.6489569442877084e-02
         - 2.5585944702413896e-03
         - 6.9271288623588842e-03
         - -1.4588259534266304e-01
         - -2.4741392825354865e-03
         - -1.0632042256538637e-02
         - 3.4183978396968464e-03
         - 5.8193911064749755e-02
         - 2.3614537443944556e-02
         - 6.9380595764239033e-03
         - 2.9663237706436855e-02
         - 1.5294168715267831e-02
         - 3.4091798820167316e-02
         - -2.9576056852802946e-02
         - -8.1497011508060140e-03
         - 1.6313462430079737e-02
         - 7.1666545491211615e-03
         - -2.5242138916846301e-02
         - -2.3543696650733222e-03
         - -2.1810758653974176e-03
         - 2.7826259601201773e-03
         - 6.4861867386843866e-02
         - 1.5235665036226140e-01
         - -1.2879354545410010e-05
         - 2.2572137526708450e-01
         - 4.6935826342878271e-03
         - 1.9328570548264457e-03
         - 3.1252090462160070e-02
         - -1.0029467538068043e-02
         - 1.0428479642178139e-04
         - 4.6109138210586615e-03
         - 1.8971952461201236e-01
         - -2.6086481096226428e-02
         - -1.1173337319294928e-02
         - -2.6529740865791514e-02
         - -6.0498830915207387e-03
         - 7.2524172593790310e-03
         - -3.0033161915587292e-03
         - 3.8216462824537702e-03
         - -1.5120464626649044e-02
         - 3.4208827763992753e-03
         - -6.5823298586583923e-03
         - -4.6353882071963884e-03
         - -3.4492641310115480e-03
         - 4.9162060031338354e-03
         - -2.6801682535085732e-03
         - -3.5047877473219228e-03
         - 4.1433812906890501e-02
         - -4.0478149007300238e-03
         - 1.6005622365409672e-03
         - 1.6171142831242244e-01
         - -2.0703492492377871e-03
         - 8.3172977884282320e-03
         - 5.2743679413879306e-03
         - -1.8292283054296063e-01
         - -3.7267657444823004e-03
         - 1.7523062255417839e-04
         - -1.3077483574129881e-01
         - -2.2874373752095504e-02
         - -3.3742414808328588e-03
         - 1.8090158693006295e-03
         - -2.4104296692923070e-02
         - -3.8253418244789855e-01
         - 7.7507902528123923e-02
         - -2.6879534742431329e-03
         - 1.6134257333258175e-03
         - -8.0727959534796969e-03
         - -2.6216838790602503e-02
         - 4.2376785176239861e-03
         - 2.6013512676179044e-03
         - -5.0066079146302341e-03
         - -3.0420773753006155e-03
         - -9.8782436396102451e-03
         - 1.4902450543444137e-01
         - -4.5042522001699399e-03
         - -1.0747980881321522e-02
         - 6.5133785125482081e-03
         - 9.5576123599458804e-03
         - 5.5750728940196026e-01
         - 9.4480234000698937e-02
         - 8.4869305916296487e-04
         - -1.8921749367852211e-01
         - 1.3821138739287721e-03
         - -4.4341968332473319e-03
         - 1.9369059422400522e-02
         - -1.6162982387961922e-03
         - -1.9273893271623682e-01
         - -2.9832512674276171e-03
         - 1.0398182094598276e-02
         - -1.0063137855744558e-02
         - -2.1507263522205617e-03
         - -6.0471645874884484e-03
         - 4.7648185056047336e-02
         - -1.0527065785708378e-03
         - 1.7321569124219077e-01
         - -1.4071075227582387e-03
         - 3.5199427592839789e-03
         - -6.8115836279635303e-04
         - -7.1889566790351899e-03
         - -3.9934335559947210e-03
         - -2.4550894887936719e-01
         - -6.0785884400156335e-03
         - 2.9934256147052282e-03
         - -4.8367859651711212e-02
         - 5.1895530866979426e-03
         - -4.9424333177199020e-03
         - 8.5054390546775507e-03
         - -9.9128544850627373e-02
         - 1.4328438004437966e-02
         - -4.3036542052264969e-03
         - 1.2720038661766589e-03
         - 1.8953360693937198e-02
         - 1.3068098951982824e-02
         - 2.8833813335553089e-02
         - -2.4325402105361553e-03
         - -1.4749879879295453e-03
         - 4.8883082812416828e-03
         - 3.4098783053614296e-03
         - -3.3660664737567517e-03
         - -5.1792766671353773e-03
         - -9.0144616747637255e-03
         - -2.7304714345597736e-01
         - 1.2810401827019494e-01
         - 7.1137863364806077e-03
         - 2.5370035349425984e-01
         - -4.3020976313484739e-03
         - -9.7515515968342303e-03
         - -2.7105575823709805e-02
         - 1.7294397568549953e-02
         - -5.3288132948199323e-03
         - -1.7998812689276208e-02
         - -1.0055400468428541e-01
         - -1.0562863439117211e-01
         - -1.7057215677949600e-02
         - 2.4779057630785785e-02
         - -5.0398138375585691e-03
         - -5.2776967457230668e-03
         - -1.7318799275115812e-03
         - -9.7670427008482077e-03
         - 1.2800390484279962e-02
         - -4.1930381547028005e-03
         - 7.0766656119648514e-03
         - -6.3023492737930981e-03
         - -8.1460118620666818e-03
         - 5.0858973672475724e-03
         - -9.9608496124088258e-03
         - 1.3773461637270158e-02
         - -6.3069538265488695e-02
         - 8.2689500709666117e-03
         - -8.7606486774208215e-04
         - 1.5864770780709100e-01
         - -1.4604891623960409e-01
         - -7.1576499025554241e-04
         - 5.8233978159336432e-02
         - -5.4996243375407469e-02
         - -1.2631496460355520e-03
         - -4.6429744632679200e-04
         - -1.8702716316532117e-01
         - 4.6346524973232507e-03
         - -6.3637046632961857e-03
         - -2.8798618827537139e-03
         - -6.7898918553707749e-02
         - -1.5894627535531872e-01
         - 1.4902764312043685e-02
         - -9.5028019940753038e-04
         - -8.8662601578254514e-04
         - -9.9729645902456592e-04
         - 1.4453993582797990e-02
         - -3.3939835181529730e-04
         - 3.6666859789322220e-03
         - -6.9974056329676982e-03
         - 7.6428306682688749e-03
         - -4.0036366294190023e-02
         - 1.3469782631517674e-01
         - 6.4790609992979064e-04
         - 1.7567247592427376e-02
         - -1.6801010750759848e-02
         - -1.2307542800360498e-02
         - -1.4562933933975122e-01
         - 5.0456318433488162e-02
         - 8.5642352752927243e-03
         - -2.2783710755968817e-01
         - -8.5849960923668027e-03
         - 3.1823336600997152e-03
         - 3.3951893264311958e-02
         - 9.3875740678182364e-03
         - -9.9161667777281859e-02
         - -5.5964935724337875e-02
         - -2.0521962347438215e-02
         - 1.3315546936753180e-02
         - 8.1472526859153512e-03
         - -8.5261252205651780e-03
         - 6.5270430732613641e-02
         - 1.8990049501180952e-04
         - -9.4312903981868298e-02
         - -3.6473832054372294e-03
         - 4.1460734119867660e-03
         - 5.9558915024295880e-04
         - -1.3106632726406604e-03
         - -6.2457026027823632e-04
         - -7.1948071355721580e-02
         - -1.1802556543726607e-03
         - 6.5992936230103334e-03
         - -8.4953944901597578e-02
         - 3.2713695386692105e-03
         - -9.2345104413477139e-02
         - -2.4450162525345496e-03
         - -9.6764847157339434e-02
         - -2.3112366282059438e-03
         - -9.5775388630713141e-04
         - -2.3963555188793357e-02
         - -7.6361942028357124e-03
         - 4.9324305525564761e-03
         - 1.1615364286551423e-01
         - 7.9908361147521482e-03
         - -7.9114809156908411e-03
         - -8.6747711654049358e-03
         - 3.6591366944890930e-02
         - -1.8830612448978603e-03
         - -5.1945985397300965e-03
         - -1.0877833708409215e-02
         - 2.3364974681234993e-01
         - 9.6059718855975737e-02
         - 7.9272269845908627e-03
         - 1.7874742621516385e-01
         - -2.7426116550837119e-03
         - -9.2887478674141908e-03
         - 1.5597853068418587e-03
         - 2.4413211377415322e-02
         - -9.9536107647444048e-03
         - -1.8770501987813198e-02
         - 9.6432147531547191e-02
         - -1.8836906207177564e-02
         - -7.4716983082421876e-03
         - -1.0171422702606930e-01
         - -3.5902394695982247e-03
         - -7.3804946652160407e-03
         - -4.0732726582656219e-03
         - -5.6066903881889949e-03
         - 3.2292616453880971e-02
         - 1.1471392528185748e-03
         - 1.3671594558843756e-02
         - -3.9861641716654973e-03
         - -6.2020979017809574e-03
         - 1.8990803800856115e-03
         - -6.9495644496216126e-03
         - 1.7705264975966497e-02
         - 1.3488644539301051e-01
         - 1.3962362801108351e-02
         - -8.1750536889279371e-03
         - -4.3764922066729613e-02
         - -2.3953303129517548e-02
         - -8.0337627172363535e-03
         - 3.2794941751560100e-02
         - 5.0753251367136099e-02
         - 5.7016023190608967e-03
         - 4.5055202640959186e-03
         - 1.3762488540476081e-01
         - 8.8679774166879749e-03
         - -2.3107920645874008e-03
         - -1.4302926840019142e-03
         - -1.8449533683032307e-01
         - -2.3732794367749285e-01
         - -7.5678147716030403e-02
         - -2.9956530011718482e-03
         - -9.5905562560292205e-03
         - 8.5513473298566515e-03
         - 4.1593905360737739e-02
         - 6.8967853655338860e-03
         - 2.6017372293429208e-03
         - -2.1201726049356160e-03
         - 1.7232662088714655e-03
         - -3.7958957385335286e-02
         - 1.2670236360824866e-01
         - -1.6164261712988935e-03
         - -6.2437742252608580e-04
         - -3.1064703953814724e-02
         - -2.5155859794033602e-02
         - 3.5410089951396062e-01
         - -1.2158855350084534e-01
         - 1.0158873500356486e-02
         - -5.1848520787644486e-02
         - 7.6198679358688401e-04
         - 5.2142503018429882e-03
         - -1.9779363072044265e-01
         - 1.7499332887011065e-02
         - 2.6723202647835287e-01
         - -7.6442648061162397e-02
         - -2.9935395980468210e-02
         - 2.2837375333553858e-02
         - 5.9449943086173733e-03
         - -1.2176751232023315e-03
         - 1.7029554409428038e-01
         - -4.0771662461960749e-03
         - 5.5816288473477735e-02
         - -1.6032107804184112e-02
         - -4.6014219855991922e-03
         - 1.0546458250027901e-03
         - 5.5668883959061489e-03
         - 2.9240746377360793e-03
         - 3.3933951791402073e-01
         - 2.9072941740568648e-03
         - -1.3286736403442859e-03
         - -2.5020068426039620e-02
         - 8.3257354384076374e-04
         - -4.0259171819389504e-02
         - -5.5058061821922867e-03
         - 2.0670514853287686e-01
         - -1.7270100161826410e-02
         - -2.1784814380910208e-03
         - -2.4554267204184160e-02
         - -4.7314485373198947e-02
         - 1.1451554490364604e-02
         - -4.6676435000141084e-02
         - 1.0757683250435975e-02
         - -1.6223153767753826e-02
         - -1.2505453243548308e-02
         - 6.4306893184257252e-02
         - 1.0923865840897164e-02
         - 4.6328557418286939e-03
         - -1.0855318546933291e-02
         - -3.2059130966559636e-02
         - 9.9959095432419529e-02
         - 2.2918999979334655e-03
         - 7.2718040708491069e-02
         - 6.7311287316721017e-03
         - -8.9420904113388412e-03
         - -9.2575587313304425e-02
         - 6.9371886418934398e-03
         - -1.0138436728800907e-02
         - -1.3466394138737677e-03
         - -1.0151587056443639e-01
         - 2.4403300526666194e-03
         - 3.5308038814832937e-04
         - 2.7675759298146557e-01
         - 3.0425140483807136e-03
         - -6.0094738728744285e-03
         - -1.1491175562559906e-03
         - -4.3850659048955253e-03
         - 3.4738578916541855e-02
         - -2.2570656815688052e-03
         - 9.3994746740124757e-03
         - 7.0189397470575236e-03
         - -9.4169563260067101e-03
         - -7.0645380266629813e-04
         - -1.0184946370717807e-02
         - 1.8249626853419448e-02
         - 5.4521151462043442e-02
         - 1.9012688615393500e-02
         - -6.9821031011584470e-03
         - 3.9079423877835778e-02
         - -8.7487228835643211e-03
         - -1.2848407693770705e-02
         - 3.9142464011545149e-02
         - 1.6949261967119647e-01
         - 1.1408775288330458e-02
         - 4.0908502707546202e-03
         - 2.4244991956214063e-01
         - -2.1485931798145154e-02
         - -3.2400743417350894e-03
         - -4.5853436693435523e-03
         - -4.3549463078098122e-02
         - -2.8036351819487565e-01
         - -1.1463084509646394e-01
         - 4.5346971577933624e-03
         - 1.1442129362841933e-03
         - 9.1811749163477844e-03
         - 5.4078841464694646e-02
         - 3.5512480719022284e-03
         - 2.8301557011282154e-03
         - -4.5186471096560644e-03
         - 1.0856451462187645e-02
         - -4.2663850962527970e-02
         - 3.4276699663297033e-01
         - 2.9734286153479663e-03
         - -5.5185333008966934e-02
         - -8.5148755191907597e-03
         - -2.0333198628926855e-02
         - 1.0009949100829320e-01
         - 2.4907421959528952e-02
         - 1.1426629603584055e-02
         - 8.4430851431324755e-02
         - -1.0049442292809805e-02
         - 7.0821117628401984e-03
         - -1.6839596585556318e-01
         - 9.4846153432402418e-03
         - 7.5867036511071309e-02
         - -2.4467451946330519e-02
         - -3.1851476635112605e-02
         - 1.6268387435230961e-02
         - 7.7926392246482025e-03
         - 3.9706064643040065e-03
         - -7.2393975342190942e-02
         - 2.6179135540847333e-03
         - -1.2549862183666394e-01
         - -7.7890278811990118e-03
         - 4.7890684211547895e-03
         - 3.9883235504969330e-03
         - 6.5341736575674431e-03
         - -4.4786118591862113e-03
         - 6.8266519522298924e-02
         - 1.3277917357051763e-03
         - -1.1878396070755847e-02
         - 3.6444939617880527e-02
         - 2.2283348865910603e-03
         - -5.3240873186951128e-03
         - -8.5787690739000735e-04
         - -1.7777070337880129e-02
         - -1.7340683109097525e-02
         - -6.7558168664144623e-03
         - -2.4063523817264568e-02
         - -9.5356941444172082e-03
         - 5.8459966425722712e-04
         - 2.1987745908383580e-02
         - 1.3837643602165191e-02
         - -1.4465340754836581e-02
         - -1.2886539231913158e-02
         - 4.0939563785687881e-02
         - 2.8113128374533712e-03
         - 4.9881582720538572e-03
         - -8.8051371481490011e-03
         - 5.4213262079125552e-02
         - 1.3495453539126667e-01
         - 2.3629676642886225e-03
         - -1.2828764206290105e-01
         - -5.5268883627370379e-04
         - 1.4932349831671507e-03
         - -1.0463228562840587e-01
         - 8.7359761815714216e-04
         - -6.3540808058525685e-03
         - 2.4808863167796657e-03
         - -3.0767249343270050e-03
         - 4.3328979131621467e-02
         - 1.1574438181012175e-02
         - -4.4343199997871319e-01
         - 9.9827788621913486e-04
         - -7.4794221844615158e-03
         - -1.7844686978255846e-03
         - 3.7797094400268015e-03
         - 1.9146383524585368e-02
         - -6.2784569733204199e-03
         - 2.8607628961110215e-03
         - 9.6434817802695490e-04
         - -7.0202574838017203e-03
         - -3.6744814128118579e-04
         - -2.2972934365170601e-03
         - 4.8892425122234332e-03
         - -1.9148774442879271e-03
         - 1.1837987272794273e-02
         - 1.9581225908714295e-03
         - -1.0253494120080808e-01
         - -3.5366607722231761e-03
         - -4.1746236978824087e-03
         - 2.6866904563489179e-02
         - 3.5829582077388694e-01
         - 9.2361230748395605e-03
         - -5.2945196485666077e-03
         - 1.9800553290688286e-01
         - 2.7507059660624317e-01
         - -3.9630098067989427e-03
         - 2.9611864896847456e-03
         - 4.4718253845568599e-03
         - -4.2705143561143322e-01
         - -4.1246045108420802e-02
         - 8.4821429980018025e-03
         - 1.3749921382876819e-03
         - 6.6189500525582392e-03
         - 3.1468690581360932e-02
         - 3.6756077489356935e-04
         - -3.3020084394124903e-03
         - -4.2130556731744255e-04
         - 4.0159753162253712e-03
         - -1.0915888397240560e-01
         - 1.5206002525966050e-01
         - -6.0318964901551555e-04
         - -1.3386056793413956e-02
         - -8.7889946203719097e-03
         - -1.2491198577386184e-02
         - 2.5306183005569238e-01
         - -3.9508391387778119e-02
         - 5.5553186669034796e-03
         - -1.5145947698732523e-02
         - -6.3563776755614643e-03
         - 8.9465455801395859e-03
         - -9.0846061787297358e-02
         - -2.2571500459371125e-03
         - -6.0696146648952828e-02
         - -8.7866451178926289e-03
         - -2.2374378285935442e-02
         - 1.9261810317564167e-02
         - 4.7823606824624427e-03
         - -5.5082755111999435e-03
         - -1.8871597804994822e-01
         - -5.5846047411835650e-03
         - 1.7376207089469262e-01
         - -9.9808562134874306e-03
         - 4.6374467370112558e-03
         - 2.7823714320288182e-04
         - 1.2889271147818464e-03
         - 3.9133558259499823e-03
         - -2.5051922110158092e-01
         - -2.1773465458498130e-03
         - -7.7106716116933562e-03
         - 7.1760332063644933e-02
         - -6.8320973524212082e-03
         - -4.9235441248020241e-02
         - -1.8639106745569891e-03
         - 4.6170602165104831e-02
         - -1.2565671745759142e-02
         - -1.6547939618574660e-03
         - -2.1838023454564811e-02
         - -8.5586357887231304e-03
         - -8.5007219160550245e-03
         - 5.8725954406679340e-02
         - 7.0818224190173241e-03
         - -4.1273499301881312e-03
         - -1.1360371890886385e-02
         - 3.3201693937088932e-02
         - 6.0488812256293155e-03
         - 4.5669886229568182e-03
         - -3.2162444528699072e-04
         - 3.8941197043114599e-02
         - -6.0022771804980456e-03
         - -5.8534161134818968e-03
         - 1.5362935864810065e-01
         - -1.3375734306752872e-03
         - -2.6262998143946900e-03
         - -6.6782296109517705e-02
         - -5.5905765318911942e-03
         - 9.4769489999331439e-03
         - -1.1885991842259060e-02
         - -1.4147151148818354e-01
         - -6.6789139636895173e-02
         - 1.2148309632164683e-02
         - 3.1904217299792631e-01
         - -9.3578789013432366e-04
         - -5.3501782304127992e-04
         - 2.4032114032473606e-03
         - 9.4305928165900853e-03
         - 2.6183664075001721e-03
         - 3.1479557662988434e-04
         - -6.5240193349564565e-03
         - 3.1131022903704226e-03
         - 2.5268301804389757e-03
         - 2.5737020540431755e-03
         - 4.0439509097682314e-03
         - 2.8446263774102374e-03
         - -8.1090703898421990e-02
         - -4.5963903193508280e-04
         - 6.9978415215106156e-04
         - -1.4221731462891318e-01
         - 1.1408131928406182e-01
         - -2.3210889313297132e-03
         - 1.0175030718180182e-02
         - 2.3059516064845584e-03
         - -6.7049701479302585e-03
         - 2.2047762140263855e-03
         - 1.1680820312013131e-01
         - -1.4323329389361586e-01
         - 7.4519665103389284e-05
         - 2.3216366806864674e-03
         - -5.3348332025845970e-02
         - 5.6759651406717104e-01
         - -2.6701979616969995e-01
         - -6.7753134192566596e-03
         - 1.7572789587600418e-03
         - 2.5208416058957999e-03
         - 2.4800919679734825e-02
         - -1.3163988574726036e-02
         - -7.2353654026594523e-03
         - 7.1010713931294435e-03
         - 6.2511670403702334e-03
         - -1.3026424480057808e-01
         - 1.4204030253993258e-01
         - -9.4349420991298057e-05
         - 1.0834836176018872e-01
         - -5.4645690607322953e-04
         - 4.5894502184115867e-03
         - 4.1360236292735575e-01
         - -1.2618499396686286e-01
         - -3.2946161587820767e-03
         - -2.9074974833543463e-02
         - 8.7345493443028444e-03
         - -2.0517018324981528e-03
         - -8.8329542162397690e-02
         - -1.3209221193709311e-02
         - -2.0774680252829075e-01
         - -1.7156847060039455e-02
         - -2.2784057927814796e-03
         - 1.5572020504730281e-02
         - 4.6063302236168070e-03
         - 4.8276729385482702e-03
         - -5.5743765705041144e-02
         - -9.5452385206156549e-04
         - 6.5111335972890802e-02
         - 4.1883609041962686e-03
         - -3.4186073099982260e-03
         - -2.6961709221128955e-03
         - -3.1114313282577018e-03
         - 4.3327988943259551e-04
         - -5.1559948942205516e-02
         - -6.9143844009230456e-03
         - -3.4136971824526808e-03
         - -1.4385007464713476e-01
         - -1.7625704730412661e-03
         - -8.7088306975249621e-02
         - 1.6062303794484893e-04
         - 6.5445834403940556e-02
         - -5.6099784943875229e-03
         - -1.9319865761643488e-03
         - -9.3211617923379744e-03
         - -1.9310875665490970e-02
         - 2.4840407061632843e-02
         - -7.7823257342082008e-02
         - -1.3490703755767016e-03
         - 5.8965140239499742e-03
         - -2.2816768969188502e-03
         - 2.6881317291967455e-02
         - 1.3450307475458615e-02
         - -1.0679552608392842e-03
         - 1.3081572188808370e-02
         - -4.4249802086387700e-02
         - 3.0364357764384131e-01
         - -1.2450563800097458e-02
         - -5.3476065589682764e-01
         - -2.2607076603973699e-03
         - 4.2514219273404961e-03
         - 5.7136154244150125e-02
         - -3.8237553867825132e-02
         - 1.7358961619005596e-02
         - 1.7318019642691720e-02
         - 1.1160173539808628e-01
         - 3.4540072086638382e-02
         - 4.9982756628158143e-03
         - -6.8892873457842257e-02
         - -4.3825533590654909e-03
         - 2.3482625968807098e-04
         - 1.5647517854388848e-03
         - 1.3754781033516255e-02
         - -1.9464822106603601e-02
         - 4.1656899161400512e-03
         - -1.7808037906488997e-02
         - -2.7624418091692486e-03
         - 1.5898240861829151e-02
         - -1.7682440276480047e-03
         - 1.1218490769730952e-02
         - -2.1436784209551769e-02
         - -1.0794830961078059e-01
         - -1.3989319991095329e-02
         - 3.9328605034185853e-03
         - -1.9808712718442735e-02
         - 1.0461118581008481e-01
         - 2.0416123442713492e-02
         - -3.0496482472647912e-02
         - 2.7513350556069936e-03
         - -6.2882430116346123e-03
         - -8.3133811983155236e-03
         - 1.2368554297157484e-01
         - 1.3750821440136576e-01
         - 5.8168884843605960e-04
         - 7.7409634760890727e-03
         - 1.7962495618642907e-01
         - -1.2609071454690923e-02
         - 1.0416023609702008e-01
         - -3.7024592207546827e-03
         - 7.9439941081044674e-03
         - -1.5695155209610387e-02
         - 1.1512696630843679e-02
         - -2.1636574776184744e-02
         - -1.2440274457761412e-03
         - 1.1226503967945427e-02
         - -9.1992128512645727e-03
         - 1.4012476040037030e-02
         - -3.0144486727482062e-02
         - -5.9794565097857902e-03
         - 1.3253627421078323e-01
         - 1.8595672764751901e-02
         - 2.6233865884933972e-02
         - 3.2627016827224115e-01
         - -2.3789256788815792e-02
         - -1.3405780273334713e-02
         - -1.5500527126517177e-01
         - 4.9597275332454076e-03
         - -2.2701607952946113e-02
         - -2.8357185602758440e-02
         - -2.6238993617626858e-02
         - 2.3819677712492060e-01
         - 1.1225413346889876e-01
         - 2.4688916488514932e-02
         - -2.7643294736822123e-02
         - -9.4257905683765592e-03
         - -6.5645681613437788e-04
         - -2.8087324298307546e-02
         - -9.3251239547199605e-03
         - 2.8325501096062261e-01
         - 2.8100075362956448e-02
         - -5.8477346496098141e-03
         - 4.8112038805787046e-03
         - -1.5857225558209374e-02
         - -5.1254781759923684e-03
         - 2.3671220071229282e-01
         - -2.2274498675695364e-03
         - -1.9960186780674141e-02
         - -5.1361986750404702e-02
         - 1.1938664237341636e-02
         - -6.6153866260747632e-03
         - 3.5731543649678687e-03
         - 1.0544844908029655e-01
         - 1.6470042350652313e-02
         - 4.0905834579698383e-03
         - 1.5973739780205665e-02
         - 2.4632167425648777e-02
         - -7.4362276921787060e-03
         - 2.1772325663636488e-02
         - -1.4699940165311903e-02
         - 1.4471927084099735e-02
         - 1.8076020222277701e-02
         - -1.7222402208673659e-02
         - -1.8216085355522823e-02
         - 3.4440872173600199e-03
         - 2.9674720056513055e-03
         - 3.0430751920651918e-02
         - 4.4522587832747362e-01
         - -7.4648984428490215e-03
         - 1.0198808941870037e-01
         - -3.7559743599926104e-03
         - 1.0619905908960657e-02
         - 3.6386700236183907e-02
         - -3.3361232753660292e-02
         - 9.5007657482454200e-03
         - 1.3410970783117796e-02
         - 1.5517365651221268e-01
         - 1.0078611143614637e-02
         - 6.3709585418745629e-03
         - -3.7698397203983158e-02
         - -3.8654167050816658e-03
         - -1.1749999141386930e-03
         - 3.3416864340582711e-03
         - 5.5581128585337281e-03
         - -2.2733195485021916e-02
         - 3.1104842262027544e-04
         - -1.3486623958090768e-02
         - -5.9069160936492150e-03
         - 4.3493144199024435e-03
         - 3.8703577351120932e-03
         - -2.5595971549931626e-04
         - -9.6067162712929251e-03
         - 1.5723753337554644e-01
         - -9.9106688718858041e-03
         - 1.8879301085072955e-03
         - -2.1515056434974983e-01
         - 2.3604797247841904e-02
         - 9.1368986913956205e-03
         - -2.4821111553486094e-02
         - 2.4388771726961045e-01
         - -9.4889547719528896e-03
         - -2.4299281619761730e-03
         - -1.1635201321076070e-01
         - 2.5151593432556302e-01
         - 4.9686525699696154e-03
         - 3.4962993880621454e-05
         - -3.9012877945597053e-02
         - 7.8731836458470025e-02
         - -1.5193245201629740e-01
         - -4.3704958062963936e-03
         - 8.2624685050374722e-03
         - -1.6038621470048545e-02
         - -2.3207977360863673e-02
         - -1.1042244420145392e-02
         - -4.7260880032099368e-04
         - 7.0223738893270627e-03
         - -6.8900715736473972e-03
         - 4.5087982327357438e-02
         - -2.4470051561173595e-01
         - 3.9788449656889841e-03
         - 8.1398107735617023e-02
         - 2.3304687846105343e-02
         - 2.3694882119173311e-02
         - 2.1529758594038104e-01
         - 7.2544224814279773e-02
         - -7.7684835590874765e-03
         - 3.5735510858616877e-02
         - 3.7918851907491106e-03
         - -3.5783263998732961e-03
         - -2.8020563573343558e-02
         - -8.9350305202504990e-03
         - 4.1537544900317490e-02
         - 6.4562623772924117e-03
         - 2.2381921024130832e-02
         - -2.2375915360306753e-02
         - -6.3183924402243404e-03
         - -1.9538496641859724e-03
         - -2.7737886871414175e-01
         - 1.3200995169094299e-03
         - -1.6419645966856028e-01
         - 8.4260712601926975e-03
         - 1.3412229353750498e-03
         - 2.8195240962485156e-03
         - -1.3510745535321512e-02
         - 1.3371103468623915e-03
         - -1.4421605121765685e-01
         - 1.5412863855032535e-03
         - -3.6245453900628989e-03
         - -9.3553531621832879e-04
         - -8.6733049459501764e-04
         - -2.3818977012814727e-02
         - 5.7469013903456078e-03
         - -1.7168863539983523e-01
         - 2.0979591937070434e-02
         - 3.1105526623445862e-03
         - 2.9528782193339202e-02
         - 3.2865727575447153e-02
         - 8.4535233246823792e-03
         - 1.4109646957831937e-01
         - -1.2237116798232958e-02
         - 4.4143892044384144e-03
         - 1.6350501780258733e-02
         - -1.8292726899165276e-02
         - -1.6678040290640534e-02
         - -4.8682704471938090e-03
         - -1.3143023147224330e-02
         - 3.3080474102236808e-02
         - 9.6599030433579938e-02
         - 1.0789789814412870e-02
         - -7.3363750099154815e-02
         - 9.7817718266019829e-03
         - -4.5796802771669153e-03
         - 4.3121882672101527e-02
         - 2.1638457313090474e-02
         - -1.4357169120272295e-02
         - -7.2163171096813342e-03
         - -2.8758287023422952e-01
         - 1.9133888776056596e-02
         - 3.2467997583699327e-03
         - 7.0860912507841878e-02
         - 1.8326723772824826e-03
         - -3.1419155218684832e-03
         - -4.2448761238443444e-03
         - -8.1878601559126074e-03
         - 1.8834873133171542e-02
         - -3.2758365409520427e-04
         - 1.2674124407388262e-02
         - 4.5497896411856057e-03
         - -8.0333882446582284e-03
         - 1.8199686237621200e-03
         - -1.2835102534534857e-02
         - 1.7502371156689418e-02
         - 3.7675630591589515e-02
         - 9.1601135799947893e-03
         - -2.5810882551665542e-03
         - 1.0432078623910988e-01
         - -1.7721467629489879e-03
         - -1.8305719749249123e-02
         - -5.6928337467480514e-04
         - 1.2480568723481865e-01
         - 7.3284374968756059e-03
         - 6.6545201889561759e-03
         - -1.5516347272395526e-02
         - -1.9781283965227195e-01
         - 3.7035531870807706e-03
         - -5.5426852844558065e-03
         - -7.3282816108501569e-02
         - -1.1155221678162497e-01
         - -4.8275381074882918e-02
         - 3.9340886788456850e-03
         - -7.5043044453114334e-03
         - 2.2606941207689180e-02
         - 1.2494707035499070e-02
         - 2.1033333038058804e-02
         - 1.5643054701300868e-03
         - -9.8003164798343371e-03
         - 7.9039078135297765e-03
         - -1.1821581955467540e-02
         - -1.3225047661039666e-01
         - 6.4376241365532100e-03
         - 1.6398207612382995e-01
         - -1.7114571666849588e-02
         - -1.2401505872123963e-02
         - 5.7265050610965769e-02
         - -2.5645589192140900e-02
         - 1.8524728981232454e-02
         - -2.3479954754801044e-01
         - -1.0269522019678115e-02
         - 1.2383406817194525e-02
         - -1.3728798361478736e-01
         - 1.4043957574643579e-02
         - 1.1138182387209107e-01
         - -1.3002725429291286e-02
         - -1.4845821294743166e-02
         - 3.2046919053552178e-03
         - 1.1884257571101004e-02
         - 5.3042767423095772e-04
         - 4.2677940044662417e-02
         - 6.2353127449663931e-03
         - 8.2717192141256612e-02
         - -2.2167074300096092e-02
         - -4.6475620905674911e-03
         - -1.5735594086246274e-03
         - 1.1260930709294566e-02
         - -4.5295372223819056e-03
         - -1.6064983927901461e-01
         - 9.6182181004100201e-03
         - 2.5930271952696451e-02
         - -4.8987655410242699e-03
         - -7.5625272220633732e-03
         - -6.3228570909634935e-02
         - -8.3225211294457226e-03
         - -5.1488937757033379e-02
         - -1.8222143431016975e-02
         - -7.6463167765796636e-03
         - -6.8167887070048174e-03
         - -2.9862645965072980e-02
         - 2.9513057015220692e-02
         - 3.2055208930395325e-02
         - 7.9876836213706032e-03
         - -1.6429406139916645e-02
         - -1.1276148581414593e-02
         - 3.1890351301389529e-02
         - 2.2780267595770145e-02
         - 3.4594494253657273e-03
         - 1.7422068058778883e-02
         - 9.9000346058005007e-02
         - -2.2439852446129246e-01
         - -1.5718314705395371e-02
         - -2.0334565478170888e-01
         - -8.8509907797380428e-03
         - 6.1121922254415194e-03
         - 7.5687769424872112e-02
         - -6.6037789787027528e-03
         - 1.3659114608581376e-02
         - 8.1234355153931518e-03
         - -1.6946055968053436e-01
         - 2.9711789743326215e-02
         - -8.8790987373440090e-03
         - 8.0617329155934312e-03
         - -3.3566904452130373e-03
         - 7.7032552793701164e-03
         - -1.4316267244487153e-05
         - 1.5975255485013587e-03
         - -3.7917002164996355e-02
         - 5.7830610712929359e-03
         - -2.0180008129353326e-02
         - 1.7148694931488876e-03
         - 1.4795450534607967e-02
         - 1.2242458342268398e-03
         - -1.8055807838628769e-03
         - -1.6785439988613458e-02
         - -1.8459276619351939e-01
         - -2.4848839611286266e-02
         - 4.2811166360118219e-03
         - -1.6179060615623514e-01
         - 1.4646195057149562e-02
         - 1.9115629104371198e-02
         - -7.0686991665350640e-02
         - 1.8301627693855629e-01
         - -1.5033887427710904e-02
         - -1.7018092344327513e-03
         - -6.5902325856101923e-02
         - -2.7430050752738855e-02
         - -1.9476083255789850e-03
         - -3.1372160933756544e-03
         - -3.4046145357548865e-02
         - 1.9431032071285495e-01
         - 1.3412593569841591e-01
         - -1.1924514206471388e-02
         - 1.4724658022097747e-02
         - -1.6126509195725211e-02
         - -3.9328256361484418e-02
         - -1.1038569488708952e-02
         - -4.8057367318176895e-03
         - 9.3509508014273709e-03
         - -4.9044301447003589e-03
         - 5.2790274736068933e-02
         - -2.2187727954262898e-01
         - 7.7387533066113480e-04
         - 7.9465746697944428e-02
         - 1.1064363432936385e-02
         - 2.8863386402692818e-02
         - -1.2472644429885978e-01
         - 2.2678756717928902e-04
         - -1.1071106086651175e-02
         - 2.2122741881767544e-01
         - 1.4741310810587003e-02
         - -2.0259957287725974e-02
         - 1.0772000554555991e-01
         - -1.8461465796632048e-02
         - -3.1446284668421302e-02
         - 5.5713619043066759e-03
         - 3.0352170062467720e-02
         - -2.8687723748554463e-02
         - -6.1737315896911197e-03
         - 9.4520545774750967e-04
         - -9.6920567752812326e-02
         - 1.7135686313155870e-03
         - 2.3091139838938204e-01
         - 1.2588921444170278e-02
         - -8.9564144070865205e-04
         - -3.6175634789306277e-03
         - -1.3243588100679337e-02
         - 3.1021321240893798e-04
         - 2.0161004221306195e-01
         - -6.0541738555004816e-03
         - -8.6333795479293877e-03
         - -1.2342878704892431e-02
         - 5.8985946963250411e-03
         - 9.0344498881003814e-03
         - 2.0043031095207482e-03
         - -2.3468029964296155e-02
         - 2.2548234577597873e-02
         - 8.2050974405529983e-03
         - 2.8826709965823961e-02
         - 3.0235634207622613e-03
         - 2.9936524654470453e-03
         - -2.6186234795999228e-02
         - -1.1139725911205128e-02
         - 1.8764724446432290e-02
         - 1.5362257018190573e-02
         - -1.8736880755785921e-02
         - -7.5581339120509763e-03
         - -2.6182102365019935e-03
         - 2.4261464315306132e-02
         - -1.3328549267093558e-02
         - -1.2147021523691742e-01
         - -2.4342804646211118e-02
         - 3.6319839533745557e-01
         - -1.3348848713594564e-02
         - 1.9080776300087747e-02
         - 7.5301964300017163e-02
         - -4.2662925330053988e-02
         - 1.9534367741773924e-02
         - 2.8610822180589718e-02
         - -1.4620971348251080e-01
         - 5.2373068102397488e-02
         - -1.9062730028631330e-02
         - 2.2260808557438810e-01
         - -1.1336050359135460e-02
         - 1.6805572066658066e-02
         - 1.2671534439547016e-03
         - 1.3084035484761631e-02
         - -4.8356971950033779e-02
         - 1.3894118986792882e-02
         - -3.2078940698497420e-02
         - -3.8906974732861458e-03
         - 3.1554471515214545e-02
         - -1.6202024817013763e-03
         - 1.2657192336462784e-02
         - -3.2458789777493550e-02
         - 4.2698163828450975e-01
         - -4.0527465352986715e-02
         - 1.1230831183770213e-02
         - 2.8259491342505882e-02
         - -1.2770242196479167e-01
         - 3.8717142962735665e-02
         - -3.2983288052847823e-02
         - 9.0639030920722341e-02
         - -2.3536263196138121e-02
         - -5.0706913887935533e-03
         - -1.6968917019598861e-01
         - 2.8681314376280859e-01
         - 3.6690170745070096e-03
         - 1.7803886169471593e-03
         - -1.5733779261077152e-01
         - -1.2715130233496513e-01
         - 1.2267865285045862e-01
         - -1.4524876158712081e-02
         - 2.4630817105680072e-02
         - -4.3955151596417462e-02
         - -4.6497262619018938e-02
         - -2.7050684723238721e-02
         - -7.5531253071133442e-03
         - 1.5397077645650277e-02
         - -7.9781269847830384e-03
         - 2.5088982644712769e-02
         - 1.2329091953315996e-02
         - -8.3139574078627352e-03
         - -8.6822601001938379e-02
         - 3.6991289939725842e-02
         - 3.7920781948269630e-02
         - 2.0616906704659244e-01
         - 1.3594953219746523e-02
         - -2.1319076941499954e-02
         - 1.4625656649815780e-01
         - 2.2481524070011975e-02
         - -3.3887906376308716e-02
         - -1.4040613640724916e-02
         - -3.8496891509518710e-02
         - -1.3248434648462340e-01
         - -1.1083218235347184e-01
         - 3.6733573990626198e-02
         - -4.6079008491110213e-02
         - -2.4030770818747188e-02
         - 3.9870062168509864e-03
         - 3.0247800132919634e-03
         - -1.2183261434593822e-02
         - 2.9242239895163957e-01
         - 3.6103625986112865e-02
         - -6.3656974916484711e-03
         - -3.9160239120961992e-03
         - -3.5002111190834281e-02
         - 5.4440274984264439e-03
         - 1.9615622121440876e-01
         - -3.7688590877402988e-03
         - -4.0506816537532749e-02
         - -4.4330092731372749e-02
         - 1.1908975035301188e-02
         - 8.6784643786288205e-04
         - 1.1998876752385115e-02
         - 3.3055720245543918e-01
         - 4.9911715674261711e-02
         - 1.4862033923811826e-02
         - 3.0143607505394365e-02
         - 4.4916817656288840e-02
         - -3.8153100760708186e-02
         - 4.6437069328704984e-02
         - -2.5275093827451876e-02
         - 3.4933620067793027e-02
         - 4.4068806179899993e-02
         - -1.2723544597139922e-02
         - -4.2019810991361872e-02
         - -6.7541568640372002e-03
         - 2.3558921927364498e-02
         - 2.5187631180604759e-02
         - 1.2681413065626640e-01
         - -2.4219403279848534e-02
         - 3.2342531709553957e-01
         - -1.2127085631076444e-02
         - 1.8206473240076286e-02
         - 1.1013583539339025e-01
         - -2.7966373401611393e-02
         - 1.8424231591515544e-02
         - 4.9495081664998546e-02
         - 1.7462502606085323e-01
         - 4.7693337094035088e-02
         - 2.1630238719344561e-03
         - 1.6112834582744612e-01
         - -8.6940824397502506e-03
         - 1.6088858440467809e-02
         - 1.3521327096452391e-03
         - 1.8279554665364319e-02
         - -3.5802803612610651e-02
         - 7.1602052033084267e-03
         - -2.7562801630424620e-02
         - -6.3163107800923973e-03
         - 2.4028248439435768e-02
         - -1.4128661177146350e-04
         - 1.5370236415789556e-02
         - -3.4943967673496903e-02
         - 5.4265422966590836e-02
         - -3.7149029306480535e-02
         - 1.1523825851013008e-02
         - -2.4526146104223223e-01
         - -7.2243107297307402e-02
         - 3.6821091122192132e-02
         - -6.8616533616359082e-02
         - 3.5990665586649914e-02
         - -1.9464113510432486e-02
         - -8.1636923649645934e-03
         - -1.5591252639317557e-01
         - 1.3443363087844526e-01
         - 7.5029118738840841e-03
         - 1.5350385203106202e-03
         - 4.6744663987228659e-02
         - -3.5696946184028949e-01
         - 3.0405037112110755e-01
         - -8.1415596638174884e-03
         - 2.1717302907112518e-02
         - -3.0127680734825159e-02
         - -3.8565643813748704e-02
         - -3.1408658452764651e-02
         - -9.0637641512107420e-03
         - 1.8987068009161168e-02
         - -8.6275752161558174e-03
         - 2.6306888313330248e-02
         - -5.9689573017884447e-02
         - -1.3766004124965585e-02
         - 2.6904578190530298e-02
         - 3.6225615289732123e-02
         - 4.0244958873725381e-02
         - 1.2364873360588888e-01
         - 3.7045538350107335e-02
         - -3.2951857829522424e-02
         - 2.0444582953936094e-01
         - 1.7663467188313485e-02
         - -3.6147461207128383e-02
         - -8.8180920027048910e-04
         - -3.1283226195298719e-02
         - -6.7587892338851013e-02
         - 3.3614946493845548e-02
         - 3.4595861686984405e-02
         - -3.0718217451400489e-02
         - -2.4390753278193084e-02
         - 1.1436066841188091e-02
         - -6.2662430470404012e-02
         - -2.7772318073611938e-03
         - 4.0985913535947172e-01
         - 3.3468730476674008e-02
         - 1.6563200916829947e-03
         - 8.3828820622836996e-04
         - -3.0360772745138539e-02
         - -3.7636984880150752e-03
         - 3.3914804044822044e-01
         - -1.0063208830726679e-02
